{"learner":{"attributes":{},"gradient_booster":{"model":{"gbtree_model_param":{"num_trees":"100","size_leaf_vector":"0"},"tree_info":[0,1,2,3,0,1,2,3,0,1,2,3,0,1,2,3,0,1,2,3,0,1,2,3,0,1,2,3,0,1,2,3,0,1,2,3,0,1,2,3,0,1,2,3,0,1,2,3,0,1,2,3,0,1,2,3,0,1,2,3,0,1,2,3,0,1,2,3,0,1,2,3,0,1,2,3,0,1,2,3,0,1,2,3,0,1,2,3,0,1,2,3,0,1,2,3,0,1,2,3],"trees":[{"base_weights":[-6.38261497020721436e-01,2.89200812578201294e-01,-6.49552285671234131e-01,6.42643451690673828e-01,-6.63101598620414734e-02,6.97086036205291748e-01,-6.51974678039550781e-01,-1.08235292136669159e-01,6.64113759994506836e-01,-5.38595855236053467e-01,2.26357936859130859e-01,5.06963789463043213e-01,7.86262094974517822e-01,5.15931904315948486e-01,-6.53061747550964355e-01,-3.97212535142898560e-01,4.65753436088562012e-01,6.80791735649108887e-01,-1.97183102369308472e-01,8.51063847541809082e-01,-5.84926068782806396e-01,8.40521574020385742e-01,5.73318637907505035e-02,-4.51612889766693115e-01,5.47033309936523438e-01,-3.63636374473571777e-01,8.01214993000030518e-01,-2.20095694065093994e-01,5.87559819221496582e-01,2.21543163061141968e-01,-6.53992712497711182e-01,8.00000011920928955e-01,-4.72727268934249878e-01,1.13846158981323242e+00,-6.74157291650772095e-02,6.89592242240905762e-01,-5.42056083679199219e-01,7.14285731315612793e-01,-4.06779646873474121e-01,-4.61538463830947876e-01,1.01176476478576660e+00,-2.14983716607093811e-01,-6.29959523677825928e-01,1.09919571876525879e+00,6.81528687477111816e-01,-5.95496237277984619e-01,1.86314925551414490e-01,1.17647059261798859e-01,-5.66037714481353760e-01,1.30769228935241699e+00,4.82115089893341064e-01,1.17647059261798859e-01,-5.14285743236541748e-01,2.24719103425741196e-02,8.23039531707763672e-01,1.05882358551025391e+00,-3.19999992847442627e-01,-4.28571432828903198e-01,6.13124370574951172e-01,-4.02985066175460815e-01,3.80861252546310425e-01,-4.85726654529571533e-01,-6.56565904617309570e-01],"default_left":[false,false,false,false,false,false,false,false,true,false,false,false,false,false,false,false,false,true,false,false,false,false,false,false,false,false,false,false,false,false,false,false,false,false,false,false,false,false,false,false,false,false,false,false,false,false,false,false,false,false,false,false,false,false,false,false,false,false,false,false,false,false,false],"id":0,"leaf_child_counts":[0,0,0,0,0,0,0,0,0,0,0,0,0,0,0,2,2,2,2,2,2,2,2,2,2,2,2,2,2,2,2,0,0,0,0,0,0,0,0,0,0,0,0,0,0,0,0,0,0,0,0,0,0,0,0,0,0,0,0,0,0,0,0],"left_children":[1,3,5,7,9,11,13,15,17,19,21,23,25,27,29,31,33,35,37,39,41,43,45,47,49,51,53,55,57,59,61,-1,-1,-1,-1,-1,-1,-1,-1,-1,-1,-1,-1,-1,-1,-1,-1,-1,-1,-1,-1,-1,-1,-1,-1,-1,-1,-1,-1,-1,-1,-1,-1],"loss_changes":[3.26378906250000000e+03,4.71130432128906250e+02,1.00489062500000000e+03,3.03825683593750000e+01,2.58598846435546875e+02,8.98352050781250000e+00,3.90554687500000000e+02,8.99682998657226562e+00,2.63928833007812500e+01,4.65800781250000000e+01,1.19877929687500000e+02,7.14158630371093750e+00,6.73707580566406250e+00,1.52270355224609375e+01,2.50156250000000000e+02,3.62153959274291992e+00,6.62242698669433594e+00,1.96749267578125000e+01,7.07250308990478516e+00,5.42397308349609375e+00,1.14139556884765625e+01,9.50186157226562500e+00,7.64837722778320312e+01,5.71408152580261230e-01,7.90004348754882812e+00,4.59281921386718750e-01,6.27630615234375000e+00,3.67680263519287109e+00,7.04924774169921875e+00,3.27144088745117188e+01,1.32500000000000000e+02,0.00000000000000000e+00,0.00000000000000000e+00,0.00000000000000000e+00,0.00000000000000000e+00,0.00000000000000000e+00,0.00000000000000000e+00,0.00000000000000000e+00,0.00000000000000000e+00,0.00000000000000000e+00,0.00000000000000000e+00,0.00000000000000000e+00,0.00000000000000000e+00,0.00000000000000000e+00,0.00000000000000000e+00,0.00000000000000000e+00,0.00000000000000000e+00,0.00000000000000000e+00,0.00000000000000000e+00,0.00000000000000000e+00,0.00000000000000000e+00,0.00000000000000000e+00,0.00000000000000000e+00,0.00000000000000000e+00,0.00000000000000000e+00,0.00000000000000000e+00,0.00000000000000000e+00,0.00000000000000000e+00,0.00000000000000000e+00,0.00000000000000000e+00,0.00000000000000000e+00,0.00000000000000000e+00,0.00000000000000000e+00],"parents":[2147483647,0,0,1,1,2,2,3,3,4,4,5,5,6,6,7,7,8,8,9,9,10,10,11,11,12,12,13,13,14,14,15,15,16,16,17,17,18,18,19,19,20,20,21,21,22,22,23,23,24,24,25,25,26,26,27,27,28,28,29,29,30,30],"right_children":[2,4,6,8,10,12,14,16,18,20,22,24,26,28,30,32,34,36,38,40,42,44,46,48,50,52,54,56,58,60,62,-1,-1,-1,-1,-1,-1,-1,-1,-1,-1,-1,-1,-1,-1,-1,-1,-1,-1,-1,-1,-1,-1,-1,-1,-1,-1,-1,-1,-1,-1,-1,-1],"split_conditions":[1.50000000000000000e+00,5.50000000000000000e+00,1.50000000000000000e+00,2.00000095367431641e+00,2.80000000000000000e+01,3.50000000000000000e+00,4.00000095367431641e+00,4.00000095367431641e+00,1.50000000000000000e+00,2.00000095367431641e+00,8.00000095367431641e+00,1.50000000000000000e+00,8.00000095367431641e+00,8.00000095367431641e+00,4.00000095367431641e+00,1.50000000000000000e+00,2.00000095367431641e+00,1.50000000000000000e+00,1.50000000000000000e+00,4.00000095367431641e+00,5.50000000000000000e+00,2.00000095367431641e+00,3.80000000000000000e+01,2.00000095367431641e+00,1.50000000000000000e+00,6.00000095367431641e+00,4.00000095367431641e+00,2.00000095367431641e+00,1.00000009536743164e+01,1.40000009536743164e+01,4.50000000000000000e+00,2.40000009536743164e-01,-1.41818180680274963e-01,3.41538488864898682e-01,-2.02247202396392822e-02,2.06877678632736206e-01,-1.62616834044456482e-01,2.14285731315612793e-01,-1.22033901512622833e-01,-1.38461545109748840e-01,3.03529441356658936e-01,-6.44951164722442627e-02,-1.88987866044044495e-01,3.29758733510971069e-01,2.04458609223365784e-01,-1.78648874163627625e-01,5.58944791555404663e-02,3.52941192686557770e-02,-1.69811323285102844e-01,3.92307698726654053e-01,1.44634529948234558e-01,3.52941192686557770e-02,-1.54285728931427002e-01,6.74157356843352318e-03,2.46911868453025818e-01,3.17647099494934082e-01,-9.60000008344650269e-02,-1.28571435809135437e-01,1.83937311172485352e-01,-1.20895527303218842e-01,1.14258378744125366e-01,-1.45718008279800415e-01,-1.96969777345657349e-01],"split_indices":[14823,2620,15206,3520,13092,9919,11662,2622,2887,15204,11255,12561,14253,12326,10708,1170,10715,3828,11255,11896,9896,15206,2887,1855,10715,1123,11809,13797,11751,13092,11255,0,0,0,0,0,0,0,0,0,0,0,0,0,0,0,0,0,0,0,0,0,0,0,0,0,0,0,0,0,0,0,0],"sum_hessian":[3.11655750000000000e+05,3.74812500000000000e+03,3.07907625000000000e+05,1.87912500000000000e+03,1.86900000000000000e+03,5.52375000000000000e+02,3.07355250000000000e+05,5.21250000000000000e+01,1.82700000000000000e+03,7.14750000000000000e+02,1.15425000000000000e+03,1.78500000000000000e+02,3.73875000000000000e+02,2.85375000000000000e+02,3.07069875000000000e+05,3.48750000000000000e+01,1.72500000000000000e+01,1.79250000000000000e+03,3.45000000000000000e+01,2.25000000000000000e+01,6.92250000000000000e+02,2.48250000000000000e+02,9.06000000000000000e+02,6.75000000000000000e+00,1.71750000000000000e+02,4.50000000000000000e+00,3.69375000000000000e+02,2.51250000000000000e+01,2.60250000000000000e+02,3.26250000000000000e+02,3.06743625000000000e+05,1.50000000000000000e+00,3.33750000000000000e+01,7.12500000000000000e+00,1.01250000000000000e+01,1.78012500000000000e+03,1.23750000000000000e+01,6.00000000000000000e+00,2.85000000000000000e+01,2.25000000000000000e+00,2.02500000000000000e+01,7.57500000000000000e+01,6.16500000000000000e+02,9.22500000000000000e+01,1.56000000000000000e+02,1.48875000000000000e+02,7.57125000000000000e+02,1.12500000000000000e+00,5.62500000000000000e+00,1.20000000000000000e+01,1.59750000000000000e+02,1.12500000000000000e+00,3.37500000000000000e+00,1.01250000000000000e+01,3.59250000000000000e+02,1.12500000000000000e+00,2.40000000000000000e+01,6.00000000000000000e+00,2.54250000000000000e+02,6.60000000000000000e+01,2.60250000000000000e+02,4.62300000000000000e+03,3.02120625000000000e+05],"tree_param":{"num_feature":"17082","num_nodes":"63","size_leaf_vector":"0"}},{"base_weights":[1.77786135673522949e+00,3.57624620199203491e-01,1.86603033542633057e+00,3.47908549010753632e-02,5.52342414855957031e-01,8.88196706771850586e-01,1.89436972141265869e+00,1.60000002384185791e+00,-1.16388211026787758e-02,9.32582795619964600e-01,4.25462007522583008e-01,3.00630062818527222e-01,1.34356880187988281e+00,4.46958571672439575e-01,1.90789079666137695e+00,-1.42857149243354797e-01,1.65535247325897217e+00,1.31658291816711426e+00,-5.25480769574642181e-02,3.08349281549453735e-01,1.19779396057128906e+00,2.34379142522811890e-01,7.23037123680114746e-01,1.58059322834014893e+00,7.37421065568923950e-02,8.62546861171722412e-01,1.57916629314422607e+00,9.07719060778617859e-02,6.91803812980651855e-01,9.98691558837890625e-01,1.91971814632415771e+00,1.05882358551025391e+00,-5.53191483020782471e-01,-5.71428574621677399e-02,1.68637871742248535e+00,1.24223604798316956e-02,1.45517718791961670e+00,3.48642796277999878e-01,-1.45077973604202271e-01,1.46096253395080566e+00,1.24147340655326843e-01,7.08637595176696777e-01,1.35895943641662598e+00,1.52330613136291504e+00,1.66354104876518250e-01,5.83351068198680878e-02,8.64894390106201172e-01,-2.30769231915473938e-01,1.62191390991210938e+00,-1.83609083294868469e-01,3.63038599491119385e-01,1.96164906024932861e+00,7.59861111640930176e-01,2.57854819297790527e-01,1.62928211688995361e+00,1.68831169605255127e+00,3.15093211829662323e-02,1.76923072338104248e+00,6.24851644039154053e-01,6.84477686882019043e-01,1.33229148387908936e+00,8.76211225986480713e-01,1.92793226242065430e+00],"default_left":[false,false,false,false,false,false,false,false,false,false,false,false,false,false,false,false,false,false,false,false,false,false,false,false,false,false,false,false,false,false,false,false,false,false,false,false,false,false,false,false,false,false,false,false,false,false,false,false,false,false,false,false,false,false,false,false,false,false,false,false,false,false,false],"id":1,"leaf_child_counts":[0,0,0,0,0,0,0,0,0,0,0,0,0,0,0,2,2,2,2,2,2,2,2,2,2,2,2,2,2,2,2,0,0,0,0,0,0,0,0,0,0,0,0,0,0,0,0,0,0,0,0,0,0,0,0,0,0,0,0,0,0,0,0],"left_children":[1,3,5,7,9,11,13,15,17,19,21,23,25,27,29,31,33,35,37,39,41,43,45,47,49,51,53,55,57,59,61,-1,-1,-1,-1,-1,-1,-1,-1,-1,-1,-1,-1,-1,-1,-1,-1,-1,-1,-1,-1,-1,-1,-1,-1,-1,-1,-1,-1,-1,-1,-1,-1],"loss_changes":[3.90252500000000000e+04,1.14519897460937500e+03,8.12981250000000000e+03,4.98204406738281250e+02,5.47853759765625000e+02,2.21145996093750000e+03,5.58018750000000000e+03,1.92896423339843750e+01,3.61882781982421875e+02,4.70196289062500000e+02,4.84432739257812500e+02,1.04847509765625000e+03,5.26405273437500000e+02,2.30227661132812500e+02,3.03625000000000000e+03,4.03736829757690430e+00,1.02711791992187500e+01,3.59510192871093750e+01,2.39887466430664062e+02,1.80046356201171875e+02,1.56273437500000000e+02,4.54922760009765625e+02,3.14145141601562500e+02,4.10627441406250000e+01,2.28490997314453125e+02,1.71555297851562500e+02,2.06496093750000000e+02,1.01899230957031250e+02,1.11769348144531250e+02,3.79617187500000000e+02,2.38900000000000000e+03,0.00000000000000000e+00,0.00000000000000000e+00,0.00000000000000000e+00,0.00000000000000000e+00,0.00000000000000000e+00,0.00000000000000000e+00,0.00000000000000000e+00,0.00000000000000000e+00,0.00000000000000000e+00,0.00000000000000000e+00,0.00000000000000000e+00,0.00000000000000000e+00,0.00000000000000000e+00,0.00000000000000000e+00,0.00000000000000000e+00,0.00000000000000000e+00,0.00000000000000000e+00,0.00000000000000000e+00,0.00000000000000000e+00,0.00000000000000000e+00,0.00000000000000000e+00,0.00000000000000000e+00,0.00000000000000000e+00,0.00000000000000000e+00,0.00000000000000000e+00,0.00000000000000000e+00,0.00000000000000000e+00,0.00000000000000000e+00,0.00000000000000000e+00,0.00000000000000000e+00,0.00000000000000000e+00,0.00000000000000000e+00],"parents":[2147483647,0,0,1,1,2,2,3,3,4,4,5,5,6,6,7,7,8,8,9,9,10,10,11,11,12,12,13,13,14,14,15,15,16,16,17,17,18,18,19,19,20,20,21,21,22,22,23,23,24,24,25,25,26,26,27,27,28,28,29,29,30,30],"right_children":[2,4,6,8,10,12,14,16,18,20,22,24,26,28,30,32,34,36,38,40,42,44,46,48,50,52,54,56,58,60,62,-1,-1,-1,-1,-1,-1,-1,-1,-1,-1,-1,-1,-1,-1,-1,-1,-1,-1,-1,-1,-1,-1,-1,-1,-1,-1,-1,-1,-1,-1,-1,-1],"split_conditions":[9.50000000000000000e+00,6.00000095367431641e+00,1.00000009536743164e+01,1.60000000000000000e+01,2.50000000000000000e+00,2.75000000000000000e+01,2.40000000000000000e+01,3.50000000000000000e+00,1.00000009536743164e+01,6.00000095367431641e+00,1.25000000000000000e+01,1.00000009536743164e+01,1.60000000000000000e+01,4.00000095367431641e+00,1.50000000000000000e+00,1.20000009536743164e+01,6.50000000000000000e+00,4.00000095367431641e+00,3.20000000000000000e+01,1.00000009536743164e+01,3.20000000000000000e+01,1.00000009536743164e+01,2.40000000000000000e+01,1.50000000000000000e+00,2.20000000000000000e+01,2.80000000000000000e+01,6.00000095367431641e+00,6.00000095367431641e+00,2.60000000000000000e+01,7.50000000000000000e+00,4.00000095367431641e+00,3.17647099494934082e-01,-1.65957450866699219e-01,-1.71428583562374115e-02,5.05913615226745605e-01,3.72670823708176613e-03,4.36553180217742920e-01,1.04592844843864441e-01,-4.35233935713768005e-02,4.38288778066635132e-01,3.72442044317722321e-02,2.12591290473937988e-01,4.07687842845916748e-01,4.56991851329803467e-01,4.99062351882457733e-02,1.75005327910184860e-02,2.59468317031860352e-01,-6.92307725548744202e-02,4.86574202775955200e-01,-5.50827272236347198e-02,1.08911581337451935e-01,5.88494718074798584e-01,2.27958336472511292e-01,7.73564502596855164e-02,4.88784641027450562e-01,5.06493508815765381e-01,9.45279654115438461e-03,5.30769228935241699e-01,1.87455505132675171e-01,2.05343320965766907e-01,3.99687469005584717e-01,2.62863367795944214e-01,5.78379690647125244e-01],"split_indices":[11212,16532,11224,417,14010,9919,11209,2350,416,16098,9919,11228,1890,16530,14823,7262,6625,17048,7507,417,14003,11863,13219,16963,1890,11297,16963,416,417,2620,16099,0,0,0,0,0,0,0,0,0,0,0,0,0,0,0,0,0,0,0,0,0,0,0,0,0,0,0,0,0,0,0,0],"sum_hessian":[3.11655750000000000e+05,1.82171250000000000e+04,2.93438625000000000e+05,6.85425000000000000e+03,1.13628750000000000e+04,8.26575000000000000e+03,2.85172875000000000e+05,1.96500000000000000e+02,6.65775000000000000e+03,2.84137500000000000e+03,8.52150000000000000e+03,3.60975000000000000e+03,4.65600000000000000e+03,2.63962500000000000e+03,2.82533250000000000e+05,6.00000000000000000e+00,1.90500000000000000e+02,1.98000000000000000e+02,6.45975000000000000e+03,8.47875000000000000e+02,1.99350000000000000e+03,5.19037500000000000e+03,3.33112500000000000e+03,5.42625000000000000e+02,3.06712500000000000e+03,1.53225000000000000e+03,3.12375000000000000e+03,1.07587500000000000e+03,1.56375000000000000e+03,3.62925000000000000e+03,2.78904000000000000e+05,1.12500000000000000e+00,4.87500000000000000e+00,3.37500000000000000e+00,1.87125000000000000e+02,1.91250000000000000e+01,1.78875000000000000e+02,1.21012500000000000e+03,5.24962500000000000e+03,1.15875000000000000e+02,7.32000000000000000e+02,4.95375000000000000e+02,1.49812500000000000e+03,2.59125000000000000e+02,4.93125000000000000e+03,5.86125000000000000e+02,2.74500000000000000e+03,1.20000000000000000e+01,5.30625000000000000e+02,1.62337500000000000e+03,1.44375000000000000e+03,1.29375000000000000e+02,1.40287500000000000e+03,1.14375000000000000e+02,3.00937500000000000e+03,3.75000000000000000e+01,1.03837500000000000e+03,9.00000000000000000e+01,1.47375000000000000e+03,1.87050000000000000e+03,1.75875000000000000e+03,2.17912500000000000e+03,2.76724875000000000e+05],"tree_param":{"num_feature":"17082","num_nodes":"63","size_leaf_vector":"0"}},{"base_weights":[-5.02432584762573242e-01,7.65810906887054443e-01,-5.81174612045288086e-01,-1.62328556180000305e-01,1.07448410987854004e+00,4.36991572380065918e-01,-6.10687732696533203e-01,1.07799232006072998e+00,-3.68139445781707764e-01,1.24983990192413330e+00,7.38659083843231201e-01,1.02014815807342529e+00,-1.52458660304546356e-02,6.14525139331817627e-01,-6.22135102748870850e-01,-3.73205751180648804e-01,1.13717615604400635e+00,-6.57404482364654541e-01,-1.70449033379554749e-01,-3.64754110574722290e-01,1.29478406906127930e+00,1.32617294788360596e+00,6.02041125297546387e-01,-2.57070600986480713e-01,1.24611937999725342e+00,4.66655790805816650e-01,-2.51700133085250854e-01,-1.47886320948600769e-01,9.97794687747955322e-01,8.99197161197662354e-01,-6.25156939029693604e-01,9.47368443012237549e-01,-6.36871516704559326e-01,-5.69343090057373047e-01,1.18350517749786377e+00,-6.58659934997558594e-01,4.00000005960464478e-01,1.21726620197296143e+00,-2.24361851811408997e-01,4.53531593084335327e-01,-4.93199288845062256e-01,-1.58467113971710205e-01,1.33591258525848389e+00,-4.61538463830947876e-01,1.34121668338775635e+00,-6.24203801155090332e-01,6.54576539993286133e-01,1.46153843402862549e+00,-2.98612743616104126e-01,1.50134670734405518e+00,9.58297312259674072e-01,-6.46212875843048096e-01,5.69673240184783936e-01,1.05525457859039307e+00,-3.01706612110137939e-01,1.10177278518676758e+00,-4.90104347467422485e-01,1.28795814514160156e+00,7.47853636741638184e-01,-4.44049745798110962e-01,1.08984470367431641e+00,-2.59476900100708008e-01,-6.31497740745544434e-01],"default_left":[false,false,false,false,false,false,false,false,false,false,false,false,false,false,false,false,false,true,false,false,false,false,false,false,false,false,false,false,false,false,false,false,false,false,false,false,false,false,false,false,false,false,false,false,false,false,false,false,false,false,false,false,false,false,false,false,false,false,false,false,false,false,false],"id":2,"leaf_child_counts":[0,0,0,0,0,0,0,0,0,0,0,0,0,0,0,2,2,2,2,2,2,2,2,2,2,2,2,2,2,2,2,0,0,0,0,0,0,0,0,0,0,0,0,0,0,0,0,0,0,0,0,0,0,0,0,0,0,0,0,0,0,0,0],"left_children":[1,3,5,7,9,11,13,15,17,19,21,23,25,27,29,31,33,35,37,39,41,43,45,47,49,51,53,55,57,59,61,-1,-1,-1,-1,-1,-1,-1,-1,-1,-1,-1,-1,-1,-1,-1,-1,-1,-1,-1,-1,-1,-1,-1,-1,-1,-1,-1,-1,-1,-1,-1,-1],"loss_changes":[3.11237500000000000e+04,5.21983984375000000e+03,8.81789062500000000e+03,1.16133984375000000e+03,8.04227539062500000e+02,2.18016625976562500e+03,4.00005468750000000e+03,5.60365600585937500e+01,2.22987792968750000e+02,6.52174804687500000e+02,3.75854980468750000e+02,1.04243603515625000e+03,5.30771911621093750e+02,7.71652709960937500e+02,1.29943750000000000e+03,9.69982147216796875e+00,4.98796386718750000e+01,2.36560058593750000e+00,1.73761215209960938e+02,2.58692665100097656e+01,5.22466796875000000e+02,2.44064941406250000e+01,2.45797363281250000e+02,3.92483901977539062e+01,2.23945800781250000e+02,1.76147369384765625e+02,2.04540100097656250e+02,3.78641235351562500e+02,1.26469970703125000e+02,1.44020568847656250e+02,6.53648437500000000e+02,0.00000000000000000e+00,0.00000000000000000e+00,0.00000000000000000e+00,0.00000000000000000e+00,0.00000000000000000e+00,0.00000000000000000e+00,0.00000000000000000e+00,0.00000000000000000e+00,0.00000000000000000e+00,0.00000000000000000e+00,0.00000000000000000e+00,0.00000000000000000e+00,0.00000000000000000e+00,0.00000000000000000e+00,0.00000000000000000e+00,0.00000000000000000e+00,0.00000000000000000e+00,0.00000000000000000e+00,0.00000000000000000e+00,0.00000000000000000e+00,0.00000000000000000e+00,0.00000000000000000e+00,0.00000000000000000e+00,0.00000000000000000e+00,0.00000000000000000e+00,0.00000000000000000e+00,0.00000000000000000e+00,0.00000000000000000e+00,0.00000000000000000e+00,0.00000000000000000e+00,0.00000000000000000e+00,0.00000000000000000e+00],"parents":[2147483647,0,0,1,1,2,2,3,3,4,4,5,5,6,6,7,7,8,8,9,9,10,10,11,11,12,12,13,13,14,14,15,15,16,16,17,17,18,18,19,19,20,20,21,21,22,22,23,23,24,24,25,25,26,26,27,27,28,28,29,29,30,30],"right_children":[2,4,6,8,10,12,14,16,18,20,22,24,26,28,30,32,34,36,38,40,42,44,46,48,50,52,54,56,58,60,62,-1,-1,-1,-1,-1,-1,-1,-1,-1,-1,-1,-1,-1,-1,-1,-1,-1,-1,-1,-1,-1,-1,-1,-1,-1,-1,-1,-1,-1,-1,-1,-1],"split_conditions":[2.40000000000000000e+01,5.60000000000000000e+01,1.00000009536743164e+01,2.50000000000000000e+00,6.00000000000000000e+01,2.75000000000000000e+01,1.10000000000000000e+01,6.00000095367431641e+00,3.00000000000000000e+01,2.50000000000000000e+00,2.40000000000000000e+01,1.00000009536743164e+01,1.60000000000000000e+01,5.40000000000000000e+01,1.50000000000000000e+00,1.50000000000000000e+00,4.00000095367431641e+00,3.50000000000000000e+00,6.00000095367431641e+00,3.00000000000000000e+00,4.50000000000000000e+00,2.00000095367431641e+00,3.00000000000000000e+01,1.50000000000000000e+00,2.20000000000000000e+01,2.80000000000000000e+01,6.00000095367431641e+00,6.00000095367431641e+00,1.50000000000000000e+00,2.00000095367431641e+00,1.75000000000000000e+01,2.84210532903671265e-01,-1.91061466932296753e-01,-1.70802935957908630e-01,3.55051577091217041e-01,-1.97597995400428772e-01,1.20000004768371582e-01,3.65179866552352905e-01,-6.73085600137710571e-02,1.36059477925300598e-01,-1.47959798574447632e-01,-4.75401356816291809e-02,4.00773793458938599e-01,-1.38461545109748840e-01,4.02365028858184814e-01,-1.87261149287223816e-01,1.96372970938682556e-01,4.38461542129516602e-01,-8.95838290452957153e-02,4.50404018163681030e-01,2.87489205598831177e-01,-1.93863868713378906e-01,1.70901983976364136e-01,3.16576391458511353e-01,-9.05119851231575012e-02,3.30531835556030273e-01,-1.47031307220458984e-01,3.86387467384338379e-01,2.24356099963188171e-01,-1.33214935660362244e-01,3.26953411102294922e-01,-7.78430700302124023e-02,-1.89449325203895569e-01],"split_indices":[11212,14010,11224,16963,9919,9919,11209,417,8600,9300,13219,11228,1890,14010,16532,9896,16098,666,11224,3732,11863,9300,11297,16963,1890,11297,16963,16963,16530,16965,14003,0,0,0,0,0,0,0,0,0,0,0,0,0,0,0,0,0,0,0,0,0,0,0,0,0,0,0,0,0,0,0,0],"sum_hessian":[3.11655750000000000e+05,1.82182500000000000e+04,2.93437500000000000e+05,4.54687500000000000e+03,1.36713750000000000e+04,8.26575000000000000e+03,2.85171750000000000e+05,6.46500000000000000e+02,3.90037500000000000e+03,8.97975000000000000e+03,4.69162500000000000e+03,3.60975000000000000e+03,4.65600000000000000e+03,2.63925000000000000e+03,2.82532500000000000e+05,2.51250000000000000e+01,6.21375000000000000e+02,1.58250000000000000e+03,2.31787500000000000e+03,2.43000000000000000e+02,8.73675000000000000e+03,8.83500000000000000e+02,3.80812500000000000e+03,5.42625000000000000e+02,3.06712500000000000e+03,1.53225000000000000e+03,3.12375000000000000e+03,8.83125000000000000e+02,1.75612500000000000e+03,5.59500000000000000e+02,2.81973000000000000e+05,3.75000000000000000e+00,2.13750000000000000e+01,1.61250000000000000e+01,6.05250000000000000e+02,1.58100000000000000e+03,1.50000000000000000e+00,8.58750000000000000e+01,2.23200000000000000e+03,3.26250000000000000e+01,2.10375000000000000e+02,2.40375000000000000e+02,8.49637500000000000e+03,7.12500000000000000e+00,8.76375000000000000e+02,1.56000000000000000e+02,3.65212500000000000e+03,1.20000000000000000e+01,5.30625000000000000e+02,1.62337500000000000e+03,1.44375000000000000e+03,1.29375000000000000e+02,1.40287500000000000e+03,1.14375000000000000e+02,3.00937500000000000e+03,1.89375000000000000e+02,6.93750000000000000e+02,8.10750000000000000e+02,9.45375000000000000e+02,6.93750000000000000e+01,4.90125000000000000e+02,4.80675000000000000e+03,2.77166250000000000e+05],"tree_param":{"num_feature":"17082","num_nodes":"63","size_leaf_vector":"0"}},{"base_weights":[-6.37167334556579590e-01,6.92680060863494873e-01,-6.55597388744354248e-01,-2.91354119777679443e-01,8.64229857921600342e-01,1.85881152749061584e-01,-6.61019980907440186e-01,9.09090936183929443e-01,-3.01391661167144775e-01,1.65327548980712891e+00,6.58447623252868652e-01,8.04507613182067871e-01,-3.04846726357936859e-02,9.11663025617599487e-02,-6.62981390953063965e-01,-3.52941185235977173e-01,1.31428575515747070e+00,4.00000005960464478e-01,-3.16558450460433960e-01,8.40294837951660156e-01,1.71000003814697266e+00,1.35008215904235840e+00,5.01357495784759521e-01,-3.80566805601119995e-01,9.65517222881317139e-01,1.03818953037261963e+00,-9.92804467678070068e-02,5.27343750000000000e-01,-1.15687184035778046e-01,6.79711624979972839e-02,-6.64146006107330322e-01,1.44827580451965332e+00,2.24719103425741196e-02,-3.24632942676544189e-01,1.00000000000000000e+00,1.17870724201202393e+00,2.10526317358016968e-01,7.17557251453399658e-01,1.73123967647552490e+00,5.07772028446197510e-01,1.43107450008392334e+00,8.63676786422729492e-01,2.39882811903953552e-01,6.20689630508422852e-01,-4.35517966747283936e-01,-1.23569793999195099e-01,1.11335647106170654e+00,-2.04081639647483826e-01,1.22204208374023438e+00,8.84927093982696533e-01,-1.57762780785560608e-01,-4.52830195426940918e-01,6.37744009494781494e-01,4.29149806499481201e-01,-1.85610011219978333e-01,5.98019778728485107e-01,-1.17973633110523224e-01,-2.42966756224632263e-01,-6.64685964584350586e-01],"default_left":[false,false,false,false,false,false,false,false,false,false,false,false,false,false,false,false,false,false,true,false,false,false,false,false,false,false,false,false,false,false,false,false,false,false,false,false,false,false,false,false,false,false,false,false,false,false,false,false,false,false,false,false,false,false,false,false,false,false,false],"id":3,"leaf_child_counts":[0,0,0,0,0,0,0,2,0,0,0,0,0,0,0,0,0,2,2,2,2,2,2,2,2,2,2,2,2,2,2,0,0,0,0,0,0,0,0,0,0,0,0,0,0,0,0,0,0,0,0,0,0,0,0,0,0,0,0],"left_children":[1,3,5,7,9,11,13,15,17,19,21,23,25,27,29,-1,-1,31,33,35,37,39,41,43,45,47,49,51,53,55,57,-1,-1,-1,-1,-1,-1,-1,-1,-1,-1,-1,-1,-1,-1,-1,-1,-1,-1,-1,-1,-1,-1,-1,-1,-1,-1,-1,-1],"loss_changes":[7.63889062500000000e+03,7.19491577148437500e+02,1.40276562500000000e+03,7.90433502197265625e+00,5.88056396484375000e+02,2.63574432373046875e+02,4.50687500000000000e+02,3.27639436721801758e+00,6.81518173217773438e+00,3.31440429687500000e+01,3.12177978515625000e+02,9.77274475097656250e+01,1.07424285888671875e+02,7.18122940063476562e+01,2.59375000000000000e+02,0.00000000000000000e+00,0.00000000000000000e+00,5.40906620025634766e+00,6.87306213378906250e+00,1.05944061279296875e+01,1.35133056640625000e+01,3.55922851562500000e+01,2.22247863769531250e+02,3.66781997680664062e+00,7.25115051269531250e+01,2.04337844848632812e+01,7.91317977905273438e+01,2.79909286499023438e+01,2.06613121032714844e+01,4.79213218688964844e+01,6.90000000000000000e+01,0.00000000000000000e+00,0.00000000000000000e+00,0.00000000000000000e+00,0.00000000000000000e+00,0.00000000000000000e+00,0.00000000000000000e+00,0.00000000000000000e+00,0.00000000000000000e+00,0.00000000000000000e+00,0.00000000000000000e+00,0.00000000000000000e+00,0.00000000000000000e+00,0.00000000000000000e+00,0.00000000000000000e+00,0.00000000000000000e+00,0.00000000000000000e+00,0.00000000000000000e+00,0.00000000000000000e+00,0.00000000000000000e+00,0.00000000000000000e+00,0.00000000000000000e+00,0.00000000000000000e+00,0.00000000000000000e+00,0.00000000000000000e+00,0.00000000000000000e+00,0.00000000000000000e+00,0.00000000000000000e+00,0.00000000000000000e+00],"parents":[2147483647,0,0,1,1,2,2,3,3,4,4,5,5,6,6,7,7,8,8,9,9,10,10,11,11,12,12,13,13,14,14,17,17,18,18,19,19,20,20,21,21,22,22,23,23,24,24,25,25,26,26,27,27,28,28,29,29,30,30],"right_children":[2,4,6,8,10,12,14,16,18,20,22,24,26,28,30,-1,-1,32,34,36,38,40,42,44,46,48,50,52,54,56,58,-1,-1,-1,-1,-1,-1,-1,-1,-1,-1,-1,-1,-1,-1,-1,-1,-1,-1,-1,-1,-1,-1,-1,-1,-1,-1,-1,-1],"split_conditions":[6.00000095367431641e+00,1.60000000000000000e+01,1.50000000000000000e+00,2.00000095367431641e+00,6.00000095367431641e+00,2.40000000000000000e+01,6.50000000000000000e+00,2.00000095367431641e+00,1.00000009536743164e+01,2.00000000000000000e+00,6.00000095367431641e+00,8.00000095367431641e+00,6.00000095367431641e+00,1.60000000000000000e+01,3.50000000000000000e+00,-1.05882361531257629e-01,3.94285738468170166e-01,6.00000095367431641e+00,4.50000000000000000e+00,6.00000095367431641e+00,1.50000000000000000e+00,4.00000095367431641e+00,1.45000000000000000e+01,4.00000095367431641e+00,1.00000009536743164e+01,4.00000095367431641e+00,1.50000000000000000e+00,1.00000009536743164e+01,4.00000095367431641e+00,7.00000000000000000e+00,4.50000000000000000e+00,4.34482753276824951e-01,6.74157356843352318e-03,-9.73898842930793762e-02,3.00000011920928955e-01,3.53612184524536133e-01,6.31579011678695679e-02,2.15267181396484375e-01,5.19371926784515381e-01,1.52331620454788208e-01,4.29322361946105957e-01,2.59103059768676758e-01,7.19648450613021851e-02,1.86206892132759094e-01,-1.30655393004417419e-01,-3.70709411799907684e-02,3.34006965160369873e-01,-6.12244941294193268e-02,3.66612643003463745e-01,2.65478134155273438e-01,-4.73288372159004211e-02,-1.35849058628082275e-01,1.91323205828666687e-01,1.28744944930076599e-01,-5.56830056011676788e-02,1.79405942559242249e-01,-3.53920906782150269e-02,-7.28900283575057983e-02,-1.99405804276466370e-01],"split_indices":[16098,417,16880,1525,17027,3368,8602,5358,5748,416,3356,417,3411,14010,13453,0,0,11955,13392,3220,10947,416,14010,850,416,417,3356,417,3356,3368,3220,0,0,0,0,0,0,0,0,0,0,0,0,0,0,0,0,0,0,0,0,0,0,0,0,0,0,0,0],"sum_hessian":[3.11655750000000000e+05,4.25962500000000000e+03,3.07396125000000000e+05,6.32250000000000000e+02,3.62737500000000000e+03,1.96800000000000000e+03,3.05428125000000000e+05,4.50000000000000000e+00,6.27750000000000000e+02,7.48875000000000000e+02,2.87850000000000000e+03,5.09250000000000000e+02,1.45875000000000000e+03,7.94250000000000000e+02,3.04633875000000000e+05,1.12500000000000000e+00,3.37500000000000000e+00,1.27500000000000000e+01,6.15000000000000000e+02,4.98750000000000000e+01,6.99000000000000000e+02,5.31375000000000000e+02,2.34712500000000000e+03,6.07500000000000000e+01,4.48500000000000000e+02,8.73750000000000000e+01,1.37137500000000000e+03,2.55000000000000000e+02,5.39250000000000000e+02,4.84500000000000000e+02,3.04149375000000000e+05,2.62500000000000000e+00,1.01250000000000000e+01,6.12000000000000000e+02,3.00000000000000000e+00,3.18750000000000000e+01,1.80000000000000000e+01,1.53750000000000000e+01,6.83625000000000000e+02,4.72500000000000000e+01,4.84125000000000000e+02,9.82875000000000000e+02,1.36425000000000000e+03,2.62500000000000000e+00,5.81250000000000000e+01,5.36250000000000000e+01,3.94875000000000000e+02,1.12500000000000000e+01,7.61250000000000000e+01,7.61250000000000000e+01,1.29525000000000000e+03,2.55000000000000000e+01,2.29500000000000000e+02,6.07500000000000000e+01,4.78500000000000000e+02,1.25250000000000000e+02,3.59250000000000000e+02,3.90000000000000000e+02,3.03759375000000000e+05],"tree_param":{"num_feature":"17082","num_nodes":"59","size_leaf_vector":"0"}},{"base_weights":[-5.87494313716888428e-01,2.13531032204627991e-01,-6.00418865680694580e-01,-3.26082110404968262e-01,3.72177213430404663e-01,6.36636853218078613e-01,-6.03112697601318359e-01,5.80844938755035400e-01,-4.63237732648849487e-01,4.11373019218444824e-01,-4.78316992521286011e-01,-3.60253661870956421e-01,6.50664627552032471e-01,5.03133952617645264e-01,-6.04347109794616699e-01,-5.66866219043731689e-01,6.24869763851165771e-01,3.39846312999725342e-02,-5.61581850051879883e-01,6.31607294082641602e-01,3.14910203218460083e-01,4.86100435256958008e-01,-5.54506838321685791e-01,5.55363357067108154e-01,-5.85533440113067627e-01,6.93773746490478516e-01,3.50230038166046143e-01,-1.31562620401382446e-01,5.56735217571258545e-01,2.56147444248199463e-01,-6.05395197868347168e-01,6.67528748512268066e-01,-5.18628895282745361e-01,2.13799774646759033e-01,-5.42986869812011719e-01,4.50401663780212402e-01,-5.76435267925262451e-01,1.56670594215393066e+00,6.15382730960845947e-01,-2.30768352746963501e-01,3.60404908657073975e-01,-1.54971614480018616e-01,9.05593574047088623e-01,4.25509512424468994e-01,-6.11041963100433350e-01,-2.54141509532928467e-01,7.09377825260162354e-01,1.39559257030487061e+00,2.88517445325851440e-01,8.70420157909393311e-01,-2.71481961011886597e-01,-2.18603521585464478e-01,5.86163282394409180e-01,-3.27648192644119263e-01,3.89346957206726074e-01,3.31192404031753540e-01,-6.06008052825927734e-01],"default_left":[false,false,false,false,true,false,false,false,false,false,false,false,true,false,false,false,true,true,false,false,false,false,false,false,false,false,false,false,false,false,false,false,false,false,false,false,false,false,false,false,false,false,false,false,false,false,false,false,false,false,false,false,false,false,false,false,false],"id":4,"leaf_child_counts":[0,0,0,0,0,0,0,1,0,0,0,2,0,0,0,0,2,2,2,2,2,2,2,0,0,2,2,2,2,2,2,0,0,0,0,0,0,0,0,0,0,0,0,0,0,0,0,0,0,0,0,0,0,0,0,0,0],"left_children":[1,3,5,7,9,11,13,15,17,19,21,23,25,27,29,-1,31,33,35,37,39,41,43,-1,-1,45,47,49,51,53,55,-1,-1,-1,-1,-1,-1,-1,-1,-1,-1,-1,-1,-1,-1,-1,-1,-1,-1,-1,-1,-1,-1,-1,-1,-1,-1],"loss_changes":[2.69827343750000000e+03,3.54455078125000000e+02,8.55101562500000000e+02,1.17312026977539062e+02,1.06841766357421875e+02,8.03479003906250000e+00,3.49781250000000000e+02,6.62215042114257812e+00,4.00127716064453125e+01,6.47816772460937500e+01,1.06595306396484375e+01,2.05452108383178711e+00,6.88574218750000000e+00,9.79620361328125000e+00,2.30710937500000000e+02,0.00000000000000000e+00,6.19704818725585938e+00,1.42256250381469727e+01,1.05243682861328125e+01,1.31554260253906250e+01,5.29379272460937500e+01,3.06780672073364258e+00,7.54666137695312500e+00,0.00000000000000000e+00,0.00000000000000000e+00,7.28500366210937500e+00,4.18336582183837891e+00,3.46998548507690430e+00,6.14562988281250000e+00,2.43648071289062500e+01,1.46757812500000000e+02,0.00000000000000000e+00,0.00000000000000000e+00,0.00000000000000000e+00,0.00000000000000000e+00,0.00000000000000000e+00,0.00000000000000000e+00,0.00000000000000000e+00,0.00000000000000000e+00,0.00000000000000000e+00,0.00000000000000000e+00,0.00000000000000000e+00,0.00000000000000000e+00,0.00000000000000000e+00,0.00000000000000000e+00,0.00000000000000000e+00,0.00000000000000000e+00,0.00000000000000000e+00,0.00000000000000000e+00,0.00000000000000000e+00,0.00000000000000000e+00,0.00000000000000000e+00,0.00000000000000000e+00,0.00000000000000000e+00,0.00000000000000000e+00,0.00000000000000000e+00,0.00000000000000000e+00],"parents":[2147483647,0,0,1,1,2,2,3,3,4,4,5,5,6,6,7,7,8,8,9,9,10,10,11,11,12,12,13,13,14,14,16,16,17,17,18,18,19,19,20,20,21,21,22,22,25,25,26,26,27,27,28,28,29,29,30,30],"right_children":[2,4,6,8,10,12,14,16,18,20,22,24,26,28,30,-1,32,34,36,38,40,42,44,-1,-1,46,48,50,52,54,56,-1,-1,-1,-1,-1,-1,-1,-1,-1,-1,-1,-1,-1,-1,-1,-1,-1,-1,-1,-1,-1,-1,-1,-1,-1,-1],"split_conditions":[2.50000000000000000e+00,2.80000000000000000e+01,1.50000000000000000e+00,1.50000000000000000e+00,1.50000000000000000e+00,4.00000095367431641e+00,4.00000095367431641e+00,1.00000009536743164e+01,8.00000000000000000e+00,1.50000000000000000e+00,2.00000095367431641e+00,4.00000095367431641e+00,1.50000000000000000e+00,8.00000095367431641e+00,4.00000095367431641e+00,-1.70059874653816223e-01,2.50000000000000000e+00,2.50000000000000000e+00,1.50000000000000000e+00,8.00000095367431641e+00,1.60000000000000000e+01,6.00000095367431641e+00,3.50000000000000000e+00,1.66609019041061401e-01,-1.75660043954849243e-01,2.00000095367431641e+00,4.00000095367431641e+00,1.50000000000000000e+00,1.20000009536743164e+01,1.40000009536743164e+01,2.50000000000000000e+00,2.00258627533912659e-01,-1.55588671565055847e-01,6.41399323940277100e-02,-1.62896066904067993e-01,1.35120511054992676e-01,-1.72930583357810974e-01,4.70011800527572632e-01,1.84614822268486023e-01,-6.92305117845535278e-02,1.08121477067470551e-01,-4.64914850890636444e-02,2.71678090095520020e-01,1.27652853727340698e-01,-1.83312594890594482e-01,-7.62424543499946594e-02,2.12813362479209900e-01,4.18677777051925659e-01,8.65552350878715515e-02,2.61126071214675903e-01,-8.14445912837982178e-02,-6.55810609459877014e-02,1.75848990678787231e-01,-9.82944592833518982e-02,1.16804093122482300e-01,9.93577241897583008e-02,-1.81802421808242798e-01],"split_indices":[14823,13092,15206,15204,2887,14878,11662,13925,9896,16608,15204,3457,9919,12326,10708,0,2887,9919,9497,8817,3368,11661,11255,0,0,3520,6420,8328,6298,13092,2622,0,0,0,0,0,0,0,0,0,0,0,0,0,0,0,0,0,0,0,0,0,0,0,0,0,0],"sum_hessian":[2.60618125000000000e+05,4.13804687500000000e+03,2.56480078125000000e+05,9.39934326171875000e+02,3.19811254882812500e+03,5.56801025390625000e+02,2.55923281250000000e+05,1.23049263000488281e+02,8.16885070800781250e+02,3.05771142578125000e+03,1.40401168823242188e+02,7.38385343551635742e+00,5.49417175292968750e+02,2.84796844482421875e+02,2.55638484375000000e+05,4.10693264007568359e+00,1.18942329406738281e+02,1.34997848510742188e+02,6.81887268066406250e+02,9.29659179687500000e+02,2.12805224609375000e+03,9.88579463958740234e+00,1.30515380859375000e+02,1.16868507862091064e+00,6.21516847610473633e+00,4.79329376220703125e+02,7.00877914428710938e+01,2.20653095245361328e+01,2.62731536865234375e+02,3.10687683105468750e+02,2.55327796875000000e+05,1.15065956115722656e+02,3.87637519836425781e+00,1.03401771545410156e+02,3.15960750579833984e+01,9.43946456909179688e+00,6.72447753906250000e+02,1.42252788543701172e+01,9.15433898925781250e+02,1.63454345703125000e+02,1.96459790039062500e+03,4.15961647033691406e+00,5.72617816925048828e+00,6.76254892349243164e+00,1.23752822875976562e+02,7.51512670516967773e+00,4.71814270019531250e+02,2.70209312438964844e+00,6.73856964111328125e+01,2.06398010253906250e+00,2.00013294219970703e+01,9.37228775024414062e+00,2.53359237670898438e+02,5.74466896057128906e+01,2.53240997314453125e+02,1.66615386962890625e+02,2.55161187500000000e+05],"tree_param":{"num_feature":"17082","num_nodes":"57","size_leaf_vector":"0"}},{"base_weights":[1.07045996189117432e+00,2.79624223709106445e-01,1.11047720909118652e+00,-1.28937974572181702e-01,3.64055275917053223e-01,1.96559488773345947e-01,1.12008261680603027e+00,-3.32125663757324219e-01,4.28821370005607605e-02,1.33369332179427147e-02,4.65199470520019531e-01,-2.58251965045928955e-01,3.07727813720703125e-01,7.19099044799804688e-01,1.12904179096221924e+00,5.81917166709899902e-01,-3.51306289434432983e-01,1.14907240867614746e+00,3.34129552356898785e-03,9.15741741657257080e-01,-2.56717186421155930e-02,7.24346101284027100e-01,3.64736616611480713e-01,1.10622096061706543e+00,-2.92360186576843262e-01,-1.11348353326320648e-01,4.06265437602996826e-01,3.64069998264312744e-01,9.10060286521911621e-01,2.78958350419998169e-01,1.13295698165893555e+00,-4.00368422269821167e-01,7.40824699401855469e-01,6.78585112094879150e-01,-3.64525914192199707e-01,-4.45191949605941772e-01,1.20811831951141357e+00,1.37723445892333984e+00,-2.45653688907623291e-02,1.06326985359191895e+00,2.00883984565734863e-01,1.05996000766754150e+00,-4.88345436751842499e-02,4.03378069400787354e-01,8.16861093044281006e-01,2.17530742287635803e-01,5.71257114410400391e-01,-1.08111342415213585e-02,1.43640780448913574e+00,-4.64265286922454834e-01,-1.53729543089866638e-01,-3.62045437097549438e-01,6.32253140211105347e-02,-3.11569273471832275e-01,4.47405368089675903e-01,9.15990233421325684e-01,1.44096791744232178e-01,4.49823677539825439e-01,9.52143788337707520e-01,9.04692828655242920e-01,2.63745486736297607e-01,4.47002112865447998e-01,1.13656187057495117e+00],"default_left":[false,false,false,false,false,false,false,false,false,false,false,false,false,false,false,false,false,false,false,false,false,false,false,false,false,false,false,false,false,false,false,false,false,false,false,false,false,false,false,false,false,false,false,false,false,false,false,false,false,false,false,false,false,false,false,false,false,false,false,false,false,false,false],"id":5,"leaf_child_counts":[0,0,0,0,0,0,0,0,0,0,0,0,0,0,0,2,2,2,2,2,2,2,2,2,2,2,2,2,2,2,2,0,0,0,0,0,0,0,0,0,0,0,0,0,0,0,0,0,0,0,0,0,0,0,0,0,0,0,0,0,0,0,0],"left_children":[1,3,5,7,9,11,13,15,17,19,21,23,25,27,29,31,33,35,37,39,41,43,45,47,49,51,53,55,57,59,61,-1,-1,-1,-1,-1,-1,-1,-1,-1,-1,-1,-1,-1,-1,-1,-1,-1,-1,-1,-1,-1,-1,-1,-1,-1,-1,-1,-1,-1,-1,-1,-1],"loss_changes":[1.25756562500000000e+04,6.60316528320312500e+02,3.32015625000000000e+03,1.14484130859375000e+02,5.62703857421875000e+02,1.99046661376953125e+02,1.34387500000000000e+03,2.65444488525390625e+01,7.77405700683593750e+01,1.25051734924316406e+02,3.20279785156250000e+02,3.63214225769042969e+01,1.30649444580078125e+02,5.54459472656250000e+02,1.21825000000000000e+03,5.17535305023193359e+00,2.02903137207031250e+01,6.31196594238281250e+00,6.58685760498046875e+01,1.53103179931640625e+01,8.56894378662109375e+01,1.01777709960937500e+02,2.69673095703125000e+02,7.05009651184082031e+00,1.79312057495117188e+01,2.64075927734375000e+01,7.57658996582031250e+01,3.47547943115234375e+02,1.02619628906250000e+02,1.57521514892578125e+01,9.00687500000000000e+02,0.00000000000000000e+00,0.00000000000000000e+00,0.00000000000000000e+00,0.00000000000000000e+00,0.00000000000000000e+00,0.00000000000000000e+00,0.00000000000000000e+00,0.00000000000000000e+00,0.00000000000000000e+00,0.00000000000000000e+00,0.00000000000000000e+00,0.00000000000000000e+00,0.00000000000000000e+00,0.00000000000000000e+00,0.00000000000000000e+00,0.00000000000000000e+00,0.00000000000000000e+00,0.00000000000000000e+00,0.00000000000000000e+00,0.00000000000000000e+00,0.00000000000000000e+00,0.00000000000000000e+00,0.00000000000000000e+00,0.00000000000000000e+00,0.00000000000000000e+00,0.00000000000000000e+00,0.00000000000000000e+00,0.00000000000000000e+00,0.00000000000000000e+00,0.00000000000000000e+00,0.00000000000000000e+00,0.00000000000000000e+00],"parents":[2147483647,0,0,1,1,2,2,3,3,4,4,5,5,6,6,7,7,8,8,9,9,10,10,11,11,12,12,13,13,14,14,15,15,16,16,17,17,18,18,19,19,20,20,21,21,22,22,23,23,24,24,25,25,26,26,27,27,28,28,29,29,30,30],"right_children":[2,4,6,8,10,12,14,16,18,20,22,24,26,28,30,32,34,36,38,40,42,44,46,48,50,52,54,56,58,60,62,-1,-1,-1,-1,-1,-1,-1,-1,-1,-1,-1,-1,-1,-1,-1,-1,-1,-1,-1,-1,-1,-1,-1,-1,-1,-1,-1,-1,-1,-1,-1,-1],"split_conditions":[2.40000000000000000e+01,6.00000095367431641e+00,6.00000095367431641e+00,4.00000095367431641e+00,5.00000000000000000e+00,6.00000095367431641e+00,1.00000009536743164e+01,6.00000095367431641e+00,1.00000009536743164e+01,1.40000009536743164e+01,3.60000000000000000e+01,4.00000095367431641e+00,2.50000000000000000e+00,1.75000000000000000e+01,1.50000000000000000e+00,2.00000095367431641e+00,4.00000095367431641e+00,2.00000095367431641e+00,8.00000095367431641e+00,1.50000000000000000e+00,8.00000095367431641e+00,6.50000000000000000e+00,1.65000000000000000e+01,1.50000000000000000e+00,1.00000009536743164e+01,4.00000095367431641e+00,2.00000095367431641e+00,1.00000009536743164e+01,8.50000000000000000e+00,2.00000095367431641e+00,6.50000000000000000e+00,-1.20110534131526947e-01,2.22247421741485596e-01,2.03575536608695984e-01,-1.09357781708240509e-01,-1.33557587862014771e-01,3.62435519695281982e-01,4.13170367479324341e-01,-7.36961094662547112e-03,3.18980962038040161e-01,6.02651983499526978e-02,3.17988008260726929e-01,-1.46503634750843048e-02,1.21013425290584564e-01,2.45058342814445496e-01,6.52592256665229797e-02,1.71377137303352356e-01,-3.24334041215479374e-03,4.30922359228134155e-01,-1.39279589056968689e-01,-4.61188629269599915e-02,-1.08613632619380951e-01,1.89675949513912201e-02,-9.34707820415496826e-02,1.34221613407135010e-01,2.74797081947326660e-01,4.32290397584438324e-02,1.34947106242179871e-01,2.85643160343170166e-01,2.71407872438430786e-01,7.91236460208892822e-02,1.34100645780563354e-01,3.40968579053878784e-01],"split_indices":[11212,17027,16963,16532,3356,17027,11224,416,10915,11863,14010,416,3356,9919,15206,3222,417,16963,11872,11212,9300,4458,9919,9648,11224,15363,15316,12252,13219,3520,11209,0,0,0,0,0,0,0,0,0,0,0,0,0,0,0,0,0,0,0,0,0,0,0,0,0,0,0,0,0,0,0,0],"sum_hessian":[3.97380187500000000e+05,1.91398339843750000e+04,3.78240375000000000e+05,3.27783764648437500e+03,1.58619970703125000e+04,3.93421997070312500e+03,3.74306125000000000e+05,1.50140368652343750e+03,1.77643383789062500e+03,3.55077734375000000e+03,1.23112197265625000e+04,7.72489685058593750e+02,3.16173022460937500e+03,8.18214550781250000e+03,3.66124000000000000e+05,3.02554912567138672e+01,1.47114819335937500e+03,6.03389053344726562e+01,1.71609497070312500e+03,1.46199630737304688e+02,3.40457763671875000e+03,3.43760766601562500e+03,8.87361230468750000e+03,1.80726966857910156e+01,7.54416992187500000e+02,6.01870727539062500e+02,2.55985937500000000e+03,2.86273901367187500e+03,5.31940625000000000e+03,1.67883972167968750e+03,3.64445156250000000e+05,4.00139427185058594e+00,2.62540950775146484e+01,1.80063724517822266e+01,1.45314184570312500e+03,1.92136967182159424e+00,5.84175338745117188e+01,3.32010002136230469e+01,1.68289392089843750e+03,1.20785285949707031e+02,2.54143428802490234e+01,7.01868820190429688e+01,3.33439086914062500e+03,7.70348999023437500e+02,2.66725878906250000e+03,5.18199121093750000e+03,3.69162109375000000e+03,4.34401559829711914e+00,1.37286806106567383e+01,3.35741271972656250e+02,4.18675689697265625e+02,2.46627136230468750e+02,3.55243591308593750e+02,1.38399932861328125e+02,2.42145947265625000e+03,8.14918029785156250e+02,2.04782104492187500e+03,4.46629791259765625e+02,4.87277636718750000e+03,3.84594764709472656e+01,1.64038024902343750e+03,1.90590161132812500e+03,3.62539250000000000e+05],"tree_param":{"num_feature":"17082","num_nodes":"63","size_leaf_vector":"0"}},{"base_weights":[-4.43821579217910767e-01,5.32015621662139893e-01,-5.24557590484619141e-01,-1.36751025915145874e-01,7.11280703544616699e-01,3.32226723432540894e-01,-5.55857121944427490e-01,7.16907858848571777e-01,-3.19814383983612061e-01,8.95012855529785156e-01,5.76180815696716309e-01,6.81777358055114746e-01,5.76077401638031006e-03,5.89553296566009521e-01,-5.67279636859893799e-01,-1.65877908468246460e-01,7.61634886264801025e-01,-6.14079773426055908e-01,-1.41872137784957886e-01,-2.04154565930366516e-01,9.23829793930053711e-01,1.26642435789108276e-01,6.68711245059967041e-01,-1.98748171329498291e-01,7.99559533596038818e-01,8.90846848487854004e-01,-7.78597667813301086e-02,1.04665541648864746e+00,4.90823835134506226e-01,2.45552822947502136e-01,-5.73438942432403564e-01,7.52298176288604736e-01,-2.81781792640686035e-01,1.10135614871978760e+00,6.61597847938537598e-01,5.32234966754913330e-01,-6.15556299686431885e-01,-6.08122885227203369e-01,1.32096502929925919e-02,7.31351315975189209e-01,-3.48921865224838257e-01,6.15580618381500244e-01,9.92283642292022705e-01,-6.19584619998931885e-01,2.40046918392181396e-01,-3.81893724203109741e-01,6.98976516723632812e-01,1.09504151344299316e+00,-2.36670732498168945e-01,-3.39576005935668945e-02,8.52422833442687988e-01,-5.80851078033447266e-01,9.33852553367614746e-01,2.37337157130241394e-01,-2.38543257117271423e-01,-4.14540737867355347e-01,1.07681810855865479e+00,7.57850587368011475e-01,3.48556429147720337e-01,-4.38837498426437378e-01,5.95928847789764404e-01,2.14241608977317810e-01,-5.75995445251464844e-01],"default_left":[false,false,false,false,false,false,false,false,false,false,false,false,false,false,false,false,false,false,false,false,false,false,false,false,false,false,false,false,false,false,false,false,false,false,false,false,false,false,false,false,false,false,false,false,false,false,false,false,false,false,false,false,false,false,false,false,false,false,false,false,false,false,false],"id":6,"leaf_child_counts":[0,0,0,0,0,0,0,0,0,0,0,0,0,0,0,2,2,2,2,2,2,2,2,2,2,2,2,2,2,2,2,0,0,0,0,0,0,0,0,0,0,0,0,0,0,0,0,0,0,0,0,0,0,0,0,0,0,0,0,0,0,0,0],"left_children":[1,3,5,7,9,11,13,15,17,19,21,23,25,27,29,31,33,35,37,39,41,43,45,47,49,51,53,55,57,59,61,-1,-1,-1,-1,-1,-1,-1,-1,-1,-1,-1,-1,-1,-1,-1,-1,-1,-1,-1,-1,-1,-1,-1,-1,-1,-1,-1,-1,-1,-1,-1,-1],"loss_changes":[2.11743125000000000e+04,2.46220751953125000e+03,6.65670312500000000e+03,6.78792785644531250e+02,4.01500976562500000e+02,9.98386962890625000e+02,3.13346875000000000e+03,3.04124450683593750e+01,1.87165924072265625e+02,2.17505859375000000e+02,3.88252685546875000e+02,4.38339843750000000e+02,3.34958129882812500e+02,1.06218933105468750e+02,1.18723437500000000e+03,4.23571205139160156e+00,2.40880432128906250e+01,2.60800170898437500e+00,1.61239761352539062e+02,2.41041297912597656e+01,1.40465332031250000e+02,1.35115020751953125e+02,2.46440429687500000e+02,2.47557621002197266e+01,1.64239746093750000e+02,2.52686157226562500e+01,2.09489669799804688e+02,1.89223022460937500e+01,7.36943054199218750e+01,4.28032501220703125e+02,4.73992187500000000e+02,0.00000000000000000e+00,0.00000000000000000e+00,0.00000000000000000e+00,0.00000000000000000e+00,0.00000000000000000e+00,0.00000000000000000e+00,0.00000000000000000e+00,0.00000000000000000e+00,0.00000000000000000e+00,0.00000000000000000e+00,0.00000000000000000e+00,0.00000000000000000e+00,0.00000000000000000e+00,0.00000000000000000e+00,0.00000000000000000e+00,0.00000000000000000e+00,0.00000000000000000e+00,0.00000000000000000e+00,0.00000000000000000e+00,0.00000000000000000e+00,0.00000000000000000e+00,0.00000000000000000e+00,0.00000000000000000e+00,0.00000000000000000e+00,0.00000000000000000e+00,0.00000000000000000e+00,0.00000000000000000e+00,0.00000000000000000e+00,0.00000000000000000e+00,0.00000000000000000e+00,0.00000000000000000e+00,0.00000000000000000e+00],"parents":[2147483647,0,0,1,1,2,2,3,3,4,4,5,5,6,6,7,7,8,8,9,9,10,10,11,11,12,12,13,13,14,14,15,15,16,16,17,17,18,18,19,19,20,20,21,21,22,22,23,23,24,24,25,25,26,26,27,27,28,28,29,29,30,30],"right_children":[2,4,6,8,10,12,14,16,18,20,22,24,26,28,30,32,34,36,38,40,42,44,46,48,50,52,54,56,58,60,62,-1,-1,-1,-1,-1,-1,-1,-1,-1,-1,-1,-1,-1,-1,-1,-1,-1,-1,-1,-1,-1,-1,-1,-1,-1,-1,-1,-1,-1,-1,-1,-1],"split_conditions":[2.40000000000000000e+01,5.60000000000000000e+01,1.00000009536743164e+01,6.00000095367431641e+00,4.00000095367431641e+00,2.75000000000000000e+01,6.00000095367431641e+00,4.00000095367431641e+00,3.00000000000000000e+01,1.20000009536743164e+01,3.00000000000000000e+01,1.00000009536743164e+01,6.00000095367431641e+00,1.50000000000000000e+00,3.50000000000000000e+00,1.50000000000000000e+00,6.00000095367431641e+00,2.00000095367431641e+00,2.00000000000000000e+01,4.00000095367431641e+00,3.20000000000000000e+01,1.20000009536743164e+01,6.00000095367431641e+00,2.00000095367431641e+00,2.60000000000000000e+01,4.00000095367431641e+00,1.60000000000000000e+01,4.00000095367431641e+00,2.00000000000000000e+01,5.40000000000000000e+01,9.50000000000000000e+00,2.25689455866813660e-01,-8.45345407724380493e-02,3.30406844615936279e-01,1.98479369282722473e-01,1.59670501947402954e-01,-1.84666901826858521e-01,-1.82436868548393250e-01,3.96289536729454994e-03,2.19405397772789001e-01,-1.04676567018032074e-01,1.84674188494682312e-01,2.97685116529464722e-01,-1.85875385999679565e-01,7.20140784978866577e-02,-1.14568121731281281e-01,2.09692969918251038e-01,3.28512459993362427e-01,-7.10012242197990417e-02,-1.01872803643345833e-02,2.55726873874664307e-01,-1.74255326390266418e-01,2.80155777931213379e-01,7.12011530995368958e-02,-7.15629830956459045e-02,-1.24362222850322723e-01,3.23045432567596436e-01,2.27355182170867920e-01,1.04566931724548340e-01,-1.31651252508163452e-01,1.78778663277626038e-01,6.42724856734275818e-02,-1.72798633575439453e-01],"split_indices":[11212,14010,11224,16963,16532,9919,16963,416,8600,416,13056,11228,16963,17027,11209,12209,17027,5362,11896,17048,7507,11896,9300,16532,8824,416,1890,416,6382,14010,10352,0,0,0,0,0,0,0,0,0,0,0,0,0,0,0,0,0,0,0,0,0,0,0,0,0,0,0,0,0,0,0,0],"sum_hessian":[2.68755593750000000e+05,2.05360097656250000e+04,2.48219593750000000e+05,4.34114892578125000e+03,1.61948623046875000e+04,8.74788281250000000e+03,2.39471703125000000e+05,7.66040649414062500e+02,3.57510815429687500e+03,6.85992382812500000e+03,9.33493750000000000e+03,4.22405371093750000e+03,4.52382910156250000e+03,2.36403466796875000e+03,2.37107671875000000e+05,3.68098182678222656e+01,7.29230834960937500e+02,1.34628613281250000e+03,2.22882202148437500e+03,1.75097137451171875e+02,6.68482666015625000e+03,1.59386547851562500e+03,7.74107226562500000e+03,4.98280273437500000e+02,3.72577319335937500e+03,3.89671936035156250e+02,4.13415722656250000e+03,4.18205657958984375e+02,1.94582897949218750e+03,1.78291076660156250e+03,2.35324765625000000e+05,3.51037359237670898e+00,3.32994461059570312e+01,1.63609786987304688e+02,5.65621032714843750e+02,1.26947629451751709e+00,1.34501672363281250e+03,5.55574768066406250e+02,1.67324731445312500e+03,2.29217510223388672e+01,1.52175384521484375e+02,1.21657128906250000e+03,5.46825537109375000e+03,2.09677398681640625e+02,1.38418811035156250e+03,2.16431350708007812e+02,7.52464111328125000e+03,1.33954973220825195e+01,4.84884765625000000e+02,2.22224838256835938e+02,3.50354833984375000e+03,1.07085447311401367e+01,3.78963409423828125e+02,1.39575854492187500e+03,2.73839843750000000e+03,8.20046138763427734e+00,4.10005187988281250e+02,6.74850769042968750e+02,1.27097814941406250e+03,6.03615173339843750e+02,1.17929553222656250e+03,7.61023132324218750e+02,2.34563734375000000e+05],"tree_param":{"num_feature":"17082","num_nodes":"63","size_leaf_vector":"0"}},{"base_weights":[-5.86872994899749756e-01,5.08593618869781494e-01,-6.07010364532470703e-01,-2.53527164459228516e-01,6.19472444057464600e-01,2.14118629693984985e-01,-6.13183259963989258e-01,1.63016855716705322e-01,-2.83835172653198242e-01,1.08620667457580566e+00,4.83480691909790039e-01,6.76504969596862793e-01,2.93778870254755020e-02,1.30482167005538940e-01,-6.15422368049621582e-01,1.45474529266357422e+00,1.76178559195250273e-03,4.93803858757019043e-01,-3.00285995006561279e-01,6.17736518383026123e-01,1.11574172973632812e+00,-1.28236666321754456e-01,5.83282947540283203e-01,-3.12305182218551636e-01,7.85306096076965332e-01,8.31467449665069580e-01,-3.50302122533321381e-02,7.46253013610839844e-01,1.97146423161029816e-02,1.19983136653900146e-01,-6.16761386394500732e-01,1.17026209831237793e+00,-1.40422403812408447e-01,1.47771632671356201e+00,-9.59314554929733276e-02,4.69419926404953003e-01,-3.14542829990386963e-01,-2.55392700433731079e-01,7.41370916366577148e-01,-5.31854093074798584e-01,1.12129640579223633e+00,9.56280291080474854e-01,-1.82557627558708191e-01,8.33329617977142334e-01,3.52373570203781128e-01,7.65666782855987549e-01,-3.74428421258926392e-01,-9.24555286765098572e-02,8.78577291965484619e-01,-3.84425848722457886e-01,9.37898695468902588e-01,6.25584006309509277e-01,-9.40649509429931641e-02,-4.21254873275756836e-01,9.36822950839996338e-01,4.75876569747924805e-01,-6.88046291470527649e-02,5.38143396377563477e-01,-4.57522384822368622e-02,-1.79221168160438538e-01,-6.17379367351531982e-01],"default_left":[false,false,false,false,false,false,false,false,false,false,false,false,false,false,false,false,false,false,false,false,false,false,false,false,false,false,false,false,false,false,false,false,false,false,false,false,false,false,false,false,false,false,false,false,false,false,false,false,false,false,false,false,false,false,false,false,false,false,false,false,false],"id":7,"leaf_child_counts":[0,0,0,0,0,0,0,1,0,0,0,0,0,0,0,0,2,2,2,2,2,2,2,2,2,2,2,2,2,2,2,0,0,0,0,0,0,0,0,0,0,0,0,0,0,0,0,0,0,0,0,0,0,0,0,0,0,0,0,0,0],"left_children":[1,3,5,7,9,11,13,15,17,19,21,23,25,27,29,-1,31,33,35,37,39,41,43,45,47,49,51,53,55,57,59,-1,-1,-1,-1,-1,-1,-1,-1,-1,-1,-1,-1,-1,-1,-1,-1,-1,-1,-1,-1,-1,-1,-1,-1,-1,-1,-1,-1,-1,-1],"loss_changes":[5.75094531250000000e+03,3.97833129882812500e+02,1.29763281250000000e+03,7.60110855102539062e+00,2.60258056640625000e+02,1.63197784423828125e+02,4.23140625000000000e+02,8.58419132232666016e+00,7.28919219970703125e+00,1.21262207031250000e+01,1.94424804687500000e+02,5.89242706298828125e+01,7.06138381958007812e+01,5.20617370605468750e+01,2.49515625000000000e+02,0.00000000000000000e+00,6.41952228546142578e+00,7.07113552093505859e+00,6.15299987792968750e+00,6.36091613769531250e+00,8.55895996093750000e+00,2.65286178588867188e+01,1.57739685058593750e+02,3.95522117614746094e+00,4.03322143554687500e+01,1.35085067749023438e+01,4.94202766418457031e+01,2.62873001098632812e+01,2.62034816741943359e+01,3.19898052215576172e+01,6.82578125000000000e+01,0.00000000000000000e+00,0.00000000000000000e+00,0.00000000000000000e+00,0.00000000000000000e+00,0.00000000000000000e+00,0.00000000000000000e+00,0.00000000000000000e+00,0.00000000000000000e+00,0.00000000000000000e+00,0.00000000000000000e+00,0.00000000000000000e+00,0.00000000000000000e+00,0.00000000000000000e+00,0.00000000000000000e+00,0.00000000000000000e+00,0.00000000000000000e+00,0.00000000000000000e+00,0.00000000000000000e+00,0.00000000000000000e+00,0.00000000000000000e+00,0.00000000000000000e+00,0.00000000000000000e+00,0.00000000000000000e+00,0.00000000000000000e+00,0.00000000000000000e+00,0.00000000000000000e+00,0.00000000000000000e+00,0.00000000000000000e+00,0.00000000000000000e+00,0.00000000000000000e+00],"parents":[2147483647,0,0,1,1,2,2,3,3,4,4,5,5,6,6,7,7,8,8,9,9,10,10,11,11,12,12,13,13,14,14,16,16,17,17,18,18,19,19,20,20,21,21,22,22,23,23,24,24,25,25,26,26,27,27,28,28,29,29,30,30],"right_children":[2,4,6,8,10,12,14,16,18,20,22,24,26,28,30,-1,32,34,36,38,40,42,44,46,48,50,52,54,56,58,60,-1,-1,-1,-1,-1,-1,-1,-1,-1,-1,-1,-1,-1,-1,-1,-1,-1,-1,-1,-1,-1,-1,-1,-1,-1,-1,-1,-1,-1,-1],"split_conditions":[6.00000095367431641e+00,1.60000000000000000e+01,1.50000000000000000e+00,2.50000000000000000e+00,6.00000095367431641e+00,2.40000000000000000e+01,6.50000000000000000e+00,1.50000000000000000e+00,4.00000095367431641e+00,2.00000000000000000e+00,2.50000000000000000e+00,8.00000095367431641e+00,1.50000000000000000e+00,2.50000000000000000e+00,3.50000000000000000e+00,4.36423599720001221e-01,4.00000095367431641e+00,2.20000000000000000e+01,2.00000095367431641e+00,2.00000095367431641e+00,1.50000000000000000e+00,2.00000095367431641e+00,2.00000000000000000e+01,2.00000095367431641e+00,1.50000000000000000e+00,6.00000095367431641e+00,1.10000000000000000e+01,1.00000009536743164e+01,3.50000000000000000e+00,7.00000000000000000e+00,4.50000000000000000e+00,3.51078629493713379e-01,-4.21267226338386536e-02,4.43314909934997559e-01,-2.87794377654790878e-02,1.40825986862182617e-01,-9.43628549575805664e-02,-7.66178146004676819e-02,2.22411289811134338e-01,-1.59556239843368530e-01,3.36388945579528809e-01,2.86884099245071411e-01,-5.47672919929027557e-02,2.49998897314071655e-01,1.05712078511714935e-01,2.29700043797492981e-01,-1.12328529357910156e-01,-2.77366600930690765e-02,2.63573199510574341e-01,-1.15327760577201843e-01,2.81369626522064209e-01,1.87675207853317261e-01,-2.82194856554269791e-02,-1.26376464962959290e-01,2.81046897172927856e-01,1.42762973904609680e-01,-2.06413902342319489e-02,1.61443024873733521e-01,-1.37256719172000885e-02,-5.37663511931896210e-02,-1.85213819146156311e-01],"split_indices":[16098,417,16880,9101,17027,3368,8602,4955,13603,416,416,417,3356,3220,13453,0,916,10520,2982,11673,6916,15317,3368,11899,416,417,952,417,4458,3368,3220,0,0,0,0,0,0,0,0,0,0,0,0,0,0,0,0,0,0,0,0,0,0,0,0,0,0,0,0,0,0],"sum_hessian":[2.60682984375000000e+05,4.70505712890625000e+03,2.55977921875000000e+05,5.97421081542968750e+02,4.10763623046875000e+03,1.90973071289062500e+03,2.54068203125000000e+05,4.02234573364257812e+01,5.57197631835937500e+02,9.25220275878906250e+02,3.18241601562500000e+03,5.44426818847656250e+02,1.36530395507812500e+03,7.62501220703125000e+02,2.53305703125000000e+05,3.57385087013244629e+00,3.66496086120605469e+01,1.09420948028564453e+01,5.46255493164062500e+02,5.61713066101074219e+01,8.69048950195312500e+02,4.46345825195312500e+02,2.73607006835937500e+03,5.37811126708984375e+01,4.90645690917968750e+02,1.00599891662597656e+02,1.26470410156250000e+03,1.15375717163085938e+02,6.47125488281250000e+02,4.60231811523437500e+02,2.52845468750000000e+05,3.19139862060546875e+00,3.34582099914550781e+01,3.53634309768676758e+00,7.40575170516967773e+00,9.35339546203613281e+00,5.36902099609375000e+02,6.83506774902343750e+00,4.93362388610839844e+01,2.60169172286987305e+00,8.66447265625000000e+02,2.04980678558349609e+01,4.25847747802734375e+02,1.31234802246093750e+03,1.42372204589843750e+03,2.31341552734375000e+00,5.14676971435546875e+01,4.71291122436523438e+01,4.43516571044921875e+02,7.88685369491577148e+00,9.27130355834960938e+01,1.02959823608398438e+02,1.16174426269531250e+03,1.60200386047363281e+01,9.93556823730468750e+01,1.04456924438476562e+02,5.42668579101562500e+02,1.29996322631835938e+02,3.30235504150390625e+02,3.57007659912109375e+02,2.52488453125000000e+05],"tree_param":{"num_feature":"17082","num_nodes":"61","size_leaf_vector":"0"}},{"base_weights":[-5.50402820110321045e-01,2.04961404204368591e-01,-5.65253615379333496e-01,-2.77525812387466431e-01,3.31223130226135254e-01,4.72323834896087646e-01,-5.68279266357421875e-01,3.03399473428726196e-01,-4.61274534463882446e-01,3.61318260431289673e-01,-4.33246582746505737e-01,-1.78678259253501892e-01,4.87147539854049683e-01,4.81756627559661865e-01,-5.69722056388854980e-01,-4.00716632604598999e-01,4.04371798038482666e-01,4.45603579282760620e-01,-5.05471467971801758e-01,-4.85800296068191528e-01,3.78129333257675171e-01,8.06055784225463867e-01,-4.89931911230087280e-01,6.92226409912109375e-01,-3.45666229724884033e-01,-4.68933194875717163e-01,4.97444272041320801e-01,-5.88373653590679169e-02,5.21886110305786133e-01,2.85929054021835327e-01,-5.70959091186523438e-01,8.87809395790100098e-01,-5.02152144908905029e-01,-7.22510442137718201e-02,5.11793255805969238e-01,-4.83763217926025391e-01,5.48882126808166504e-01,-1.40342563390731812e-01,-5.57124912738800049e-01,5.99646568298339844e-01,-5.55031180381774902e-01,6.38112068176269531e-01,3.32374095916748047e-01,4.07759323716163635e-02,1.03585660457611084e+00,1.65264338254928589e-01,-5.78968405723571777e-01,4.89344745874404907e-01,-4.79659736156463623e-01,4.35642078518867493e-02,-5.91020226478576660e-01,-3.21281552314758301e-01,5.09707808494567871e-01,1.00946605205535889e+00,-1.73872709274291992e-01,-4.18019115924835205e-01,5.42771756649017334e-01,3.77323657274246216e-01,-4.00586068630218506e-01,-3.48037868738174438e-01,-5.74463546276092529e-01],"default_left":[false,false,false,false,true,false,false,false,false,false,false,false,false,false,false,false,false,false,false,false,false,false,false,false,false,false,false,false,false,true,false,false,false,false,false,false,false,false,false,false,false,false,false,false,false,false,false,false,false,false,false,false,false,false,false,false,false,false,false,false,false],"id":8,"leaf_child_counts":[0,0,0,0,0,0,0,0,0,0,0,1,0,0,0,2,2,2,2,2,2,2,2,0,2,2,2,2,2,2,2,0,0,0,0,0,0,0,0,0,0,0,0,0,0,0,0,0,0,0,0,0,0,0,0,0,0,0,0,0,0],"left_children":[1,3,5,7,9,11,13,15,17,19,21,23,25,27,29,31,33,35,37,39,41,43,45,-1,47,49,51,53,55,57,59,-1,-1,-1,-1,-1,-1,-1,-1,-1,-1,-1,-1,-1,-1,-1,-1,-1,-1,-1,-1,-1,-1,-1,-1,-1,-1,-1,-1,-1,-1],"loss_changes":[2.40836328125000000e+03,2.52304702758789062e+02,6.61226562500000000e+02,9.18596725463867188e+01,7.56611938476562500e+01,5.99986267089843750e+00,3.18320312500000000e+02,1.48844757080078125e+01,2.64050750732421875e+01,4.51578369140625000e+01,9.15922737121582031e+00,2.32953166961669922e+00,6.13348388671875000e+00,6.29148101806640625e+00,2.22054687500000000e+02,3.90595722198486328e+00,9.33502388000488281e+00,3.22994422912597656e+00,1.16770782470703125e+01,4.98365879058837891e+00,3.66307678222656250e+01,9.83891487121582031e-01,7.09159660339355469e+00,0.00000000000000000e+00,1.65873038768768311e+00,4.57519650459289551e-01,6.12216186523437500e+00,2.73679280281066895e+00,5.50274658203125000e+00,1.91820068359375000e+01,1.63343750000000000e+02,0.00000000000000000e+00,0.00000000000000000e+00,0.00000000000000000e+00,0.00000000000000000e+00,0.00000000000000000e+00,0.00000000000000000e+00,0.00000000000000000e+00,0.00000000000000000e+00,0.00000000000000000e+00,0.00000000000000000e+00,0.00000000000000000e+00,0.00000000000000000e+00,0.00000000000000000e+00,0.00000000000000000e+00,0.00000000000000000e+00,0.00000000000000000e+00,0.00000000000000000e+00,0.00000000000000000e+00,0.00000000000000000e+00,0.00000000000000000e+00,0.00000000000000000e+00,0.00000000000000000e+00,0.00000000000000000e+00,0.00000000000000000e+00,0.00000000000000000e+00,0.00000000000000000e+00,0.00000000000000000e+00,0.00000000000000000e+00,0.00000000000000000e+00,0.00000000000000000e+00],"parents":[2147483647,0,0,1,1,2,2,3,3,4,4,5,5,6,6,7,7,8,8,9,9,10,10,11,11,12,12,13,13,14,14,15,15,16,16,17,17,18,18,19,19,20,20,21,21,22,22,24,24,25,25,26,26,27,27,28,28,29,29,30,30],"right_children":[2,4,6,8,10,12,14,16,18,20,22,24,26,28,30,32,34,36,38,40,42,44,46,-1,48,50,52,54,56,58,60,-1,-1,-1,-1,-1,-1,-1,-1,-1,-1,-1,-1,-1,-1,-1,-1,-1,-1,-1,-1,-1,-1,-1,-1,-1,-1,-1,-1,-1,-1],"split_conditions":[3.50000000000000000e+00,2.80000000000000000e+01,1.50000000000000000e+00,5.50000000000000000e+00,1.50000000000000000e+00,1.00000009536743164e+01,4.00000095367431641e+00,2.40000000000000000e+01,2.00000095367431641e+00,1.80000000000000000e+01,2.00000095367431641e+00,8.00000095367431641e+00,4.00000095367431641e+00,8.00000095367431641e+00,4.00000095367431641e+00,2.00000095367431641e+00,8.00000095367431641e+00,4.00000095367431641e+00,5.50000000000000000e+00,2.00000095367431641e+00,6.00000095367431641e+00,2.00000095367431641e+00,3.50000000000000000e+00,2.07667931914329529e-01,3.00000000000000000e+00,1.50000000000000000e+00,6.00000095367431641e+00,2.00000095367431641e+00,1.50000000000000000e+00,2.50000000000000000e+00,4.50000000000000000e+00,2.66342818737030029e-01,-1.50645643472671509e-01,-2.16753147542476654e-02,1.53537988662719727e-01,-1.45128965377807617e-01,1.64664641022682190e-01,-4.21027690172195435e-02,-1.67137473821640015e-01,1.79893970489501953e-01,-1.66509360074996948e-01,1.91433623433113098e-01,9.97122302651405334e-02,1.22327804565429688e-02,3.10756981372833252e-01,4.95793037116527557e-02,-1.73690527677536011e-01,1.46803423762321472e-01,-1.43897920846939087e-01,1.30692627280950546e-02,-1.77306070923805237e-01,-9.63844731450080872e-02,1.52912348508834839e-01,3.02839815616607666e-01,-5.21618165075778961e-02,-1.25405743718147278e-01,1.62831529974937439e-01,1.13197103142738342e-01,-1.20175823569297791e-01,-1.04411363601684570e-01,-1.72339066863059998e-01],"split_indices":[14823,13092,15206,2620,2887,14413,11662,2887,15204,8824,10708,11938,13404,12326,10708,4303,11815,11896,9896,15206,9496,6746,9896,0,12464,7089,13685,13797,8628,9919,11255,0,0,0,0,0,0,0,0,0,0,0,0,0,0,0,0,0,0,0,0,0,0,0,0,0,0,0,0,0,0],"sum_hessian":[2.14680203125000000e+05,4.13908691406250000e+03,2.10541125000000000e+05,8.58247131347656250e+02,3.28083984375000000e+03,6.11712219238281250e+02,2.09929406250000000e+05,2.06077590942382812e+02,6.52169555664062500e+02,3.15708129882812500e+03,1.23758499145507812e+02,1.33728513717651367e+01,5.98339355468750000e+02,2.87598327636718750e+02,2.09641812500000000e+05,2.54734573364257812e+01,1.80604125976562500e+02,2.98845710754394531e+01,6.22284973144531250e+02,6.08902893066406250e+01,3.09619116210937500e+03,4.83486080169677734e+00,1.18923637390136719e+02,1.64551401138305664e+00,1.17273378372192383e+01,5.90071058273315430e+00,5.92438659667968750e+02,1.98415565490722656e+01,2.67756774902343750e+02,3.02310638427734375e+02,2.09339500000000000e+05,1.29322946071624756e+00,2.41802291870117188e+01,3.32781867980957031e+01,1.47325942993164062e+02,2.62040710449218750e+00,2.72641639709472656e+01,7.75829086303710938e+01,5.44702087402343750e+02,3.19143128395080566e+00,5.76988601684570312e+01,4.61423278808593750e+02,2.63476782226562500e+03,1.38846206665039062e+00,3.44639873504638672e+00,1.41250391006469727e+01,1.04798599243164062e+02,1.25493311882019043e+00,1.04724044799804688e+01,1.25897014141082764e+00,4.64174032211303711e+00,8.37119197845458984e+00,5.84067443847656250e+02,1.17299437522888184e+00,1.86685619354248047e+01,5.40716552734375000e+00,2.62349609375000000e+02,2.67190399169921875e+02,3.51202392578125000e+01,3.24158178710937500e+03,2.06097921875000000e+05],"tree_param":{"num_feature":"17082","num_nodes":"61","size_leaf_vector":"0"}},{"base_weights":[8.07316839694976807e-01,2.28594586253166199e-01,8.36710572242736816e-01,2.81938221305608749e-02,3.35177451372146606e-01,1.63431748747825623e-01,8.43697845935821533e-01,9.07317996025085449e-01,-5.61662344262003899e-03,-1.44616529345512390e-01,3.89515519142150879e-01,-2.08739817142486572e-01,2.46619805693626404e-01,2.51578301191329956e-01,8.47516059875488281e-01,-1.91638305783271790e-01,9.35849726200103760e-01,7.66158282756805420e-01,-3.61074656248092651e-02,2.64091759920120239e-01,-2.06096813082695007e-01,4.88185495138168335e-01,1.72152101993560791e-01,8.22850823402404785e-01,-2.39336863160133362e-01,1.11735248565673828e+00,2.15158462524414062e-01,4.44869816303253174e-01,-1.94621220231056213e-01,3.61360818147659302e-01,8.51739346981048584e-01,7.33508467674255371e-01,-5.49406945705413818e-01,-2.42365732789039612e-01,9.55469369888305664e-01,-1.46405119448900223e-02,8.32979917526245117e-01,-1.30622804164886475e-01,1.88066527247428894e-01,6.44632041454315186e-01,1.25334978103637695e-01,1.03466010093688965e+00,-2.20728844404220581e-01,2.13900238275527954e-01,5.58061540126800537e-01,1.30535948276519775e+00,1.36439427733421326e-01,-4.13339249789714813e-02,1.05537402629852295e+00,-4.15759652853012085e-01,-1.04573518037796021e-01,1.14601492881774902e+00,-4.69008505344390869e-01,-1.31872460246086121e-01,2.93177396059036255e-01,1.12182438373565674e+00,3.81075203418731689e-01,1.53638863563537598e+00,-2.26443618535995483e-01,-3.16030770540237427e-01,4.50364261865615845e-01,4.61347043514251709e-01,8.57023000717163086e-01],"default_left":[false,false,false,false,false,false,false,false,false,false,true,false,false,true,false,false,false,false,false,false,false,false,false,false,false,true,false,false,false,false,false,false,false,false,false,false,false,false,false,false,false,false,false,false,false,false,false,false,false,false,false,false,false,false,false,false,false,false,false,false,false,false,false],"id":9,"leaf_child_counts":[0,0,0,0,0,0,0,0,0,0,0,0,0,0,0,2,2,2,2,2,2,2,2,2,2,2,2,2,2,2,2,0,0,0,0,0,0,0,0,0,0,0,0,0,0,0,0,0,0,0,0,0,0,0,0,0,0,0,0,0,0,0,0],"left_children":[1,3,5,7,9,11,13,15,17,19,21,23,25,27,29,31,33,35,37,39,41,43,45,47,49,51,53,55,57,59,61,-1,-1,-1,-1,-1,-1,-1,-1,-1,-1,-1,-1,-1,-1,-1,-1,-1,-1,-1,-1,-1,-1,-1,-1,-1,-1,-1,-1,-1,-1,-1,-1],"loss_changes":[6.89300000000000000e+03,4.18380187988281250e+02,1.81403125000000000e+03,2.02184585571289062e+02,3.33432006835937500e+02,1.22723884582519531e+02,8.62718750000000000e+02,8.07823181152343750e+00,1.54187942504882812e+02,3.27601127624511719e+01,2.46271850585937500e+02,2.30613918304443359e+01,8.84864196777343750e+01,2.11118270874023438e+02,7.78312500000000000e+02,2.78774619102478027e+00,5.91149902343750000e+00,1.30048675537109375e+01,1.33572814941406250e+02,8.92889118194580078e+00,2.07788734436035156e+01,1.51287597656250000e+02,1.45020477294921875e+02,4.28190231323242188e+00,1.67014961242675781e+01,5.66220092773437500e+00,8.47063751220703125e+01,7.33156127929687500e+01,4.11258010864257812e+01,1.97156005859375000e+02,7.75093750000000000e+02,0.00000000000000000e+00,0.00000000000000000e+00,0.00000000000000000e+00,0.00000000000000000e+00,0.00000000000000000e+00,0.00000000000000000e+00,0.00000000000000000e+00,0.00000000000000000e+00,0.00000000000000000e+00,0.00000000000000000e+00,0.00000000000000000e+00,0.00000000000000000e+00,0.00000000000000000e+00,0.00000000000000000e+00,0.00000000000000000e+00,0.00000000000000000e+00,0.00000000000000000e+00,0.00000000000000000e+00,0.00000000000000000e+00,0.00000000000000000e+00,0.00000000000000000e+00,0.00000000000000000e+00,0.00000000000000000e+00,0.00000000000000000e+00,0.00000000000000000e+00,0.00000000000000000e+00,0.00000000000000000e+00,0.00000000000000000e+00,0.00000000000000000e+00,0.00000000000000000e+00,0.00000000000000000e+00,0.00000000000000000e+00],"parents":[2147483647,0,0,1,1,2,2,3,3,4,4,5,5,6,6,7,7,8,8,9,9,10,10,11,11,12,12,13,13,14,14,15,15,16,16,17,17,18,18,19,19,20,20,21,21,22,22,23,23,24,24,25,25,26,26,27,27,28,28,29,29,30,30],"right_children":[2,4,6,8,10,12,14,16,18,20,22,24,26,28,30,32,34,36,38,40,42,44,46,48,50,52,54,56,58,60,62,-1,-1,-1,-1,-1,-1,-1,-1,-1,-1,-1,-1,-1,-1,-1,-1,-1,-1,-1,-1,-1,-1,-1,-1,-1,-1,-1,-1,-1,-1,-1,-1],"split_conditions":[2.40000000000000000e+01,6.00000095367431641e+00,6.00000095367431641e+00,1.60000000000000000e+01,3.50000000000000000e+00,6.00000095367431641e+00,8.00000095367431641e+00,3.50000000000000000e+00,1.00000009536743164e+01,4.50000000000000000e+00,1.50000000000000000e+00,4.00000095367431641e+00,6.00000095367431641e+00,1.50000000000000000e+00,1.50000000000000000e+00,1.20000009536743164e+01,2.00000095367431641e+00,4.00000095367431641e+00,1.65000000000000000e+01,4.50000000000000000e+00,1.50000000000000000e+00,1.10000000000000000e+01,2.20000000000000000e+01,1.50000000000000000e+00,1.00000009536743164e+01,5.50000000000000000e+00,2.50000000000000000e+00,1.80000000000000000e+01,1.00000009536743164e+01,4.00000095367431641e+00,2.50000000000000000e+00,2.20052555203437805e-01,-1.64822086691856384e-01,-7.27097243070602417e-02,2.86640822887420654e-01,-4.39215358346700668e-03,2.49893978238105774e-01,-3.91868427395820618e-02,5.64199611544609070e-02,1.93389624357223511e-01,3.76004949212074280e-02,3.10398042201995850e-01,-6.62186592817306519e-02,6.41700774431228638e-02,1.67418465018272400e-01,3.91607850790023804e-01,4.09318283200263977e-02,-1.24001782387495041e-02,3.16612213850021362e-01,-1.24727897346019745e-01,-3.13720554113388062e-02,3.43804478645324707e-01,-1.40702560544013977e-01,-3.95617410540580750e-02,8.79532247781753540e-02,3.36547315120697021e-01,1.14322565495967865e-01,4.60916608572006226e-01,-6.79330900311470032e-02,-9.48092341423034668e-02,1.35109290480613708e-01,1.38404116034507751e-01,2.57106900215148926e-01],"split_indices":[11212,16532,16963,417,2295,17027,11226,2350,416,9827,6298,416,416,9919,16098,7262,1719,17048,9919,9919,417,4458,11297,9648,11224,9751,3356,1627,14379,17027,14823,0,0,0,0,0,0,0,0,0,0,0,0,0,0,0,0,0,0,0,0,0,0,0,0,0,0,0,0,0,0,0,0],"sum_hessian":[4.05223125000000000e+05,1.95871777343750000e+04,3.85635937500000000e+05,6.80098974609375000e+03,1.27861884765625000e+04,3.96125732421875000e+03,3.81674687500000000e+05,2.50917175292968750e+02,6.55007275390625000e+03,1.30058911132812500e+03,1.14855996093750000e+04,7.23392517089843750e+02,3.23786474609375000e+03,2.44584106445312500e+03,3.79228843750000000e+05,6.20493793487548828e+00,2.44712249755859375e+02,2.48024520874023438e+02,6.30204785156250000e+03,1.69629760742187500e+02,1.13095935058593750e+03,7.89878027343750000e+03,3.58681958007812500e+03,2.00919494628906250e+01,7.03300537109375000e+02,1.11707351684570312e+02,3.12615747070312500e+03,1.70656726074218750e+03,7.39273925781250000e+02,3.26675683593750000e+03,3.75962093750000000e+05,1.43750107288360596e+00,4.76743698120117188e+00,3.82224440574645996e+00,2.40889999389648438e+02,1.96144256591796875e+01,2.28410095214843750e+02,4.43331054687500000e+03,1.86873730468750000e+03,4.43511238098144531e+01,1.25278640747070312e+02,1.23692369461059570e+01,1.11859020996093750e+03,1.60453649902343750e+03,6.29424365234375000e+03,1.08497825622558594e+02,3.47832177734375000e+03,4.43421030044555664e+00,1.56577377319335938e+01,3.03670806884765625e+02,3.99629760742187500e+02,1.09997489929199219e+02,1.70986115932464600e+00,5.73687072753906250e+02,2.55247021484375000e+03,1.45544219970703125e+02,1.56102307128906250e+03,1.24917726516723633e+01,7.26782165527343750e+02,3.79080780029296875e+02,2.88767626953125000e+03,5.02158984375000000e+03,3.70940500000000000e+05],"tree_param":{"num_feature":"17082","num_nodes":"63","size_leaf_vector":"0"}},{"base_weights":[-3.97277474403381348e-01,4.00646865367889404e-01,-4.79785263538360596e-01,-1.15787446498870850e-01,5.23180663585662842e-01,2.71675348281860352e-01,-5.13190865516662598e-01,5.47057569026947021e-01,-2.79550701379776001e-01,5.44100329279899597e-02,5.58378398418426514e-01,5.10422945022583008e-01,2.80260555446147919e-02,4.31659400463104248e-01,-5.25552332401275635e-01,-1.88293620944023132e-01,5.82820177078247070e-01,-5.98457574844360352e-01,-1.21230483055114746e-01,-6.94061994552612305e-01,1.36933550238609314e-01,-3.99163573980331421e-01,5.75527906417846680e-01,-1.50082081556320190e-01,5.86757719516754150e-01,-6.10553145408630371e-01,1.07632510364055634e-01,6.41537129878997803e-01,2.82861232757568359e-01,1.93674728274345398e-01,-5.32278776168823242e-01,-3.20288240909576416e-01,9.02141213417053223e-01,-5.43335318565368652e-01,6.06066584587097168e-01,1.81844383478164673e-01,-5.99377810955047607e-01,-5.72875857353210449e-01,2.94506028294563293e-02,-7.17668950557708740e-01,7.69719958305358887e-01,4.71382379531860352e-01,1.02324923500418663e-02,1.13987982273101807e-01,-4.94800269603729248e-01,-4.84668821096420288e-01,5.88808834552764893e-01,6.78704082965850830e-01,-1.99291691184043884e-01,-5.82373559474945068e-01,6.14816963672637939e-01,-6.12605214118957520e-01,1.05032600462436676e-01,-3.74480783939361572e-01,2.04566642642021179e-01,-5.09712755680084229e-01,6.81845784187316895e-01,6.70830130577087402e-01,1.47176265716552734e-01,-4.00764495134353638e-01,4.52507555484771729e-01,9.04238581657409668e-01,-5.34056901931762695e-01],"default_left":[false,false,false,false,false,false,false,false,false,false,false,false,false,false,false,true,false,false,false,true,false,false,false,false,false,true,false,false,false,false,false,false,false,false,false,false,false,false,false,false,false,false,false,false,false,false,false,false,false,false,false,false,false,false,false,false,false,false,false,false,false,false,false],"id":10,"leaf_child_counts":[0,0,0,0,0,0,0,0,0,0,0,0,0,0,0,2,2,2,2,2,2,2,2,2,2,2,2,2,2,2,2,0,0,0,0,0,0,0,0,0,0,0,0,0,0,0,0,0,0,0,0,0,0,0,0,0,0,0,0,0,0,0,0],"left_children":[1,3,5,7,9,11,13,15,17,19,21,23,25,27,29,31,33,35,37,39,41,43,45,47,49,51,53,55,57,59,61,-1,-1,-1,-1,-1,-1,-1,-1,-1,-1,-1,-1,-1,-1,-1,-1,-1,-1,-1,-1,-1,-1,-1,-1,-1,-1,-1,-1,-1,-1,-1,-1],"loss_changes":[1.50460429687500000e+04,1.35537915039062500e+03,5.19953125000000000e+03,4.46078247070312500e+02,2.85587890625000000e+02,5.12832214355468750e+02,2.31639843750000000e+03,2.15216369628906250e+01,1.66281524658203125e+02,7.48385086059570312e+01,2.64637207031250000e+02,2.24598632812500000e+02,2.21929336547851562e+02,7.98123779296875000e+01,9.47097656250000000e+02,5.83270359039306641e+00,2.06621093750000000e+01,8.93646240234375000e-01,1.49942398071289062e+02,4.71064758300781250e+00,4.62161865234375000e+01,1.39887046813964844e+01,2.23016601562500000e+02,1.89816818237304688e+01,1.31307250976562500e+02,7.74932861328125000e-01,1.81470214843750000e+02,4.96233520507812500e+01,7.88969650268554688e+01,2.79355346679687500e+02,4.95839843750000000e+02,0.00000000000000000e+00,0.00000000000000000e+00,0.00000000000000000e+00,0.00000000000000000e+00,0.00000000000000000e+00,0.00000000000000000e+00,0.00000000000000000e+00,0.00000000000000000e+00,0.00000000000000000e+00,0.00000000000000000e+00,0.00000000000000000e+00,0.00000000000000000e+00,0.00000000000000000e+00,0.00000000000000000e+00,0.00000000000000000e+00,0.00000000000000000e+00,0.00000000000000000e+00,0.00000000000000000e+00,0.00000000000000000e+00,0.00000000000000000e+00,0.00000000000000000e+00,0.00000000000000000e+00,0.00000000000000000e+00,0.00000000000000000e+00,0.00000000000000000e+00,0.00000000000000000e+00,0.00000000000000000e+00,0.00000000000000000e+00,0.00000000000000000e+00,0.00000000000000000e+00,0.00000000000000000e+00,0.00000000000000000e+00],"parents":[2147483647,0,0,1,1,2,2,3,3,4,4,5,5,6,6,7,7,8,8,9,9,10,10,11,11,12,12,13,13,14,14,15,15,16,16,17,17,18,18,19,19,20,20,21,21,22,22,23,23,24,24,25,25,26,26,27,27,28,28,29,29,30,30],"right_children":[2,4,6,8,10,12,14,16,18,20,22,24,26,28,30,32,34,36,38,40,42,44,46,48,50,52,54,56,58,60,62,-1,-1,-1,-1,-1,-1,-1,-1,-1,-1,-1,-1,-1,-1,-1,-1,-1,-1,-1,-1,-1,-1,-1,-1,-1,-1,-1,-1,-1,-1,-1,-1],"split_conditions":[2.40000000000000000e+01,5.60000000000000000e+01,1.00000009536743164e+01,2.50000000000000000e+00,9.50000000000000000e+00,2.75000000000000000e+01,6.00000095367431641e+00,8.00000095367431641e+00,6.00000095367431641e+00,2.20000000000000000e+01,8.00000095367431641e+00,1.00000009536743164e+01,4.00000000000000000e+01,4.00000095367431641e+00,3.50000000000000000e+00,8.00000000000000000e+00,4.00000095367431641e+00,2.00000095367431641e+00,2.40000000000000000e+01,-9.53674316406250000e-07,4.00000095367431641e+00,1.50000000000000000e+00,6.00000095367431641e+00,6.00000095367431641e+00,3.00000000000000000e+01,2.50000000000000000e+00,6.00000095367431641e+00,6.00000095367431641e+00,4.00000095367431641e+00,5.40000000000000000e+01,1.50000000000000000e+00,-9.60864797234535217e-02,2.70642369985580444e-01,-1.63000598549842834e-01,1.81819975376129150e-01,5.45533187687397003e-02,-1.79813355207443237e-01,-1.71862766146659851e-01,8.83518159389495850e-03,-2.15300694108009338e-01,2.30915993452072144e-01,1.41414716839790344e-01,3.06974793784320354e-03,3.41963954269886017e-02,-1.48440092802047729e-01,-1.45400658249855042e-01,1.76642656326293945e-01,2.03611239790916443e-01,-5.97875081002712250e-02,-1.74712076783180237e-01,1.84445098042488098e-01,-1.83781564235687256e-01,3.15097831189632416e-02,-1.12344242632389069e-01,6.13699965178966522e-02,-1.52913838624954224e-01,2.04553738236427307e-01,2.01249048113822937e-01,4.41528819501399994e-02,-1.20229355990886688e-01,1.35752275586128235e-01,2.71271586418151855e-01,-1.60217076539993286e-01],"split_indices":[11212,14010,11224,16963,8824,9919,16963,415,16098,1627,9300,11228,11297,16530,11209,9919,16098,10048,11896,16964,16963,3732,417,4954,14379,1783,11228,416,16532,14010,16532,0,0,0,0,0,0,0,0,0,0,0,0,0,0,0,0,0,0,0,0,0,0,0,0,0,0,0,0,0,0,0,0],"sum_hessian":[2.28537921875000000e+05,2.14165742187500000e+04,2.07121343750000000e+05,4.10703076171875000e+03,1.73095429687500000e+04,8.81523632812500000e+03,1.98306109375000000e+05,8.13199401855468750e+02,3.29383129882812500e+03,1.20909619140625000e+03,1.61004472656250000e+04,4.45185107421875000e+03,4.36338476562500000e+03,2.56048999023437500e+03,1.95745625000000000e+05,3.75166358947753906e+01,7.75682800292968750e+02,1.09180700683593750e+03,2.20202441406250000e+03,1.19335578918457031e+02,1.08976062011718750e+03,2.82891754150390625e+02,1.58175556640625000e+04,4.61100555419921875e+02,3.99075073242187500e+03,4.82915039062500000e+02,3.88046972656250000e+03,1.06085595703125000e+03,1.49963391113281250e+03,1.81346301269531250e+03,1.93932156250000000e+05,3.40957031250000000e+01,3.42093157768249512e+00,1.52355184555053711e+01,7.60447265625000000e+02,1.05443465709686279e+00,1.09075256347656250e+03,5.50168823242187500e+02,1.65185546875000000e+03,1.17943183898925781e+02,1.39239478111267090e+00,2.98664581298828125e+02,7.91096008300781250e+02,4.44103164672851562e+01,2.38481430053710938e+02,1.95253555297851562e+02,1.56223027343750000e+04,2.51266384124755859e+01,4.35973907470703125e+02,9.30705642700195312e+01,3.89768017578125000e+03,4.81677673339843750e+02,1.23737215995788574e+00,6.49121948242187500e+02,3.23134790039062500e+03,3.54932556152343750e+01,1.02536279296875000e+03,3.87551086425781250e+02,1.11208288574218750e+03,5.49932250976562500e+02,1.26353076171875000e+03,2.39122207641601562e+02,1.93693031250000000e+05],"tree_param":{"num_feature":"17082","num_nodes":"63","size_leaf_vector":"0"}},{"base_weights":[-5.50670087337493896e-01,4.31792348623275757e-01,-5.73245644569396973e-01,-2.08829566836357117e-01,5.14564871788024902e-01,2.29778677225112915e-01,-5.80427527427673340e-01,-2.28883877396583557e-01,4.31042492389678955e-01,-1.99403688311576843e-02,5.83581626415252686e-01,5.80866158008575439e-01,7.53302052617073059e-02,1.53977096080780029e-01,-5.83047628402709961e-01,3.31324905157089233e-01,-2.53775238990783691e-01,1.38799166679382324e+00,1.09191730618476868e-01,-9.58257615566253662e-02,4.95587587356567383e-01,8.71963262557983398e-01,4.90507870912551880e-01,-2.56374180316925049e-01,6.59051060676574707e-01,1.14886164665222168e+00,3.29969860613346100e-02,6.42287433147430420e-01,5.95862381160259247e-02,1.56085446476936340e-01,-5.84629237651824951e-01,1.10020649433135986e+00,-4.98405545949935913e-02,6.48861467838287354e-01,-2.68032759428024292e-01,1.01839292049407959e+00,-2.18120843172073364e-01,1.09135258197784424e+00,-1.21457844972610474e-01,-5.67488431930541992e-01,5.91360569000244141e-01,-5.10977685451507568e-01,8.76289129257202148e-01,1.05913162231445312e+00,4.15996015071868896e-01,6.27744019031524658e-01,-3.37314367294311523e-01,-2.49063149094581604e-02,7.27843880653381348e-01,-2.03998163342475891e-01,1.23311066627502441e+00,1.45069587230682373e+00,-1.22402823762968183e-04,-5.74458599090576172e-01,7.08450496196746826e-01,6.12095475196838379e-01,-5.51786413416266441e-03,9.05196189880371094e-01,6.72342777252197266e-02,-1.29140824079513550e-01,-5.85360646247863770e-01],"default_left":[false,false,false,true,false,false,false,false,false,true,false,false,false,false,false,false,false,false,false,false,false,false,false,false,false,false,false,false,false,false,false,false,false,false,false,false,false,false,false,false,false,false,false,false,false,false,false,false,false,false,false,false,false,false,false,false,false,false,false,false,false],"id":11,"leaf_child_counts":[0,0,0,0,0,0,0,0,1,0,0,0,0,0,0,2,2,0,2,2,2,2,2,2,2,2,2,2,2,2,2,0,0,0,0,0,0,0,0,0,0,0,0,0,0,0,0,0,0,0,0,0,0,0,0,0,0,0,0,0,0],"left_children":[1,3,5,7,9,11,13,15,17,19,21,23,25,27,29,31,33,-1,35,37,39,41,43,45,47,49,51,53,55,57,59,-1,-1,-1,-1,-1,-1,-1,-1,-1,-1,-1,-1,-1,-1,-1,-1,-1,-1,-1,-1,-1,-1,-1,-1,-1,-1,-1,-1,-1,-1],"loss_changes":[4.76064062500000000e+03,2.55780029296875000e+02,1.21014843750000000e+03,7.18737030029296875e+00,1.57539916992187500e+02,1.00842712402343750e+02,4.00226562500000000e+02,7.56220054626464844e+00,5.12564229965209961e+00,1.91893024444580078e+01,1.01082519531250000e+02,3.73674011230468750e+01,5.87352790832519531e+01,3.40716819763183594e+01,2.42328125000000000e+02,6.86823606491088867e+00,6.78920364379882812e+00,0.00000000000000000e+00,4.36079072952270508e+00,1.31368274688720703e+01,6.74424171447753906e+00,5.96044921875000000e+00,1.20796569824218750e+02,3.73643755912780762e+00,2.44853668212890625e+01,5.84023284912109375e+00,5.84673461914062500e+01,1.00493469238281250e+01,2.23506431579589844e+01,2.94411506652832031e+01,6.88046875000000000e+01,0.00000000000000000e+00,0.00000000000000000e+00,0.00000000000000000e+00,0.00000000000000000e+00,0.00000000000000000e+00,0.00000000000000000e+00,0.00000000000000000e+00,0.00000000000000000e+00,0.00000000000000000e+00,0.00000000000000000e+00,0.00000000000000000e+00,0.00000000000000000e+00,0.00000000000000000e+00,0.00000000000000000e+00,0.00000000000000000e+00,0.00000000000000000e+00,0.00000000000000000e+00,0.00000000000000000e+00,0.00000000000000000e+00,0.00000000000000000e+00,0.00000000000000000e+00,0.00000000000000000e+00,0.00000000000000000e+00,0.00000000000000000e+00,0.00000000000000000e+00,0.00000000000000000e+00,0.00000000000000000e+00,0.00000000000000000e+00,0.00000000000000000e+00,0.00000000000000000e+00],"parents":[2147483647,0,0,1,1,2,2,3,3,4,4,5,5,6,6,7,7,8,8,9,9,10,10,11,11,12,12,13,13,14,14,15,15,16,16,18,18,19,19,20,20,21,21,22,22,23,23,24,24,25,25,26,26,27,27,28,28,29,29,30,30],"right_children":[2,4,6,8,10,12,14,16,18,20,22,24,26,28,30,32,34,-1,36,38,40,42,44,46,48,50,52,54,56,58,60,-1,-1,-1,-1,-1,-1,-1,-1,-1,-1,-1,-1,-1,-1,-1,-1,-1,-1,-1,-1,-1,-1,-1,-1,-1,-1,-1,-1,-1,-1],"split_conditions":[6.00000095367431641e+00,2.50000000000000000e+00,1.50000000000000000e+00,9.50000000000000000e+00,2.50000000000000000e+00,2.40000000000000000e+01,6.50000000000000000e+00,1.50000000000000000e+00,4.00000095367431641e+00,1.50000000000000000e+00,6.00000095367431641e+00,8.00000095367431641e+00,4.00000095367431641e+00,8.00000095367431641e+00,3.50000000000000000e+00,6.00000095367431641e+00,1.50000000000000000e+00,4.16397511959075928e-01,1.50000000000000000e+00,2.00000095367431641e+00,3.00000000000000000e+00,1.50000000000000000e+00,1.50000000000000000e+00,4.00000095367431641e+00,1.00000009536743164e+01,6.00000095367431641e+00,2.00000095367431641e+00,4.00000095367431641e+00,1.50000000000000000e+00,1.50000000000000000e+00,4.50000000000000000e+00,3.30061972141265869e-01,-1.49521669372916222e-02,1.94658443331718445e-01,-8.04098322987556458e-02,3.05517882108688354e-01,-6.54362589120864868e-02,3.27405780553817749e-01,-3.64373549818992615e-02,-1.70246541500091553e-01,1.77408173680305481e-01,-1.53293311595916748e-01,2.62886762619018555e-01,3.17739486694335938e-01,1.24798811972141266e-01,1.88323214650154114e-01,-1.01194314658641815e-01,-7.47189484536647797e-03,2.18353167176246643e-01,-6.11994527280330658e-02,3.69933217763900757e-01,4.35208767652511597e-01,-3.67208485840819776e-05,-1.72337591648101807e-01,2.12535157799720764e-01,1.83628648519515991e-01,-1.65535928681492805e-03,2.71558880805969238e-01,2.01702844351530075e-02,-3.87422479689121246e-02,-1.75608202815055847e-01],"split_indices":[16098,417,16880,954,416,3368,8602,16496,7204,6298,17027,417,17027,3356,13453,8545,32,0,14266,16261,7512,6916,15317,4155,416,417,15317,16963,17027,3356,3220,0,0,0,0,0,0,0,0,0,0,0,0,0,0,0,0,0,0,0,0,0,0,0,0,0,0,0,0,0,0],"sum_hessian":[2.14628062500000000e+05,4.82065380859375000e+03,2.09807406250000000e+05,5.51416442871093750e+02,4.26923730468750000e+03,1.85951818847656250e+03,2.07947890625000000e+05,5.35282409667968750e+02,1.61340522766113281e+01,4.88297119140625000e+02,3.78094018554687500e+03,5.67265930175781250e+02,1.29225219726562500e+03,7.39040100097656250e+02,2.07208843750000000e+05,2.22482872009277344e+01,5.13034118652343750e+02,3.22694444656372070e+00,1.29071083068847656e+01,4.26352447509765625e+02,6.19446907043457031e+01,9.20494201660156250e+02,2.86044580078125000e+03,4.82545509338378906e+01,5.19011352539062500e+02,4.80333023071289062e+01,1.24421887207031250e+03,1.18775672912597656e+02,6.20264404296875000e+02,4.42243560791015625e+02,2.06766609375000000e+05,6.74862575531005859e+00,1.54996614456176758e+01,7.28545188903808594e+00,5.05748687744140625e+02,2.85769462585449219e+00,1.00494136810302734e+01,8.13200569152832031e+00,4.18220428466796875e+02,4.71236133575439453e+00,5.72323303222656250e+01,2.50510597229003906e+00,9.17989135742187500e+02,3.29872070312500000e+02,2.53057373046875000e+03,3.48054552078247070e+00,4.47740058898925781e+01,4.74900512695312500e+01,4.71521301269531250e+02,2.73257946968078613e+00,4.53007240295410156e+01,2.74260368347167969e+01,1.21679284667968750e+03,5.72937011718750000e+00,1.13046302795410156e+02,6.44979019165039062e+01,5.55766540527343750e+02,4.59179763793945312e+01,3.96325592041015625e+02,3.31748199462890625e+02,2.06434859375000000e+05],"tree_param":{"num_feature":"17082","num_nodes":"61","size_leaf_vector":"0"}},{"base_weights":[-5.20280301570892334e-01,1.80480837821960449e-01,-5.37422001361846924e-01,2.42080792784690857e-01,-5.12178063392639160e-01,4.45636093616485596e-01,-5.41021525859832764e-01,-1.80910825729370117e-01,2.96749055385589600e-01,2.02066183090209961e-01,-5.51403820514678955e-01,-3.41535449028015137e-01,4.56864774227142334e-01,-3.57037693262100220e-01,-5.51359117031097412e-01,2.33565703034400940e-01,-3.99957418441772461e-01,-4.95192706584930420e-01,3.12264263629913330e-01,1.04659104347229004e+00,2.39608343690633774e-02,1.55410036444664001e-01,-5.70840656757354736e-01,4.71031427383422852e-01,-5.27803122997283936e-01,-5.82644879817962646e-01,4.65033888816833496e-01,2.63354510068893433e-01,-4.30275052785873413e-01,-1.86726734042167664e-01,-5.52588701248168945e-01,-4.32131111621856689e-01,3.20110559463500977e-01,2.05554142594337463e-01,-4.88150566816329956e-01,6.69059157371520996e-01,-5.35997271537780762e-01,-4.30902123451232910e-01,3.27656805515289307e-01,9.73189175128936768e-01,-1.15778639912605286e-01,1.05021905899047852e+00,-2.77452111244201660e-01,5.08755028247833252e-01,-5.77082753181457520e-01,1.88285186886787415e-02,-6.35928511619567871e-01,1.13633930683135986e+00,4.50008243322372437e-01,-3.32676738500595093e-01,5.04912078380584717e-01,2.24948272109031677e-01,-4.62099850177764893e-01,1.05024659633636475e+00,-3.28782111406326294e-01,-2.77069807052612305e-01,-5.53856372833251953e-01],"default_left":[false,true,false,false,false,false,false,false,false,false,false,false,false,false,false,false,false,false,false,false,false,false,false,false,false,false,false,false,false,false,false,false,false,false,false,false,false,false,false,false,false,false,false,false,false,false,false,false,false,false,false,false,false,false,false,false,false],"id":12,"leaf_child_counts":[0,0,0,0,0,0,0,0,0,1,0,1,1,0,0,2,2,2,2,0,2,2,2,0,2,0,2,2,2,2,2,0,0,0,0,0,0,0,0,0,0,0,0,0,0,0,0,0,0,0,0,0,0,0,0,0,0],"left_children":[1,3,5,7,9,11,13,15,17,19,21,23,25,27,29,31,33,35,37,-1,39,41,43,-1,45,-1,47,49,51,53,55,-1,-1,-1,-1,-1,-1,-1,-1,-1,-1,-1,-1,-1,-1,-1,-1,-1,-1,-1,-1,-1,-1,-1,-1,-1,-1],"loss_changes":[2.09429687500000000e+03,1.77772003173828125e+02,6.02417968750000000e+02,8.84844818115234375e+01,9.64702606201171875e+00,5.64836883544921875e+00,3.22289062500000000e+02,3.98863143920898438e+01,4.17696228027343750e+01,2.75016903877258301e+00,4.52483367919921875e+00,1.65792965888977051e+00,5.47708892822265625e+00,4.10078247070312500e+02,7.18710937500000000e+01,8.90563964843750000e+00,1.54331588745117188e+01,3.46865081787109375e+00,3.81468505859375000e+01,0.00000000000000000e+00,2.26956415176391602e+00,3.94310545921325684e+00,2.41281890869140625e+00,0.00000000000000000e+00,4.87559795379638672e-01,0.00000000000000000e+00,5.62994384765625000e+00,1.37422058105468750e+02,1.68395263671875000e+02,9.54171066284179688e+01,5.57265625000000000e+01,0.00000000000000000e+00,0.00000000000000000e+00,0.00000000000000000e+00,0.00000000000000000e+00,0.00000000000000000e+00,0.00000000000000000e+00,0.00000000000000000e+00,0.00000000000000000e+00,0.00000000000000000e+00,0.00000000000000000e+00,0.00000000000000000e+00,0.00000000000000000e+00,0.00000000000000000e+00,0.00000000000000000e+00,0.00000000000000000e+00,0.00000000000000000e+00,0.00000000000000000e+00,0.00000000000000000e+00,0.00000000000000000e+00,0.00000000000000000e+00,0.00000000000000000e+00,0.00000000000000000e+00,0.00000000000000000e+00,0.00000000000000000e+00,0.00000000000000000e+00,0.00000000000000000e+00],"parents":[2147483647,0,0,1,1,2,2,3,3,4,4,5,5,6,6,7,7,8,8,9,9,10,10,11,11,12,12,13,13,14,14,15,15,16,16,17,17,18,18,20,20,21,21,22,22,24,24,26,26,27,27,28,28,29,29,30,30],"right_children":[2,4,6,8,10,12,14,16,18,20,22,24,26,28,30,32,34,36,38,-1,40,42,44,-1,46,-1,48,50,52,54,56,-1,-1,-1,-1,-1,-1,-1,-1,-1,-1,-1,-1,-1,-1,-1,-1,-1,-1,-1,-1,-1,-1,-1,-1,-1,-1],"split_conditions":[3.50000000000000000e+00,1.50000000000000000e+00,1.50000000000000000e+00,3.00000000000000000e+01,3.50000000000000000e+00,1.50000000000000000e+00,7.50000000000000000e+00,5.50000000000000000e+00,1.40000009536743164e+01,5.50000000000000000e+00,2.00000095367431641e+00,1.50000000000000000e+00,2.00000000000000000e+00,3.50000000000000000e+00,4.00000095367431641e+00,8.00000095367431641e+00,1.00000009536743164e+01,2.50000000000000000e+00,2.60000000000000000e+01,3.13977330923080444e-01,2.00000095367431641e+00,2.50000000000000000e+00,8.00000095367431641e+00,1.41309440135955811e-01,2.00000095367431641e+00,-1.74793466925621033e-01,6.00000095367431641e+00,2.40000000000000000e+01,2.50000000000000000e+00,2.00000095367431641e+00,1.50000000000000000e+00,-1.29639342427253723e-01,9.60331708192825317e-02,6.16662465035915375e-02,-1.46445170044898987e-01,2.00717762112617493e-01,-1.60799190402030945e-01,-1.29270642995834351e-01,9.82970446348190308e-02,2.91956752538681030e-01,-3.47335934638977051e-02,3.15065741539001465e-01,-8.32356363534927368e-02,1.52626514434814453e-01,-1.73124834895133972e-01,5.64855569973587990e-03,-1.90778568387031555e-01,3.40901792049407959e-01,1.35002478957176208e-01,-9.98030230402946472e-02,1.51473626494407654e-01,6.74844831228256226e-02,-1.38629958033561707e-01,3.15073996782302856e-01,-9.86346378922462463e-02,-8.31209421157836914e-02,-1.66156917810440063e-01],"split_indices":[14823,2887,15206,1290,11255,10684,2620,2620,6382,14046,15204,2664,12833,11661,15209,4045,11883,2561,8824,0,991,9896,12321,0,8131,0,13265,13092,11255,16608,15204,0,0,0,0,0,0,0,0,0,0,0,0,0,0,0,0,0,0,0,0,0,0,0,0,0,0],"sum_hessian":[1.74337875000000000e+05,4.16251904296875000e+03,1.70175343750000000e+05,3.82316552734375000e+03,3.39353546142578125e+02,6.20383117675781250e+02,1.69554968750000000e+05,4.37297637939453125e+02,3.38586791992187500e+03,1.74506683349609375e+01,3.21902862548828125e+02,8.31134414672851562e+00,6.12071777343750000e+02,9.02193359375000000e+03,1.60533031250000000e+05,1.51176864624023438e+02,2.86120788574218750e+02,6.44651489257812500e+01,3.32140258789062500e+03,2.19001150131225586e+00,1.52606573104858398e+01,8.42795467376708984e+00,3.13474914550781250e+02,1.26484501361846924e+00,7.04649925231933594e+00,4.22421073913574219e+00,6.07847595214843750e+02,9.52313232421875000e+02,8.06962011718750000e+03,5.40045410156250000e+02,1.59992984375000000e+05,1.69333782196044922e+01,1.34243484497070312e+02,3.62063751220703125e+01,2.49914398193359375e+02,1.66151201725006104e+00,6.28036346435546875e+01,6.68494949340820312e+01,3.25455322265625000e+03,1.19293379783630371e+00,1.40677232742309570e+01,2.28278303146362305e+00,6.14517164230346680e+00,1.33926701545715332e+00,3.12135650634765625e+02,1.30002760887145996e+00,5.74647140502929688e+00,1.16736488342285156e+01,5.96173950195312500e+02,2.74534881591796875e+02,6.77778320312500000e+02,3.73512115478515625e+02,7.69610791015625000e+03,5.49721450805664062e+01,4.85073242187500000e+02,7.33768554687500000e+02,1.59259218750000000e+05],"tree_param":{"num_feature":"17082","num_nodes":"57","size_leaf_vector":"0"}},{"base_weights":[6.64238274097442627e-01,1.93397507071495056e-01,6.90268337726593018e-01,-1.10923603177070618e-01,2.50458776950836182e-01,1.34792283177375793e-01,6.96505725383758545e-01,5.13070762157440186e-01,-1.42899155616760254e-01,-8.51305201649665833e-03,3.20512145757675171e-01,1.23952889442443848e+00,1.12114779651165009e-01,4.04353708028793335e-01,7.03792631626129150e-01,-3.27174454927444458e-01,7.68929898738861084e-01,7.30078458786010742e-01,-1.59095793962478638e-01,1.07849895954132080e+00,-2.58019156754016876e-02,-1.16354390978813171e-01,3.63485038280487061e-01,-3.68595153093338013e-01,1.26719176769256592e+00,-1.24620206654071808e-01,2.18171358108520508e-01,2.51299589872360229e-01,5.79405188560485840e-01,3.56145650148391724e-01,7.08971381187438965e-01,7.61421442031860352e-01,-4.29795712232589722e-01,-2.32945442199707031e-01,8.42222630977630615e-01,-2.00084969401359558e-02,8.32128286361694336e-01,7.02237904071807861e-01,-1.74834489822387695e-01,-2.80715286731719971e-01,1.14746117591857910e+00,-3.19367974996566772e-01,2.96247787773609161e-02,-4.15363520383834839e-01,1.07436729595065117e-02,-2.89676547050476074e-01,3.87565732002258301e-01,-1.76315307617187500e-01,1.29747867584228516e+00,9.02272999286651611e-01,-1.59398689866065979e-01,-1.73619277775287628e-02,3.23039770126342773e-01,8.62567245960235596e-01,1.57857403159141541e-01,6.17174319922924042e-02,6.16812705993652344e-01,6.49391591548919678e-01,2.64518350362777710e-01,2.98568040132522583e-01,7.13217675685882568e-01],"default_left":[false,false,false,false,false,false,false,false,false,false,false,false,false,false,false,false,false,false,false,false,false,false,false,false,false,false,false,false,false,false,false,false,false,false,false,false,false,false,false,false,false,false,false,false,false,false,false,false,false,false,false,false,false,false,false,false,false,false,false,false,false],"id":13,"leaf_child_counts":[0,0,0,0,0,0,0,0,0,0,0,1,0,0,0,2,2,2,2,2,2,2,2,0,2,2,2,2,2,2,2,0,0,0,0,0,0,0,0,0,0,0,0,0,0,0,0,0,0,0,0,0,0,0,0,0,0,0,0,0,0],"left_children":[1,3,5,7,9,11,13,15,17,19,21,23,25,27,29,31,33,35,37,39,41,43,45,-1,47,49,51,53,55,57,59,-1,-1,-1,-1,-1,-1,-1,-1,-1,-1,-1,-1,-1,-1,-1,-1,-1,-1,-1,-1,-1,-1,-1,-1,-1,-1,-1,-1,-1,-1],"loss_changes":[4.61040625000000000e+03,3.42273132324218750e+02,1.23498437500000000e+03,6.21793975830078125e+01,3.01108398437500000e+02,9.90597229003906250e+01,7.50187500000000000e+02,3.29178466796875000e+01,4.19930496215820312e+01,6.64568176269531250e+01,2.45289916992187500e+02,4.00573730468750000e+00,9.74701538085937500e+01,2.29759887695312500e+02,6.18968750000000000e+02,4.36790657043457031e+00,8.77116394042968750e+00,4.15995025634765625e+00,3.95527038574218750e+01,5.51152038574218750e+00,5.66399803161621094e+01,4.44946823120117188e+01,1.87186035156250000e+02,0.00000000000000000e+00,3.65753173828125000e+00,4.30504074096679688e+01,6.62178955078125000e+01,2.61460723876953125e+02,7.74639892578125000e+01,1.35525695800781250e+02,5.90375000000000000e+02,0.00000000000000000e+00,0.00000000000000000e+00,