{"learner":{"attributes":{},"gradient_booster":{"model":{"gbtree_model_param":{"num_trees":"100","size_leaf_vector":"0"},"tree_info":[0,1,2,3,0,1,2,3,0,1,2,3,0,1,2,3,0,1,2,3,0,1,2,3,0,1,2,3,0,1,2,3,0,1,2,3,0,1,2,3,0,1,2,3,0,1,2,3,0,1,2,3,0,1,2,3,0,1,2,3,0,1,2,3,0,1,2,3,0,1,2,3,0,1,2,3,0,1,2,3,0,1,2,3,0,1,2,3,0,1,2,3,0,1,2,3,0,1,2,3],"trees":[{"base_weights":[-1.99591904878616333e-01,1.87354743480682373e+00,-3.82981508970260620e-01,1.91172838211059570e+00,-3.10925453901290894e-01,7.87278950214385986e-01,-5.20082533359527588e-01,7.03598856925964355e-02,1.93272709846496582e+00,1.22466957569122314e+00,-5.16787469387054443e-01,-2.64232814311981201e-01,1.33387231826782227e+00,1.30511140823364258e+00,-5.41158854961395264e-01,1.69601488113403320e+00,-3.82451623678207397e-01,1.43380641937255859e+00,1.97277379035949707e+00,1.04529619216918945e-01,1.72019076347351074e+00,1.77653634548187256e+00,-5.78452229499816895e-01,1.57112824916839600e+00,-3.24093878269195557e-01,-5.45888423919677734e-01,1.44930446147918701e+00,-8.75544324517250061e-02,1.58910071849822998e+00,6.37961149215698242e-01,-5.64476728439331055e-01,1.81618380546569824e+00,1.39534890651702881e-01,1.58381497859954834e+00,-4.73315358161926270e-01,1.93584823608398438e+00,8.19943428039550781e-01,-4.80769217014312744e-01,1.97528362274169922e+00,1.60975611209869385e+00,-1.41732290387153625e-01,-1.53846159577369690e-01,1.77741408348083496e+00,-0.00000000000000000e+00,1.90419161319732666e+00,1.46153843402862549e+00,-6.10409617424011230e-01,1.96183407306671143e+00,8.05970132350921631e-01,8.17543447017669678e-01,-3.83715689182281494e-01,1.35294115543365479e+00,-5.71687638759613037e-01,-2.95501444488763809e-02,1.56743490695953369e+00,-6.36363625526428223e-01,2.53061234951019287e-01,7.33925759792327881e-01,1.77511322498321533e+00,-2.17424511909484863e-01,1.09495580196380615e+00,-1.29426851868629456e-01,-5.88463246822357178e-01],"default_left":[false,true,false,false,false,false,false,false,false,false,false,false,false,false,false,true,false,false,false,false,false,false,false,false,false,false,false,false,false,false,false,false,false,false,false,false,false,false,false,false,false,false,false,false,false,false,false,false,false,false,false,false,false,false,false,false,false,false,false,false,false,false,false],"id":0,"leaf_child_counts":[0,0,0,0,0,0,0,0,0,0,0,0,0,0,0,2,2,2,2,2,2,2,2,2,2,2,2,2,2,2,2,0,0,0,0,0,0,0,0,0,0,0,0,0,0,0,0,0,0,0,0,0,0,0,0,0,0,0,0,0,0,0,0],"left_children":[1,3,5,7,9,11,13,15,17,19,21,23,25,27,29,31,33,35,37,39,41,43,45,47,49,51,53,55,57,59,61,-1,-1,-1,-1,-1,-1,-1,-1,-1,-1,-1,-1,-1,-1,-1,-1,-1,-1,-1,-1,-1,-1,-1,-1,-1,-1,-1,-1,-1,-1,-1,-1],"loss_changes":[2.60554812500000000e+05,4.64600000000000000e+03,1.01020132812500000e+05,2.11646875000000000e+03,3.03357940673828125e+02,3.79501210937500000e+04,2.16814531250000000e+04,4.55751861572265625e+02,1.07856250000000000e+03,6.28187103271484375e+01,1.20542861938476562e+02,2.48176489257812500e+03,9.42772656250000000e+03,2.54484960937500000e+03,1.53193906250000000e+04,2.49736938476562500e+01,8.72892379760742188e+01,1.23889453125000000e+03,3.09453125000000000e+02,1.35262975692749023e+01,8.70507812500000000e+00,5.07430267333984375e+00,5.45946960449218750e+01,2.11720947265625000e+02,1.48904711914062500e+03,1.23942382812500000e+02,7.15075781250000000e+03,2.04058212280273438e+02,8.48843750000000000e+02,4.22403369140625000e+03,5.70139062500000000e+03,0.00000000000000000e+00,0.00000000000000000e+00,0.00000000000000000e+00,0.00000000000000000e+00,0.00000000000000000e+00,0.00000000000000000e+00,0.00000000000000000e+00,0.00000000000000000e+00,0.00000000000000000e+00,0.00000000000000000e+00,0.00000000000000000e+00,0.00000000000000000e+00,0.00000000000000000e+00,0.00000000000000000e+00,0.00000000000000000e+00,0.00000000000000000e+00,0.00000000000000000e+00,0.00000000000000000e+00,0.00000000000000000e+00,0.00000000000000000e+00,0.00000000000000000e+00,0.00000000000000000e+00,0.00000000000000000e+00,0.00000000000000000e+00,0.00000000000000000e+00,0.00000000000000000e+00,0.00000000000000000e+00,0.00000000000000000e+00,0.00000000000000000e+00,0.00000000000000000e+00,0.00000000000000000e+00,0.00000000000000000e+00],"parents":[2147483647,0,0,1,1,2,2,3,3,4,4,5,5,6,6,7,7,8,8,9,9,10,10,11,11,12,12,13,13,14,14,15,15,16,16,17,17,18,18,19,19,20,20,21,21,22,22,23,23,24,24,25,25,26,26,27,27,28,28,29,29,30,30],"right_children":[2,4,6,8,10,12,14,16,18,20,22,24,26,28,30,32,34,36,38,40,42,44,46,48,50,52,54,56,58,60,62,-1,-1,-1,-1,-1,-1,-1,-1,-1,-1,-1,-1,-1,-1,-1,-1,-1,-1,-1,-1,-1,-1,-1,-1,-1,-1,-1,-1,-1,-1,-1,-1],"split_conditions":[4.50000000000000000e+00,2.50000000000000000e+00,5.50000000000000000e+00,2.40000000000000000e+01,7.00000000000000000e+00,3.80000000000000000e+01,2.50000000000000000e+00,5.50000000000000000e+00,1.05000000000000000e+01,1.20000009536743164e+01,8.00000095367431641e+00,1.50000000000000000e+00,7.60000000000000000e+01,6.00000095367431641e+00,3.50000000000000000e+00,1.50000000000000000e+00,6.00000095367431641e+00,8.50000000000000000e+00,2.40000000000000000e+01,4.00000095367431641e+00,2.00000095367431641e+00,2.00000095367431641e+00,8.00000095367431641e+00,2.00000095367431641e+00,4.50000000000000000e+00,2.00000095367431641e+00,2.20000000000000000e+01,2.00000095367431641e+00,1.40000009536743164e+01,3.20000000000000000e+01,2.50000000000000000e+00,5.44855177402496338e-01,4.18604686856269836e-02,4.75144505500793457e-01,-1.41994610428810120e-01,5.80754518508911133e-01,2.45983034372329712e-01,-1.44230768084526062e-01,5.92585086822509766e-01,4.82926845550537109e-01,-4.25196886062622070e-02,-4.61538508534431458e-02,5.33224225044250488e-01,-0.00000000000000000e+00,5.71257531642913818e-01,4.38461542129516602e-01,-1.83122888207435608e-01,5.88550269603729248e-01,2.41791054606437683e-01,2.45263040065765381e-01,-1.15114711225032806e-01,4.05882358551025391e-01,-1.71506300568580627e-01,-8.86504352092742920e-03,4.70230489969253540e-01,-1.90909102559089661e-01,7.59183764457702637e-02,2.20177739858627319e-01,5.32534003257751465e-01,-6.52273595333099365e-02,3.28486740589141846e-01,-3.88280563056468964e-02,-1.76538974046707153e-01],"split_indices":[9950,1892,1736,4256,1736,8814,10286,1736,8814,8814,1573,11673,624,11890,7555,8814,7555,1736,626,1743,3565,2728,4117,10288,7555,11673,2232,10287,8814,8814,7830,0,0,0,0,0,0,0,0,0,0,0,0,0,0,0,0,0,0,0,0,0,0,0,0,0,0,0,0,0,0,0,0],"sum_hessian":[6.85321125000000000e+05,5.56957500000000000e+04,6.29625375000000000e+05,5.47391250000000000e+04,9.56625000000000000e+02,6.60273750000000000e+04,5.63598000000000000e+05,6.17250000000000000e+02,5.41218750000000000e+04,1.12500000000000000e+02,8.44125000000000000e+02,2.25832500000000000e+04,4.34441250000000000e+04,6.43312500000000000e+03,5.57164875000000000e+05,1.33875000000000000e+02,4.83375000000000000e+02,4.02412500000000000e+03,5.00977500000000000e+04,3.48750000000000000e+01,7.76250000000000000e+01,2.13750000000000000e+01,8.22750000000000000e+02,7.12500000000000000e+02,2.18707500000000000e+04,2.51325000000000000e+03,4.09308750000000000e+04,1.08975000000000000e+03,5.34337500000000000e+03,1.08041250000000000e+04,5.46360750000000000e+05,1.24125000000000000e+02,9.75000000000000000e+00,2.06250000000000000e+01,4.62750000000000000e+02,2.21250000000000000e+03,1.81162500000000000e+03,5.10000000000000000e+01,5.00467500000000000e+04,4.12500000000000000e+00,3.07500000000000000e+01,2.25000000000000000e+00,7.53750000000000000e+01,1.50000000000000000e+00,1.98750000000000000e+01,1.20000000000000000e+01,8.10750000000000000e+02,4.70625000000000000e+02,2.41875000000000000e+02,1.08487500000000000e+03,2.07858750000000000e+04,3.30000000000000000e+01,2.48025000000000000e+03,3.02775000000000000e+03,3.79031250000000000e+04,4.17000000000000000e+02,6.72750000000000000e+02,9.55500000000000000e+02,4.38787500000000000e+03,3.76237500000000000e+03,7.04175000000000000e+03,2.85498750000000000e+04,5.17810875000000000e+05],"tree_param":{"num_feature":"12139","num_nodes":"63","size_leaf_vector":"0"}},{"base_weights":[6.91317617893218994e-01,-4.91272777318954468e-01,8.78880023956298828e-01,5.55453717708587646e-01,-5.06707489490509033e-01,-5.82891404628753662e-01,1.02934217453002930e+00,9.45976316928863525e-01,-5.24285197257995605e-01,1.16545534133911133e+00,-5.12006819248199463e-01,-6.07038676738739014e-01,1.01413154602050781e+00,-5.34550130367279053e-01,1.12324833869934082e+00,-2.51450687646865845e-01,1.12204897403717041e+00,-6.55355274677276611e-01,-2.79024392366409302e-01,-3.81270915269851685e-01,1.38671875000000000e+00,1.55765131115913391e-01,-5.24125516414642334e-01,-1.70087277889251709e-01,-6.43160939216613770e-01,-5.70824503898620605e-01,1.13538265228271484e+00,-6.62290453910827637e-01,-2.06742763519287109e-01,-4.93949741125106812e-01,1.18690991401672363e+00,1.60975611209869385e+00,-3.25674325227737427e-01,2.09668651223182678e-01,1.44608223438262939e+00,1.17647059261798859e-01,-6.59563124179840088e-01,1.97952225804328918e-01,-4.64864850044250488e-01,7.50000000000000000e-01,-5.01818180084228516e-01,1.47373783588409424e+00,-5.26315808296203613e-01,4.82374757528305054e-01,-4.66019421815872192e-01,-6.22452735900878906e-01,-4.60535168647766113e-01,-6.05858802795410156e-01,3.27427357435226440e-01,1.91807225346565247e-01,-6.47482037544250488e-01,5.88235318660736084e-01,-6.03448271751403809e-01,-5.11945366859436035e-01,1.21660089492797852e+00,-4.96724247932434082e-01,-6.63864731788635254e-01,-5.21596729755401611e-01,2.16294258832931519e-01,9.71922218799591064e-01,-5.02831697463989258e-01,2.32235237956047058e-01,1.31127810478210449e+00],"default_left":[false,false,false,true,false,true,false,false,false,false,false,false,false,false,false,false,false,false,false,false,true,true,false,false,false,false,false,false,false,false,false,false,false,false,false,false,false,false,false,false,false,false,false,false,false,false,false,false,false,false,false,false,false,false,false,false,false,false,false,false,false,false,false],"id":1,"leaf_child_counts":[0,0,0,0,0,0,0,0,0,0,0,0,0,0,0,2,2,2,2,2,2,2,2,2,2,2,2,2,2,2,2,0,0,0,0,0,0,0,0,0,0,0,0,0,0,0,0,0,0,0,0,0,0,0,0,0,0,0,0,0,0,0,0],"left_children":[1,3,5,7,9,11,13,15,17,19,21,23,25,27,29,31,33,35,37,39,41,43,45,47,49,51,53,55,57,59,61,-1,-1,-1,-1,-1,-1,-1,-1,-1,-1,-1,-1,-1,-1,-1,-1,-1,-1,-1,-1,-1,-1,-1,-1,-1,-1,-1,-1,-1,-1,-1,-1],"loss_changes":[1.52011437500000000e+05,1.51595898437500000e+03,1.30097562500000000e+05,5.75538085937500000e+02,8.19849609375000000e+02,2.12946093750000000e+03,7.87619375000000000e+04,2.11511535644531250e+02,1.14822463989257812e+01,1.00589355468750000e+02,7.45898437500000000e+02,8.58230468750000000e+02,1.58738098144531250e+02,1.27199121093750000e+03,5.20874375000000000e+04,1.83795700073242188e+01,2.57976684570312500e+02,8.44421386718750000e-01,1.14492216110229492e+01,5.47325325012207031e+00,4.33921508789062500e+01,3.33988128662109375e+02,5.65697265625000000e+02,9.00742553710937500e+02,1.81349609375000000e+02,2.59065628051757812e+00,1.02907836914062500e+02,5.36816406250000000e+00,1.13496655273437500e+03,2.49979980468750000e+02,5.77939375000000000e+04,0.00000000000000000e+00,0.00000000000000000e+00,0.00000000000000000e+00,0.00000000000000000e+00,0.00000000000000000e+00,0.00000000000000000e+00,0.00000000000000000e+00,0.00000000000000000e+00,0.00000000000000000e+00,0.00000000000000000e+00,0.00000000000000000e+00,0.00000000000000000e+00,0.00000000000000000e+00,0.00000000000000000e+00,0.00000000000000000e+00,0.00000000000000000e+00,0.00000000000000000e+00,0.00000000000000000e+00,0.00000000000000000e+00,0.00000000000000000e+00,0.00000000000000000e+00,0.00000000000000000e+00,0.00000000000000000e+00,0.00000000000000000e+00,0.00000000000000000e+00,0.00000000000000000e+00,0.00000000000000000e+00,0.00000000000000000e+00,0.00000000000000000e+00,0.00000000000000000e+00,0.00000000000000000e+00,0.00000000000000000e+00],"parents":[2147483647,0,0,1,1,2,2,3,3,4,4,5,5,6,6,7,7,8,8,9,9,10,10,11,11,12,12,13,13,14,14,15,15,16,16,17,17,18,18,19,19,20,20,21,21,22,22,23,23,24,24,25,25,26,26,27,27,28,28,29,29,30,30],"right_children":[2,4,6,8,10,12,14,16,18,20,22,24,26,28,30,32,34,36,38,40,42,44,46,48,50,52,54,56,58,60,62,-1,-1,-1,-1,-1,-1,-1,-1,-1,-1,-1,-1,-1,-1,-1,-1,-1,-1,-1,-1,-1,-1,-1,-1,-1,-1,-1,-1,-1,-1,-1,-1],"split_conditions":[3.60000000000000000e+01,1.50000000000000000e+00,4.50000000000000000e+00,1.50000000000000000e+00,3.00000000000000000e+01,2.50000000000000000e+00,6.00000095367431641e+00,2.20000000000000000e+01,2.00000095367431641e+00,4.00000095367431641e+00,2.50000000000000000e+00,1.05000000000000000e+01,8.00000095367431641e+00,6.00000095367431641e+00,3.60000000000000000e+01,4.00000095367431641e+00,1.20000009536743164e+01,2.00000095367431641e+00,1.50000000000000000e+00,2.00000095367431641e+00,2.50000000000000000e+00,1.50000000000000000e+00,1.50000000000000000e+00,8.50000000000000000e+00,1.60000000000000000e+01,2.00000095367431641e+00,8.00000095367431641e+00,1.50000000000000000e+00,4.00000095367431641e+00,1.40000009536743164e+01,5.50000000000000000e+00,4.82926845550537109e-01,-9.77023020386695862e-02,6.29005953669548035e-02,4.33824688196182251e-01,3.52941192686557770e-02,-1.97868943214416504e-01,5.93856684863567352e-02,-1.39459460973739624e-01,2.25000008940696716e-01,-1.50545462965965271e-01,4.42121356725692749e-01,-1.57894745469093323e-01,1.44712433218955994e-01,-1.39805838465690613e-01,-1.86735823750495911e-01,-1.38160556554794312e-01,-1.81757643818855286e-01,9.82282087206840515e-02,5.75421713292598724e-02,-1.94244623184204102e-01,1.76470607519149780e-01,-1.81034490466117859e-01,-1.53583616018295288e-01,3.64980280399322510e-01,-1.49017274379730225e-01,-1.99159428477287292e-01,-1.56479030847549438e-01,6.48882836103439331e-02,2.91576683521270752e-01,-1.50849521160125732e-01,6.96705728769302368e-02,3.93383443355560303e-01],"split_indices":[7520,6185,9950,8786,7588,1892,11712,6882,11929,3155,7964,8814,1573,11929,7514,6275,2472,131,7520,11607,6632,8786,11595,1736,2985,3606,7514,11558,11073,6278,1736,0,0,0,0,0,0,0,0,0,0,0,0,0,0,0,0,0,0,0,0,0,0,0,0,0,0,0,0,0,0,0,0],"sum_hessian":[6.85321125000000000e+05,9.38145000000000000e+04,5.91506625000000000e+05,1.36275000000000000e+03,9.24517500000000000e+04,5.52022500000000000e+04,5.36304375000000000e+05,1.00087500000000000e+03,3.61875000000000000e+02,2.91375000000000000e+02,9.21603750000000000e+04,5.43806250000000000e+04,8.21625000000000000e+02,3.03787500000000000e+04,5.05925625000000000e+05,1.28250000000000000e+02,8.72625000000000000e+02,2.34750000000000000e+02,1.27125000000000000e+02,3.63750000000000000e+01,2.55000000000000000e+02,1.64250000000000000e+03,9.05178750000000000e+04,4.15275000000000000e+03,5.02278750000000000e+04,5.81250000000000000e+01,7.63500000000000000e+02,2.18595000000000000e+04,8.51925000000000000e+03,1.91613750000000000e+04,4.86764250000000000e+05,4.12500000000000000e+00,1.24125000000000000e+02,2.29125000000000000e+02,6.43500000000000000e+02,1.12500000000000000e+00,2.33625000000000000e+02,3.56250000000000000e+01,9.15000000000000000e+01,3.00000000000000000e+00,3.33750000000000000e+01,2.44125000000000000e+02,1.08750000000000000e+01,1.07700000000000000e+03,5.65500000000000000e+02,3.55458750000000000e+04,5.49720000000000000e+04,2.21362500000000000e+03,1.93912500000000000e+03,2.58375000000000000e+02,4.99695000000000000e+04,1.12500000000000000e+00,5.70000000000000000e+01,3.56250000000000000e+01,7.27875000000000000e+02,2.08875000000000000e+02,2.16506250000000000e+04,4.88400000000000000e+03,3.63525000000000000e+03,1.14750000000000000e+02,1.90466250000000000e+04,5.61037500000000000e+04,4.30660500000000000e+05],"tree_param":{"num_feature":"12139","num_nodes":"63","size_leaf_vector":"0"}},{"base_weights":[-6.02151155471801758e-02,1.41560959815979004e+00,-2.94282436370849609e-01,2.08437427878379822e-01,1.78905463218688965e+00,1.44335603713989258e+00,-3.83511215448379517e-01,1.77877044677734375e+00,-1.02722786366939545e-01,-4.78134989738464355e-01,1.81528878211975098e+00,1.83295562863349915e-01,1.60022962093353271e+00,1.46891069412231445e+00,-4.34673905372619629e-01,-5.43720185756683350e-01,1.82916462421417236e+00,-6.50193452835083008e-01,2.86599457263946533e-01,1.59832632541656494e+00,-5.55906534194946289e-01,1.93999737501144409e-01,1.83681297302246094e+00,1.68290674686431885e+00,1.08792781829833984e-01,-4.64118361473083496e-01,1.64171099662780762e+00,1.86057698726654053e+00,1.22735106945037842e+00,5.00042319297790527e-01,-4.74065572023391724e-01,8.96551728248596191e-01,-6.05263173580169678e-01,-1.52284264564514160e-01,1.84233963489532471e+00,-1.64383560419082642e-01,-6.54763877391815186e-01,-6.07597589492797852e-01,7.29708731174468994e-01,-4.00000005960464478e-01,1.71806168556213379e+00,-6.42138123512268066e-01,3.11418682336807251e-01,1.53415453433990479e+00,1.09957242384552956e-02,-5.92136442661285400e-01,1.84599041938781738e+00,-2.06896558403968811e-01,1.71764707565307617e+00,5.87141606956720352e-04,6.66330397129058838e-01,-4.91508483886718750e-01,1.45762717723846436e+00,1.83072280883789062e+00,1.37101972103118896e+00,-6.10169470310211182e-01,1.87295496463775635e+00,1.93760991096496582e+00,9.49691593647003174e-01,-5.07413506507873535e-01,6.78889811038970947e-01,9.84821617603302002e-01,-4.90882158279418945e-01],"default_left":[false,false,false,false,false,false,false,false,false,false,false,false,false,false,false,false,false,false,false,false,false,false,false,false,true,true,false,false,false,false,false,false,false,false,false,false,false,false,false,false,false,false,false,false,false,false,false,false,false,false,false,false,false,false,false,false,false,false,false,false,false,false,false],"id":2,"leaf_child_counts":[0,0,0,0,0,0,0,0,0,0,0,0,0,0,0,2,2,2,2,2,2,2,2,2,2,2,2,2,2,2,2,0,0,0,0,0,0,0,0,0,0,0,0,0,0,0,0,0,0,0,0,0,0,0,0,0,0,0,0,0,0,0,0],"left_children":[1,3,5,7,9,11,13,15,17,19,21,23,25,27,29,31,33,35,37,39,41,43,45,47,49,51,53,55,57,59,61,-1,-1,-1,-1,-1,-1,-1,-1,-1,-1,-1,-1,-1,-1,-1,-1,-1,-1,-1,-1,-1,-1,-1,-1,-1,-1,-1,-1,-1,-1,-1,-1],"loss_changes":[2.36739718750000000e+05,4.22921406250000000e+04,9.17124843750000000e+04,1.08311083984375000e+04,4.26239062500000000e+03,5.71058984375000000e+03,5.33227734375000000e+04,4.30048828125000000e+02,3.94358935546875000e+03,1.33370498657226562e+02,2.47135937500000000e+03,3.57309631347656250e+02,2.20085156250000000e+03,1.42839648437500000e+03,2.01591484375000000e+04,7.51186180114746094e+00,9.39550781250000000e+01,1.69653320312500000e+01,4.28484570312500000e+03,7.83542633056640625e+00,5.93969573974609375e+01,2.27854492187500000e+02,1.55929687500000000e+03,1.02935180664062500e+01,1.83964492797851562e+02,2.73967361450195312e+01,1.28611718750000000e+03,1.77501953125000000e+02,1.84328222656250000e+03,3.98966308593750000e+03,1.28893671875000000e+04,0.00000000000000000e+00,0.00000000000000000e+00,0.00000000000000000e+00,0.00000000000000000e+00,0.00000000000000000e+00,0.00000000000000000e+00,0.00000000000000000e+00,0.00000000000000000e+00,0.00000000000000000e+00,0.00000000000000000e+00,0.00000000000000000e+00,0.00000000000000000e+00,0.00000000000000000e+00,0.00000000000000000e+00,0.00000000000000000e+00,0.00000000000000000e+00,0.00000000000000000e+00,0.00000000000000000e+00,0.00000000000000000e+00,0.00000000000000000e+00,0.00000000000000000e+00,0.00000000000000000e+00,0.00000000000000000e+00,0.00000000000000000e+00,0.00000000000000000e+00,0.00000000000000000e+00,0.00000000000000000e+00,0.00000000000000000e+00,0.00000000000000000e+00,0.00000000000000000e+00,0.00000000000000000e+00,0.00000000000000000e+00],"parents":[2147483647,0,0,1,1,2,2,3,3,4,4,5,5,6,6,7,7,8,8,9,9,10,10,11,11,12,12,13,13,14,14,15,15,16,16,17,17,18,18,19,19,20,20,21,21,22,22,23,23,24,24,25,25,26,26,27,27,28,28,29,29,30,30],"right_children":[2,4,6,8,10,12,14,16,18,20,22,24,26,28,30,32,34,36,38,40,42,44,46,48,50,52,54,56,58,60,62,-1,-1,-1,-1,-1,-1,-1,-1,-1,-1,-1,-1,-1,-1,-1,-1,-1,-1,-1,-1,-1,-1,-1,-1,-1,-1,-1,-1,-1,-1,-1,-1],"split_conditions":[1.35000000000000000e+01,6.80000000000000000e+01,1.20000009536743164e+01,6.00000095367431641e+00,4.00000095367431641e+00,3.50000000000000000e+00,8.00000095367431641e+00,6.00000095367431641e+00,3.00000000000000000e+01,1.50000000000000000e+00,2.50000000000000000e+00,4.00000095367431641e+00,5.20000000000000000e+01,2.00000000000000000e+01,8.50000000000000000e+00,4.00000095367431641e+00,2.00000095367431641e+00,1.50000000000000000e+00,2.20000000000000000e+01,2.00000095367431641e+00,5.40000000000000000e+01,2.20000000000000000e+01,4.00000095367431641e+00,4.00000095367431641e+00,1.50000000000000000e+00,2.50000000000000000e+00,2.60000000000000000e+01,4.00000095367431641e+00,4.00000095367431641e+00,1.25000000000000000e+01,1.95000000000000000e+01,2.68965542316436768e-01,-1.81578963994979858e-01,-4.56852801144123077e-02,5.52701890468597412e-01,-4.93150688707828522e-02,-1.96429178118705750e-01,-1.82279288768768311e-01,2.18912631273269653e-01,-1.20000004768371582e-01,5.15418529510498047e-01,-1.92641451954841614e-01,9.34256091713905334e-02,4.60246384143829346e-01,3.29871731810271740e-03,-1.77640944719314575e-01,5.53797125816345215e-01,-6.20689690113067627e-02,5.15294134616851807e-01,1.76142493728548288e-04,1.99899122118949890e-01,-1.47452548146247864e-01,4.37288165092468262e-01,5.49216866493225098e-01,4.11305934190750122e-01,-1.83050841093063354e-01,5.61886489391326904e-01,5.81282973289489746e-01,2.84907490015029907e-01,-1.52224063873291016e-01,2.03666955232620239e-01,2.95446485280990601e-01,-1.47264659404754639e-01],"split_indices":[7520,9440,7534,12016,11712,7538,12016,11167,5719,12016,6185,12016,7588,7514,9432,2684,11929,11890,7988,8206,8786,6882,11167,7545,4203,6632,1254,11167,11428,7988,6926,0,0,0,0,0,0,0,0,0,0,0,0,0,0,0,0,0,0,0,0,0,0,0,0,0,0,0,0,0,0,0,0],"sum_hessian":[6.85321125000000000e+05,9.38130000000000000e+04,5.91508125000000000e+05,2.21651250000000000e+04,7.16478750000000000e+04,2.88900000000000000e+04,5.62618125000000000e+05,3.66487500000000000e+03,1.85002500000000000e+04,8.19375000000000000e+02,7.08285000000000000e+04,3.19875000000000000e+03,2.56912500000000000e+04,1.51207500000000000e+04,5.47497375000000000e+05,7.76250000000000000e+01,3.58725000000000000e+03,7.68825000000000000e+03,1.08120000000000000e+04,2.88750000000000000e+01,7.90500000000000000e+02,9.28125000000000000e+02,6.99003750000000000e+04,1.50375000000000000e+02,3.04837500000000000e+03,5.05875000000000000e+02,2.51853750000000000e+04,5.76562500000000000e+03,9.35512500000000000e+03,2.21396250000000000e+04,5.25357750000000000e+05,2.62500000000000000e+00,7.50000000000000000e+01,2.36250000000000000e+01,3.56362500000000000e+03,7.20000000000000000e+01,7.61625000000000000e+03,3.58237500000000000e+03,7.22962500000000000e+03,1.50000000000000000e+00,2.73750000000000000e+01,7.19250000000000000e+02,7.12500000000000000e+01,1.10625000000000000e+02,8.17500000000000000e+02,2.62875000000000000e+02,6.96375000000000000e+04,2.62500000000000000e+00,1.47750000000000000e+02,2.55375000000000000e+03,4.94625000000000000e+02,4.99500000000000000e+02,6.37500000000000000e+00,1.48267500000000000e+04,1.03586250000000000e+04,2.85000000000000000e+01,5.73712500000000000e+03,2.62762500000000000e+03,6.72750000000000000e+03,3.33750000000000000e+03,1.88021250000000000e+04,5.98612500000000000e+03,5.19371625000000000e+05],"tree_param":{"num_feature":"12139","num_nodes":"63","size_leaf_vector":"0"}},{"base_weights":[-4.31510597467422485e-01,1.87205326557159424e+00,-5.43319404125213623e-01,1.97688889503479004e+00,1.63076603412628174e+00,1.84628176689147949e+00,-6.11169159412384033e-01,1.98511087894439697e+00,1.84275758266448975e+00,-2.65921801328659058e-01,1.67577922344207764e+00,1.92868649959564209e+00,9.77559164166450500e-02,1.84391522407531738e+00,-6.29017114639282227e-01,-4.82758611440658569e-01,1.98544526100158691e+00,1.92989802360534668e+00,1.58959102630615234e+00,1.29203534126281738e+00,-3.69139462709426880e-01,1.91062343120574951e+00,1.40665483474731445e+00,1.13707706332206726e-01,1.96711373329162598e+00,1.48903226852416992e+00,-3.36825132369995117e-01,-3.04801672697067261e-01,1.87191867828369141e+00,1.70244657993316650e+00,-6.42593204975128174e-01,1.98563635349273682e+00,-4.00000005960464478e-01,1.93694996833801270e+00,2.43902444839477539e-01,1.96416568756103516e+00,1.39722990989685059e+00,-4.34782594442367554e-01,1.59183669090270996e+00,-4.06306862831115723e-01,1.09090912342071533e+00,-5.06024122238159180e-01,1.91525292396545410e+00,1.59774339199066162e+00,8.21159839630126953e-01,-6.28733992576599121e-01,8.23689579963684082e-01,7.84922420978546143e-01,1.97494721412658691e+00,1.77419352531433105e+00,9.68197882175445557e-01,1.38144326210021973e+00,-4.06027615070343018e-01,1.48936164379119873e+00,-4.90909099578857422e-01,1.95147383213043213e+00,1.53091442584991455e+00,-1.10169492661952972e-01,1.76245188713073730e+00,1.92230379581451416e+00,-6.47125840187072754e-01],"default_left":[false,false,false,false,false,false,false,false,false,false,false,false,false,false,false,false,true,false,false,false,true,false,false,false,false,false,false,false,false,false,false,false,false,false,false,false,false,false,false,false,false,false,false,false,false,false,false,false,false,false,false,false,false,false,false,false,false,false,false,false,false],"id":3,"leaf_child_counts":[0,0,0,0,0,0,0,1,0,0,0,0,0,0,0,0,2,2,2,2,2,2,2,2,2,2,2,2,2,2,2,0,0,0,0,0,0,0,0,0,0,0,0,0,0,0,0,0,0,0,0,0,0,0,0,0,0,0,0,0,0],"left_children":[1,3,5,7,9,11,13,15,17,19,21,23,25,27,29,-1,31,33,35,37,39,41,43,45,47,49,51,53,55,57,59,-1,-1,-1,-1,-1,-1,-1,-1,-1,-1,-1,-1,-1,-1,-1,-1,-1,-1,-1,-1,-1,-1,-1,-1,-1,-1,-1,-1,-1,-1],"loss_changes":[1.76511656250000000e+05,7.99257812500000000e+02,1.05971703125000000e+05,2.07265625000000000e+01,8.21292968750000000e+02,2.60000390625000000e+03,2.78499843750000000e+04,1.81328125000000000e+01,2.54125976562500000e+01,3.64578933715820312e+01,5.90892578125000000e+02,1.20173828125000000e+03,4.92210662841796875e+02,2.76592773437500000e+02,1.99725937500000000e+04,0.00000000000000000e+00,1.02890625000000000e+01,1.08911132812500000e+01,2.14837036132812500e+01,8.00465011596679688e+00,1.18730602264404297e+01,5.70488281250000000e+01,4.88756835937500000e+02,1.89424560546875000e+02,1.54738281250000000e+02,2.70583190917968750e+01,7.43435974121093750e+01,2.07238311767578125e+01,1.19861328125000000e+02,3.97532226562500000e+02,7.29425000000000000e+03,0.00000000000000000e+00,0.00000000000000000e+00,0.00000000000000000e+00,0.00000000000000000e+00,0.00000000000000000e+00,0.00000000000000000e+00,0.00000000000000000e+00,0.00000000000000000e+00,0.00000000000000000e+00,0.00000000000000000e+00,0.00000000000000000e+00,0.00000000000000000e+00,0.00000000000000000e+00,0.00000000000000000e+00,0.00000000000000000e+00,0.00000000000000000e+00,0.00000000000000000e+00,0.00000000000000000e+00,0.00000000000000000e+00,0.00000000000000000e+00,0.00000000000000000e+00,0.00000000000000000e+00,0.00000000000000000e+00,0.00000000000000000e+00,0.00000000000000000e+00,0.00000000000000000e+00,0.00000000000000000e+00,0.00000000000000000e+00,0.00000000000000000e+00,0.00000000000000000e+00],"parents":[2147483647,0,0,1,1,2,2,3,3,4,4,5,5,6,6,7,7,8,8,9,9,10,10,11,11,12,12,13,13,14,14,16,16,17,17,18,18,19,19,20,20,21,21,22,22,23,23,24,24,25,25,26,26,27,27,28,28,29,29,30,30],"right_children":[2,4,6,8,10,12,14,16,18,20,22,24,26,28,30,-1,32,34,36,38,40,42,44,46,48,50,52,54,56,58,60,-1,-1,-1,-1,-1,-1,-1,-1,-1,-1,-1,-1,-1,-1,-1,-1,-1,-1,-1,-1,-1,-1,-1,-1,-1,-1,-1,-1,-1,-1],"split_conditions":[1.70000000000000000e+01,6.00000095367431641e+00,6.00000095367431641e+00,1.50000000000000000e+00,4.00000095367431641e+00,6.00000095367431641e+00,1.15000000000000000e+01,2.00000095367431641e+00,1.15000000000000000e+01,2.00000095367431641e+00,3.00000000000000000e+01,4.00000095367431641e+00,2.40000000000000000e+01,6.00000095367431641e+00,1.60000000000000000e+01,-1.44827589392662048e-01,-9.53674316406250000e-07,1.25000000000000000e+01,4.00000095367431641e+00,2.00000095367431641e+00,4.50000000000000000e+00,2.00000095367431641e+00,1.80000000000000000e+01,4.00000095367431641e+00,4.00000095367431641e+00,1.60000000000000000e+01,1.20000009536743164e+01,4.00000095367431641e+00,6.80000000000000000e+01,1.50000000000000000e+00,4.00000095367431641e+00,5.95690906047821045e-01,-1.20000004768371582e-01,5.81085026264190674e-01,7.31707364320755005e-02,5.89249730110168457e-01,4.19168978929519653e-01,-1.30434781312942505e-01,4.77551013231277466e-01,-1.21892064809799194e-01,3.27272742986679077e-01,-1.51807248592376709e-01,5.74575901031494141e-01,4.79323029518127441e-01,2.46347963809967041e-01,-1.88620209693908691e-01,2.47106879949569702e-01,2.35476732254028320e-01,5.92484176158905029e-01,5.32258093357086182e-01,2.90459364652633667e-01,4.14433002471923828e-01,-1.21808290481567383e-01,4.46808516979217529e-01,-1.47272735834121704e-01,5.85442185401916504e-01,4.59274351596832275e-01,-3.30508500337600708e-02,5.28735578060150146e-01,5.76691150665283203e-01,-1.94137766957283020e-01],"split_indices":[5719,11167,11929,11168,12016,11712,2139,10288,8786,11929,7988,10286,7988,12016,9067,0,11675,5719,11712,954,9440,10288,5721,11673,10292,9067,7411,8206,9440,10286,11167,0,0,0,0,0,0,0,0,0,0,0,0,0,0,0,0,0,0,0,0,0,0,0,0,0,0,0,0,0,0],"sum_hessian":[6.85321125000000000e+05,3.17231250000000000e+04,6.53598000000000000e+05,2.21096250000000000e+04,9.61350000000000000e+03,1.80450000000000000e+04,6.35553000000000000e+05,2.08196250000000000e+04,1.29000000000000000e+03,2.22750000000000000e+02,9.39075000000000000e+03,1.72327500000000000e+04,8.12250000000000000e+02,4.58625000000000000e+03,6.30966750000000000e+05,2.62500000000000000e+00,2.08170000000000000e+04,9.54750000000000000e+02,3.35250000000000000e+02,1.31250000000000000e+01,2.09625000000000000e+02,5.01150000000000000e+03,4.37925000000000000e+03,3.57375000000000000e+02,1.68753750000000000e+04,1.92750000000000000e+02,6.19500000000000000e+02,5.88750000000000000e+01,4.52737500000000000e+03,3.65212500000000000e+03,6.27314625000000000e+05,2.08155000000000000e+04,1.50000000000000000e+00,9.50625000000000000e+02,4.12500000000000000e+00,1.10625000000000000e+02,2.24625000000000000e+02,1.87500000000000000e+00,1.12500000000000000e+01,2.05125000000000000e+02,4.50000000000000000e+00,9.37500000000000000e+00,5.00212500000000000e+03,3.30037500000000000e+03,1.07887500000000000e+03,1.74750000000000000e+02,1.82625000000000000e+02,1.11750000000000000e+02,1.67636250000000000e+04,1.23000000000000000e+02,6.97500000000000000e+01,2.32500000000000000e+01,5.96250000000000000e+02,4.87500000000000000e+00,5.40000000000000000e+01,3.66712500000000000e+03,8.60250000000000000e+02,1.17000000000000000e+02,3.53512500000000000e+03,1.10587500000000000e+03,6.26208750000000000e+05],"tree_param":{"num_feature":"12139","num_nodes":"61","size_leaf_vector":"0"}},{"base_weights":[-1.68243587017059326e-01,7.94468104839324951e-01,-3.90476226806640625e-01,-8.56491029262542725e-02,1.02626490592956543e+00,1.02897167205810547e+00,-4.65228825807571411e-01,1.14014410972595215e+00,-2.48564496636390686e-01,1.28801017999649048e-01,1.09071469306945801e+00,1.08889472484588623e+00,-2.84017443656921387e-01,6.38778269290924072e-01,-4.95478421449661255e-01,-5.60296475887298584e-01,1.15681254863739014e+00,5.79027056694030762e-01,-3.43504101037979126e-01,1.08873808383941650e+00,-1.25131562352180481e-01,-1.00625656545162201e-01,1.12039160728454590e+00,1.52236178517341614e-01,1.12814140319824219e+00,1.18189382553100586e+00,-4.12464052438735962e-01,-9.31888669729232788e-02,9.23036813735961914e-01,8.55322659015655518e-01,-5.11644423007965088e-01,2.12904885411262512e-01,-6.80715799331665039e-01,1.16742455959320068e+00,1.32211551070213318e-01,1.56377518177032471e+00,3.72267007827758789e-01,5.43645620346069336e-01,-4.10649657249450684e-01,1.16770756244659424e+00,5.74449539184570312e-01,6.87637329101562500e-01,-3.03988635540008545e-01,1.10966062545776367e+00,-2.42957487702369690e-01,-6.33729696273803711e-01,1.13894534111022949e+00,8.33838522434234619e-01,-2.20031633973121643e-01,1.14715445041656494e+00,9.92685481905937195e-02,-4.47759211063385010e-01,1.22057831287384033e+00,1.09005331993103027e+00,-4.96280789375305176e-01,1.03155171871185303e+00,-1.89346686005592346e-01,-2.70097374916076660e-01,1.04292690753936768e+00,-6.13971114158630371e-01,9.79893624782562256e-01,8.71871769428253174e-01,-5.20643949508666992e-01],"default_left":[false,false,false,false,false,true,false,false,false,false,false,false,false,false,false,false,true,false,false,false,false,false,false,false,true,false,false,false,false,false,false,false,false,false,false,false,false,false,false,false,false,false,false,false,false,false,false,false,false,false,false,false,false,false,false,false,false,false,false,false,false,false,false],"id":4,"leaf_child_counts":[0,0,0,0,0,0,0,0,0,0,0,0,0,0,0,2,2,2,2,2,2,2,2,2,2,2,2,2,2,2,2,0,0,0,0,0,0,0,0,0,0,0,0,0,0,0,0,0,0,0,0,0,0,0,0,0,0,0,0,0,0,0,0],"left_children":[1,3,5,7,9,11,13,15,17,19,21,23,25,27,29,31,33,35,37,39,41,43,45,47,49,51,53,55,57,59,61,-1,-1,-1,-1,-1,-1,-1,-1,-1,-1,-1,-1,-1,-1,-1,-1,-1,-1,-1,-1,-1,-1,-1,-1,-1,-1,-1,-1,-1,-1,-1,-1],"loss_changes":[1.36516796875000000e+05,2.44141484375000000e+04,5.50084453125000000e+04,4.98251171875000000e+03,5.47884375000000000e+03,2.04090820312500000e+03,1.64471406250000000e+04,8.36101074218750000e+01,1.73053356933593750e+03,1.54747778320312500e+03,3.12471875000000000e+03,9.11648437500000000e+02,2.13786163330078125e+02,2.73295361328125000e+03,1.04680078125000000e+04,2.85315132141113281e+00,3.13654785156250000e+01,4.60943908691406250e+02,1.17709619140625000e+03,5.32642822265625000e+01,7.30080688476562500e+02,3.70450622558593750e+02,2.80711718750000000e+03,2.53585739135742188e+02,4.65587890625000000e+02,6.31624603271484375e+00,1.31802978515625000e+02,3.97644042968750000e+02,1.35357421875000000e+03,1.03825097656250000e+03,5.89825000000000000e+03,0.00000000000000000e+00,0.00000000000000000e+00,0.00000000000000000e+00,0.00000000000000000e+00,0.00000000000000000e+00,0.00000000000000000e+00,0.00000000000000000e+00,0.00000000000000000e+00,0.00000000000000000e+00,0.00000000000000000e+00,0.00000000000000000e+00,0.00000000000000000e+00,0.00000000000000000e+00,0.00000000000000000e+00,0.00000000000000000e+00,0.00000000000000000e+00,0.00000000000000000e+00,0.00000000000000000e+00,0.00000000000000000e+00,0.00000000000000000e+00,0.00000000000000000e+00,0.00000000000000000e+00,0.00000000000000000e+00,0.00000000000000000e+00,0.00000000000000000e+00,0.00000000000000000e+00,0.00000000000000000e+00,0.00000000000000000e+00,0.00000000000000000e+00,0.00000000000000000e+00,0.00000000000000000e+00,0.00000000000000000e+00],"parents":[2147483647,0,0,1,1,2,2,3,3,4,4,5,5,6,6,7,7,8,8,9,9,10,10,11,11,12,12,13,13,14,14,15,15,16,16,17,17,18,18,19,19,20,20,21,21,22,22,23,23,24,24,25,25,26,26,27,27,28,28,29,29,30,30],"right_children":[2,4,6,8,10,12,14,16,18,20,22,24,26,28,30,32,34,36,38,40,42,44,46,48,50,52,54,56,58,60,62,-1,-1,-1,-1,-1,-1,-1,-1,-1,-1,-1,-1,-1,-1,-1,-1,-1,-1,-1,-1,-1,-1,-1,-1,-1,-1,-1,-1,-1,-1,-1,-1],"split_conditions":[7.50000000000000000e+00,3.80000000000000000e+01,3.50000000000000000e+00,5.50000000000000000e+00,4.00000000000000000e+01,1.50000000000000000e+00,4.50000000000000000e+00,1.20000009536743164e+01,3.50000000000000000e+00,3.50000000000000000e+00,3.20000000000000000e+01,1.60000000000000000e+01,6.00000095367431641e+00,3.20000000000000000e+01,2.50000000000000000e+00,8.00000095367431641e+00,1.50000000000000000e+00,4.00000095367431641e+00,1.20000009536743164e+01,6.00000095367431641e+00,4.50000000000000000e+00,8.00000095367431641e+00,1.40000009536743164e+01,2.20000000000000000e+01,1.50000000000000000e+00,1.00000009536743164e+01,8.00000095367431641e+00,8.50000000000000000e+00,2.20000000000000000e+01,4.00000095367431641e+00,4.00000095367431641e+00,6.38714656233787537e-02,-2.04214751720428467e-01,3.50227385759353638e-01,3.96634675562381744e-02,4.69132572412490845e-01,1.11680105328559875e-01,1.63093686103820801e-01,-1.23194903135299683e-01,3.50312292575836182e-01,1.72334864735603333e-01,2.06291213631629944e-01,-9.11965966224670410e-02,3.32898199558258057e-01,-7.28872492909431458e-02,-1.90118923783302307e-01,3.41683626174926758e-01,2.50151574611663818e-01,-6.60094916820526123e-02,3.44146341085433960e-01,2.97805648297071457e-02,-1.34327769279479980e-01,3.66173505783081055e-01,3.27015995979309082e-01,-1.48884236812591553e-01,3.09465527534484863e-01,-5.68040087819099426e-02,-8.10292139649391174e-02,3.12878072261810303e-01,-1.84191346168518066e-01,2.93968111276626587e-01,2.61561542749404907e-01,-1.56193196773529053e-01],"split_indices":[1736,8814,9950,9950,2693,1892,7555,1737,7830,6332,5609,2232,7555,8814,10286,6609,4203,7831,1743,9950,7830,9950,1737,6609,8814,624,1573,6027,2232,10287,10292,0,0,0,0,0,0,0,0,0,0,0,0,0,0,0,0,0,0,0,0,0,0,0,0,0,0,0,0,0,0,0,0],"sum_hessian":[6.38087562500000000e+05,1.19670867187500000e+05,5.18416718750000000e+05,2.49474941406250000e+04,9.47233750000000000e+04,2.59349726562500000e+04,4.92481750000000000e+05,2.92599438476562500e+03,2.20215000000000000e+04,6.34682568359375000e+03,8.83765468750000000e+04,2.48031601562500000e+04,1.13181201171875000e+03,1.31334960937500000e+04,4.79348250000000000e+05,2.80867958068847656e+01,2.89790747070312500e+03,2.26575390625000000e+03,1.97557460937500000e+04,1.32702136230468750e+03,5.01980419921875000e+03,2.14793847656250000e+03,8.62286093750000000e+04,9.97674377441406250e+02,2.38054863281250000e+04,9.05216903686523438e+01,1.04129028320312500e+03,3.67388842773437500e+03,9.45960839843750000e+03,5.66824365234375000e+03,4.73680000000000000e+05,3.68132281303405762e+00,2.44054718017578125e+01,2.86806298828125000e+03,2.98444404602050781e+01,3.92032897949218750e+02,1.87372094726562500e+03,1.38954260253906250e+03,1.83662031250000000e+04,1.14927807617187500e+03,1.77743209838867188e+02,9.04896362304687500e+02,4.11490771484375000e+03,2.25305801391601562e+02,1.92263269042968750e+03,9.02167968750000000e+02,8.53264453125000000e+04,3.51979278564453125e+02,6.45695068359375000e+02,2.33734433593750000e+04,4.32043701171875000e+02,1.85376429557800293e+00,8.86679229736328125e+01,5.43840827941894531e+01,9.86906188964843750e+02,2.88588897705078125e+02,3.38529956054687500e+03,8.63626464843750000e+02,8.59598144531250000e+03,4.42703155517578125e+02,5.22554052734375000e+03,3.06067382812500000e+03,4.70619312500000000e+05],"tree_param":{"num_feature":"12139","num_nodes":"63","size_leaf_vector":"0"}},{"base_weights":[4.90682244300842285e-01,-4.26064968109130859e-01,6.00646317005157471e-01,4.18975651264190674e-01,-4.41557824611663818e-01,-5.25200068950653076e-01,6.83266162872314453e-01,6.52842879295349121e-01,-4.58363085985183716e-01,-5.68592488765716553e-01,-3.64171475172042847e-01,-5.57759344577789307e-01,4.77593362331390381e-01,-5.73792695999145508e-01,7.29670405387878418e-01,-6.07578277587890625e-01,7.31561362743377686e-01,-6.03128612041473389e-01,-2.13320404291152954e-01,-1.64626240730285645e-01,-5.90414822101593018e-01,1.07993066310882568e+00,-3.74227106571197510e-01,1.29000619053840637e-01,-5.77388405799865723e-01,-3.90333920717239380e-01,7.30672657489776611e-01,-6.51594638824462891e-01,-4.05622780323028564e-01,-2.47089192271232605e-01,7.83724069595336914e-01,-6.36837959289550781e-01,6.64431333541870117e-01,1.50996312499046326e-01,9.06171500682830811e-01,1.64985761046409607e-01,-6.08131587505340576e-01,-6.11759662628173828e-01,6.69736089184880257e-03,1.25840306282043457e+00,-3.08266669511795044e-01,1.00869572162628174e+00,-5.91137111186981201e-01,-3.50282490253448486e-01,1.20054757595062256e+00,1.03095781803131104e+00,-3.82856070995330811e-01,-4.72017079591751099e-01,5.62847971916198730e-01,-5.87318897247314453e-01,1.45101562142372131e-01,3.65214318037033081e-01,-5.45490801334381104e-01,-4.67591017484664917e-01,8.05985093116760254e-01,2.17379862442612648e-03,-6.53648138046264648e-01,-5.10908842086791992e-01,-1.33168011903762817e-01,7.34499812126159668e-01,-3.77510488033294678e-01,-2.60475873947143555e-01,8.32686781883239746e-01],"default_left":[false,false,false,true,false,true,false,false,false,false,false,false,false,false,false,true,false,false,false,false,false,false,false,false,true,false,false,false,false,false,false,false,false,false,false,false,false,false,false,false,false,false,false,false,false,false,false,false,false,false,false,false,false,false,false,false,false,false,false,false,false,false,false],"id":5,"leaf_child_counts":[0,0,0,0,0,0,0,0,0,0,0,0,0,0,0,2,2,2,2,2,2,2,2,2,2,2,2,2,2,2,2,0,0,0,0,0,0,0,0,0,0,0,0,0,0,0,0,0,0,0,0,0,0,0,0,0,0,0,0,0,0,0,0],"left_children":[1,3,5,7,9,11,13,15,17,19,21,23,25,27,29,31,33,35,37,39,41,43,45,47,49,51,53,55,57,59,61,-1,-1,-1,-1,-1,-1,-1,-1,-1,-1,-1,-1,-1,-1,-1,-1,-1,-1,-1,-1,-1,-1,-1,-1,-1,-1,-1,-1,-1,-1,-1,-1],"loss_changes":[7.62140000000000000e+04,1.06028808593750000e+03,6.27914062500000000e+04,2.99520233154296875e+02,7.81487304687500000e+02,1.50713574218750000e+03,3.66857812500000000e+04,1.14726074218750000e+02,1.07799072265625000e+01,2.65248046875000000e+02,7.17998046875000000e+02,6.02665039062500000e+02,3.19201660156250000e+02,2.92681640625000000e+02,3.20222812500000000e+04,2.96343994140625000e+00,1.09808288574218750e+02,8.41087341308593750e-01,1.01511354446411133e+01,3.15999206542968750e+02,3.35800781250000000e+01,5.94141845703125000e+01,5.95450195312500000e+02,3.24368621826171875e+02,3.11890625000000000e+02,3.87010536193847656e+01,1.01853515625000000e+02,2.05502929687500000e+01,2.03159179687500000e+02,4.07192675781250000e+03,2.93830312500000000e+04,0.00000000000000000e+00,0.00000000000000000e+00,0.00000000000000000e+00,0.00000000000000000e+00,0.00000000000000000e+00,0.00000000000000000e+00,0.00000000000000000e+00,0.00000000000000000e+00,0.00000000000000000e+00,0.00000000000000000e+00,0.00000000000000000e+00,0.00000000000000000e+00,0.00000000000000000e+00,0.00000000000000000e+00,0.00000000000000000e+00,0.00000000000000000e+00,0.00000000000000000e+00,0.00000000000000000e+00,0.00000000000000000e+00,0.00000000000000000e+00,0.00000000000000000e+00,0.00000000000000000e+00,0.00000000000000000e+00,0.00000000000000000e+00,0.00000000000000000e+00,0.00000000000000000e+00,0.00000000000000000e+00,0.00000000000000000e+00,0.00000000000000000e+00,0.00000000000000000e+00,0.00000000000000000e+00,0.00000000000000000e+00],"parents":[2147483647,0,0,1,1,2,2,3,3,4,4,5,5,6,6,7,7,8,8,9,9,10,10,11,11,12,12,13,13,14,14,15,15,16,16,17,17,18,18,19,19,20,20,21,21,22,22,23,23,24,24,25,25,26,26,27,27,28,28,29,29,30,30],"right_children":[2,4,6,8,10,12,14,16,18,20,22,24,26,28,30,32,34,36,38,40,42,44,46,48,50,52,54,56,58,60,62,-1,-1,-1,-1,-1,-1,-1,-1,-1,-1,-1,-1,-1,-1,-1,-1,-1,-1,-1,-1,-1,-1,-1,-1,-1,-1,-1,-1,-1,-1,-1,-1],"split_conditions":[3.60000000000000000e+01,1.50000000000000000e+00,3.50000000000000000e+00,1.50000000000000000e+00,1.50000000000000000e+00,1.50000000000000000e+00,1.35000000000000000e+01,4.00000095367431641e+00,2.00000095367431641e+00,4.00000095367431641e+00,6.50000000000000000e+00,1.60000000000000000e+01,7.00000000000000000e+00,6.00000095367431641e+00,1.20000009536743164e+01,1.50000000000000000e+00,1.20000009536743164e+01,2.00000095367431641e+00,4.00000095367431641e+00,2.50000000000000000e+00,6.50000000000000000e+00,2.00000095367431641e+00,3.00000000000000000e+01,1.40000009536743164e+01,1.50000000000000000e+00,5.00000000000000000e+00,6.00000095367431641e+00,2.50000000000000000e+00,7.20000000000000000e+01,1.00000009536743164e+01,4.50000000000000000e+00,-1.91051393747329712e-01,1.99329406023025513e-01,4.52988967299461365e-02,2.71851450204849243e-01,4.94957305490970612e-02,-1.82439476251602173e-01,-1.83527901768684387e-01,2.00920831412076950e-03,3.77520948648452759e-01,-9.24800038337707520e-02,3.02608728408813477e-01,-1.77341133356094360e-01,-1.05084754526615143e-01,3.60164284706115723e-01,3.09287369251251221e-01,-1.14856824278831482e-01,-1.41605123877525330e-01,1.68854400515556335e-01,-1.76195681095123291e-01,4.35304716229438782e-02,1.09564296901226044e-01,-1.63647249341011047e-01,-1.40277311205863953e-01,2.41795539855957031e-01,6.52139598969370127e-04,-1.96094453334808350e-01,-1.53272658586502075e-01,-3.99504043161869049e-02,2.20349952578544617e-01,-1.13253153860569000e-01,-7.81427621841430664e-02,2.49806046485900879e-01],"split_indices":[7520,6185,9950,8786,11595,1892,5719,11428,11929,11558,7309,2232,1736,11167,7534,7714,2472,131,11167,331,6919,12016,7588,1736,8814,8814,7555,8469,8786,7538,7555,0,0,0,0,0,0,0,0,0,0,0,0,0,0,0,0,0,0,0,0,0,0,0,0,0,0,0,0,0,0,0,0],"sum_hessian":[7.56018250000000000e+05,8.09716796875000000e+04,6.75046562500000000e+05,1.45732885742187500e+03,7.95143515625000000e+04,4.61508867187500000e+04,6.28895687500000000e+05,1.15081787109375000e+03,3.06511077880859375e+02,3.00988378906250000e+04,4.94155117187500000e+04,4.46999843750000000e+04,1.45090087890625000e+03,2.23887480468750000e+04,6.06506937500000000e+05,6.72534942626953125e+01,1.08356433105468750e+03,1.91761489868164062e+02,1.14749565124511719e+02,1.54305224609375000e+03,2.85557851562500000e+04,3.40976593017578125e+02,4.90745351562500000e+04,1.24196459960937500e+03,4.34580195312500000e+04,3.27434051513671875e+02,1.12346679687500000e+03,1.53051259765625000e+04,7.08362109375000000e+03,3.18037617187500000e+04,5.74703187500000000e+05,6.62293777465820312e+01,1.02411353588104248e+00,2.50970825195312500e+02,8.32593505859375000e+02,1.03398561477661133e+00,1.90727508544921875e+02,4.01890525817871094e+01,7.45605163574218750e+01,1.40763504028320312e+02,1.40228869628906250e+03,1.22621498107910156e+01,2.85435234375000000e+04,2.63716068267822266e+01,3.14604980468750000e+02,2.98794891357421875e+02,4.87757382812500000e+04,5.20632934570312500e+02,7.21331604003906250e+02,4.28689804687500000e+04,5.89040588378906250e+02,5.55543022155761719e+01,2.71879730224609375e+02,6.61278076171875000e+01,1.05733898925781250e+03,4.79238052368164062e+01,1.52572021484375000e+04,5.10860302734375000e+03,1.97501831054687500e+03,3.72953735351562500e+03,2.80742246093750000e+04,2.57407343750000000e+04,5.48962437500000000e+05],"tree_param":{"num_feature":"12139","num_nodes":"63","size_leaf_vector":"0"}},{"base_weights":[-4.55118268728256226e-02,9.02746856212615967e-01,-2.44328513741493225e-01,-2.80745238065719604e-01,1.02582347393035889e+00,1.02988684177398682e+00,-3.29734236001968384e-01,1.00789976119995117e+00,-4.33107078075408936e-01,-4.49413210153579712e-01,1.06112587451934814e+00,1.70491188764572144e-01,1.11962282657623291e+00,6.26203000545501709e-01,-4.01925593614578247e-01,-5.78605055809020996e-01,1.06228935718536377e+00,4.35714930295944214e-01,-4.72694009542465210e-01,7.43581771850585938e-01,-5.35586357116699219e-01,-4.91126030683517456e-01,1.08020830154418945e+00,1.07054984569549561e+00,9.83712524175643921e-02,-4.15534377098083496e-01,1.14274740219116211e+00,-6.15669965744018555e-01,7.12528049945831299e-01,1.15686094760894775e+00,-4.23529654741287231e-01,1.72798871994018555e-01,-6.03677093982696533e-01,-6.62831664085388184e-01,1.08161962032318115e+00,1.19051849842071533e+00,1.57512411475181580e-01,6.20192050933837891e-01,-4.92006182670593262e-01,-1.08068399131298065e-01,9.46743845939636230e-01,3.25165987014770508e-01,-5.59130191802978516e-01,8.15667927265167236e-01,-5.43848752975463867e-01,3.23628306388854980e-01,1.09462082386016846e+00,1.09341454505920410e+00,-3.32262784242630005e-01,-3.53914359584450722e-03,5.57521939277648926e-01,7.96788573265075684e-01,-4.51697587966918945e-01,1.27789950370788574e+00,9.65367257595062256e-01,8.24388861656188965e-01,-6.26350641250610352e-01,1.24469232559204102e+00,5.83222210407257080e-01,2.02025628089904785e+00,3.88686180114746094e-01,7.99473047256469727e-01,-4.42181289196014404e-01],"default_left":[false,false,false,false,false,false,false,false,false,false,false,false,false,false,false,false,false,false,false,false,false,false,false,true,true,false,false,false,false,false,false,false,false,false,false,false,false,false,false,false,false,false,false,false,false,false,false,false,false,false,false,false,false,false,false,false,false,false,false,false,false,false,false],"id":6,"leaf_child_counts":[0,0,0,0,0,0,0,0,0,0,0,0,0,0,0,2,2,2,2,2,2,2,2,2,2,2,2,2,2,2,2,0,0,0,0,0,0,0,0,0,0,0,0,0,0,0,0,0,0,0,0,0,0,0,0,0,0,0,0,0,0,0,0],"left_children":[1,3,5,7,9,11,13,15,17,19,21,23,25,27,29,31,33,35,37,39,41,43,45,47,49,51,53,55,57,59,61,-1,-1,-1,-1,-1,-1,-1,-1,-1,-1,-1,-1,-1,-1,-1,-1,-1,-1,-1,-1,-1,-1,-1,-1,-1,-1,-1,-1,-1,-1,-1,-1],"loss_changes":[1.23767421875000000e+05,1.65743359375000000e+04,5.90600390625000000e+04,2.10505004882812500e+03,5.36815625000000000e+03,2.62882812500000000e+03,3.50998125000000000e+04,9.84387207031250000e+01,3.29925292968750000e+02,2.48100585937500000e+02,2.98213281250000000e+03,2.09189514160156250e+02,1.09625390625000000e+03,3.82907128906250000e+03,1.59259296875000000e+04,8.24433326721191406e-01,3.72802734375000000e+01,8.76475448608398438e+01,1.93831298828125000e+02,2.82593307495117188e+01,4.57329711914062500e+01,8.47124938964843750e+01,1.08392187500000000e+03,8.03204345703125000e+00,1.39732421875000000e+02,2.04742279052734375e+01,7.27781250000000000e+02,3.62256469726562500e+01,2.29708203125000000e+03,4.28695117187500000e+03,1.06402343750000000e+04,0.00000000000000000e+00,0.00000000000000000e+00,0.00000000000000000e+00,0.00000000000000000e+00,0.00000000000000000e+00,0.00000000000000000e+00,0.00000000000000000e+00,0.00000000000000000e+00,0.00000000000000000e+00,0.00000000000000000e+00,0.00000000000000000e+00,0.00000000000000000e+00,0.00000000000000000e+00,0.00000000000000000e+00,0.00000000000000000e+00,0.00000000000000000e+00,0.00000000000000000e+00,0.00000000000000000e+00,0.00000000000000000e+00,0.00000000000000000e+00,0.00000000000000000e+00,0.00000000000000000e+00,0.00000000000000000e+00,0.00000000000000000e+00,0.00000000000000000e+00,0.00000000000000000e+00,0.00000000000000000e+00,0.00000000000000000e+00,0.00000000000000000e+00,0.00000000000000000e+00,0.00000000000000000e+00,0.00000000000000000e+00],"parents":[2147483647,0,0,1,1,2,2,3,3,4,4,5,5,6,6,7,7,8,8,9,9,10,10,11,11,12,12,13,13,14,14,15,15,16,16,17,17,18,18,19,19,20,20,21,21,22,22,23,23,24,24,25,25,26,26,27,27,28,28,29,29,30,30],"right_children":[2,4,6,8,10,12,14,16,18,20,22,24,26,28,30,32,34,36,38,40,42,44,46,48,50,52,54,56,58,60,62,-1,-1,-1,-1,-1,-1,-1,-1,-1,-1,-1,-1,-1,-1,-1,-1,-1,-1,-1,-1,-1,-1,-1,-1,-1,-1,-1,-1,-1,-1,-1,-1],"split_conditions":[1.35000000000000000e+01,1.60000000000000000e+01,1.20000009536743164e+01,6.00000095367431641e+00,1.55000000000000000e+01,1.00000009536743164e+01,1.35000000000000000e+01,4.00000095367431641e+00,2.50000000000000000e+00,4.00000095367431641e+00,4.00000095367431641e+00,2.80000000000000000e+01,5.20000000000000000e+01,3.00000000000000000e+01,8.00000095367431641e+00,1.40000009536743164e+01,4.00000095367431641e+00,2.00000095367431641e+00,4.00000000000000000e+00,6.00000095367431641e+00,2.50000000000000000e+00,4.00000095367431641e+00,1.40000009536743164e+01,1.50000000000000000e+00,1.50000000000000000e+00,6.00000095367431641e+00,2.75000000000000000e+01,2.00000095367431641e+00,1.25000000000000000e+01,6.00000095367431641e+00,1.95000000000000000e+01,5.18396645784378052e-02,-1.81103140115737915e-01,-1.98849514126777649e-01,3.24485898017883301e-01,3.57155561447143555e-01,4.72537241876125336e-02,1.86057627201080322e-01,-1.47601857781410217e-01,-3.24205197393894196e-02,2.84023165702819824e-01,9.75498035550117493e-02,-1.67739063501358032e-01,2.44700387120246887e-01,-1.63154631853103638e-01,9.70884934067726135e-02,3.28386247158050537e-01,3.28024387359619141e-01,-9.96788367629051208e-02,-1.06174312531948090e-03,1.67256593704223633e-01,2.39036574959754944e-01,-1.35509282350540161e-01,3.83369863033294678e-01,2.89610177278518677e-01,2.47316673398017883e-01,-1.87905207276344299e-01,3.73407721519470215e-01,1.74966663122177124e-01,6.06076896190643311e-01,1.16605855524539948e-01,2.39841923117637634e-01,-1.32654398679733276e-01],"split_indices":[7520,2478,7534,12016,5719,7538,9432,11167,11890,12016,11712,9432,7588,2139,11428,2608,8206,11595,7534,11167,11890,12016,7533,831,4203,4550,6632,10442,6882,11890,6926,0,0,0,0,0,0,0,0,0,0,0,0,0,0,0,0,0,0,0,0,0,0,0,0,0,0,0,0,0,0,0,0],"sum_hessian":[6.56485687500000000e+05,1.13784671875000000e+05,5.42701000000000000e+05,1.07182109375000000e+04,1.03066460937500000e+05,3.40895156250000000e+04,5.08611468750000000e+05,1.13267395019531250e+03,9.58553710937500000e+03,2.40845996093750000e+03,1.00658000000000000e+05,3.22327734375000000e+03,3.08662382812500000e+04,3.57122656250000000e+04,4.72899218750000000e+05,3.72244987487792969e+01,1.09544946289062500e+03,4.17285552978515625e+02,9.16825097656250000e+03,1.61735656738281250e+02,2.24672436523437500e+03,1.22210131835937500e+03,9.94358984375000000e+04,2.38088058471679688e+02,2.98518945312500000e+03,4.57796417236328125e+02,3.04084414062500000e+04,2.32068847656250000e+03,3.33915781250000000e+04,6.46384863281250000e+03,4.66435375000000000e+05,1.01170754432678223e+00,3.62127914428710938e+01,1.17697677612304688e+01,1.08367968750000000e+03,1.11497474670410156e+02,3.05788085937500000e+02,1.58656829833984375e+02,9.00959472656250000e+03,3.12412414550781250e+01,1.30494415283203125e+02,5.94766464233398438e+01,2.18724780273437500e+03,4.68324813842773438e+01,1.17526879882812500e+03,1.85923425292968750e+03,9.75766640625000000e+04,2.34486679077148438e+02,3.60137748718261719e+00,2.44377563476562500e+03,5.41413818359375000e+02,1.26511344909667969e+01,4.45145294189453125e+02,1.72550273437500000e+04,1.31534140625000000e+04,1.65244750976562500e+01,2.30416406250000000e+03,6.52578320312500000e+03,2.68657949218750000e+04,3.04253784179687500e+03,3.42131079101562500e+03,7.00597753906250000e+03,4.59429375000000000e+05],"tree_param":{"num_feature":"12139","num_nodes":"63","size_leaf_vector":"0"}},{"base_weights":[-3.84398996829986572e-01,1.20240843296051025e+00,-4.95680212974548340e-01,1.25366866588592529e+00,1.08008074760437012e+00,1.14093208312988281e+00,-5.64374923706054688e-01,1.20388102531433105e+00,1.29195070266723633e+00,1.18323242664337158e+00,7.89856731891632080e-01,1.17789065837860107e+00,1.09130539000034332e-01,1.20025575160980225e+00,-5.83338499069213867e-01,-3.35065901279449463e-01,1.20404219627380371e+00,1.18048536777496338e+00,1.33407688140869141e+00,5.27148008346557617e-01,1.20334243774414062e+00,1.09366917610168457e+00,6.16949439048767090e-01,-5.75320899486541748e-01,1.18909335136413574e+00,1.07125234603881836e+00,-2.80433773994445801e-01,-2.79690563678741455e-01,1.22895383834838867e+00,1.16331458091735840e+00,-5.96556425094604492e-01,1.20420706272125244e+00,-1.03886559605598450e-01,-5.10080456733703613e-01,1.18116891384124756e+00,6.43415153026580811e-01,1.33674120903015137e+00,2.68529683351516724e-01,8.07707905769348145e-01,3.41473855078220367e-02,1.21123993396759033e+00,2.75196898728609085e-02,1.10333955287933350e+00,8.29793691635131836e-01,1.23768068850040436e-01,4.98308449983596802e-01,-5.89085578918457031e-01,5.68093836307525635e-01,1.19481027126312256e+00,-5.82206070423126221e-01,1.10472369194030762e+00,1.52490448951721191e+00,-3.50538790225982666e-01,-4.53199028968811035e-01,1.20904588699340820e+00,-1.15041829645633698e-01,1.23817050457000732e+00,-4.44010287523269653e-01,1.19124495983123779e+00,1.30594599246978760e+00,-6.01439774036407471e-01],"default_left":[false,false,false,false,false,false,false,false,false,false,false,false,false,false,false,false,true,false,false,false,false,false,false,false,false,false,false,true,false,false,false,false,false,false,false,false,false,false,false,false,false,false,false,false,false,false,false,false,false,false,false,false,false,false,false,false,false,false,false,false,false],"id":7,"leaf_child_counts":[0,0,0,0,0,0,0,1,0,0,0,0,0,0,0,0,2,2,2,2,2,2,2,2,2,2,2,2,2,2,2,0,0,0,0,0,0,0,0,0,0,0,0,0,0,0,0,0,0,0,0,0,0,0,0,0,0,0,0,0,0],"left_children":[1,3,5,7,9,11,13,15,17,19,21,23,25,27,29,-1,31,33,35,37,39,41,43,45,47,49,51,53,55,57,59,-1,-1,-1,-1,-1,-1,-1,-1,-1,-1,-1,-1,-1,-1,-1,-1,-1,-1,-1,-1,-1,-1,-1,-1,-1,-1,-1,-1,-1,-1],"loss_changes":[1.07370820312500000e+05,2.48515625000000000e+02,6.38815625000000000e+04,5.19531250000000000e+01,3.51548828125000000e+02,8.72722656250000000e+02,1.82489062500000000e+04,3.43359375000000000e+00,7.28867187500000000e+01,1.13951171875000000e+02,1.61671020507812500e+02,4.34695312500000000e+02,2.97382873535156250e+02,2.46603515625000000e+02,1.24565937500000000e+04,0.00000000000000000e+00,2.75976562500000000e+00,5.63867187500000000e+00,2.03027343750000000e+01,1.86528015136718750e+01,7.77587890625000000e+01,1.15129394531250000e+01,2.06882141113281250e+02,2.37691879272460938e+00,7.72753906250000000e+01,1.32973022460937500e+01,7.20400161743164062e+01,2.92488098144531250e+01,7.06005859375000000e+01,1.82458496093750000e+02,4.97556250000000000e+03,0.00000000000000000e+00,0.00000000000000000e+00,0.00000000000000000e+00,0.00000000000000000e+00,0.00000000000000000e+00,0.00000000000000000e+00,0.00000000000000000e+00,0.00000000000000000e+00,0.00000000000000000e+00,0.00000000000000000e+00,0.00000000000000000e+00,0.00000000000000000e+00,0.00000000000000000e+00,0.00000000000000000e+00,0.00000000000000000e+00,0.00000000000000000e+00,0.00000000000000000e+00,0.00000000000000000e+00,0.00000000000000000e+00,0.00000000000000000e+00,0.00000000000000000e+00,0.00000000000000000e+00,0.00000000000000000e+00,0.00000000000000000e+00,0.00000000000000000e+00,0.00000000000000000e+00,0.00000000000000000e+00,0.00000000000000000e+00,0.00000000000000000e+00,0.00000000000000000e+00],"parents":[2147483647,0,0,1,1,2,2,3,3,4,4,5,5,6,6,7,7,8,8,9,9,10,10,11,11,12,12,13,13,14,14,16,16,17,17,18,18,19,19,20,20,21,21,22,22,23,23,24,24,25,25,26,26,27,27,28,28,29,29,30,30],"right_children":[2,4,6,8,10,12,14,16,18,20,22,24,26,28,30,-1,32,34,36,38,40,42,44,46,48,50,52,54,56,58,60,-1,-1,-1,-1,-1,-1,-1,-1,-1,-1,-1,-1,-1,-1,-1,-1,-1,-1,-1,-1,-1,-1,-1,-1,-1,-1,-1,-1,-1,-1],"split_conditions":[1.70000000000000000e+01,6.00000095367431641e+00,6.00000095367431641e+00,4.00000095367431641e+00,7.20000000000000000e+01,6.00000095367431641e+00,3.50000000000000000e+00,2.00000095367431641e+00,2.80000000000000000e+01,2.50000000000000000e+00,6.50000000000000000e+00,4.00000095367431641e+00,2.40000000000000000e+01,4.00000095367431641e+00,1.60000000000000000e+01,-1.00519776344299316e-01,6.00000000000000000e+00,8.00000095367431641e+00,2.50000000000000000e+00,1.50000000000000000e+00,4.00000095367431641e+00,4.00000095367431641e+00,1.40000009536743164e+01,2.00000095367431641e+00,1.50000000000000000e+00,4.00000095367431641e+00,6.00000095367431641e+00,2.50000000000000000e+00,4.00000095367431641e+00,4.00000095367431641e+00,4.00000095367431641e+00,3.61262142658233643e-01,-3.11659686267375946e-02,-1.53024137020111084e-01,3.54350686073303223e-01,1.93024560809135437e-01,4.01022374629974365e-01,8.05589109659194946e-02,2.42312386631965637e-01,1.02442158386111259e-02,3.63371998071670532e-01,8.25590733438730240e-03,3.31001877784729004e-01,2.48938113451004028e-01,3.71304228901863098e-02,1.49492546916007996e-01,-1.76725685596466064e-01,1.70428156852722168e-01,3.58443081378936768e-01,-1.74661830067634583e-01,3.31417113542556763e-01,4.57471370697021484e-01,-1.05161644518375397e-01,-1.35959714651107788e-01,3.62713783979415894e-01,-3.45125496387481689e-02,3.71451169252395630e-01,-1.33203089237213135e-01,3.57373505830764771e-01,3.91783803701400757e-01,-1.80431932210922241e-01],"split_indices":[5719,11167,11929,11712,8786,11712,5683,10288,7520,11890,7988,10288,7988,10286,9067,0,4567,2211,8469,8786,12016,12016,5721,5485,10286,11981,6474,8786,10427,9950,11167,0,0,0,0,0,0,0,0,0,0,0,0,0,0,0,0,0,0,0,0,0,0,0,0,0,0,0,0,0,0],"sum_hessian":[6.08046937500000000e+05,3.98466328125000000e+04,5.68200312500000000e+05,2.80734667968750000e+04,1.17731669921875000e+04,2.28881191406250000e+04,5.45312187500000000e+05,1.22170429687500000e+04,1.58564228515625000e+04,8.68371484375000000e+03,3.08945141601562500e+03,2.20964941406250000e+04,7.91625061035156250e+02,5.79721777343750000e+03,5.39514937500000000e+05,1.06187748908996582e+00,1.22159814453125000e+04,4.35696337890625000e+03,1.14994599609375000e+04,2.59063842773437500e+02,8.42465136718750000e+03,1.11861914062500000e+03,1.97083215332031250e+03,1.39976791381835938e+02,2.19565175781250000e+04,2.27646926879882812e+02,5.63978149414062500e+02,1.10110870361328125e+02,5.68710693359375000e+03,4.05150512695312500e+03,5.35463437500000000e+05,1.22145214843750000e+04,1.46017217636108398e+00,1.45983612537384033e+00,4.35550341796875000e+03,4.51229934692382812e+01,1.14543369140625000e+04,1.35821517944335938e+02,1.23242309570312500e+02,5.65592994689941406e+01,8.36809179687500000e+03,1.00896663665771484e+01,1.10852954101562500e+03,1.37621228027343750e+03,5.94619873046875000e+02,1.32627987861633301e+00,1.38650512695312500e+02,2.01203918457031250e+02,2.17553125000000000e+04,4.19158792495727539e+00,2.23455337524414062e+02,2.03060779571533203e+01,5.43672058105468750e+02,9.92402496337890625e+01,1.08706207275390625e+01,3.86563377380371094e+01,5.64845019531250000e+03,6.89456100463867188e+01,3.98255957031250000e+03,1.37022631835937500e+03,5.34093250000000000e+05],"tree_param":{"num_feature":"12139","num_nodes":"61","size_leaf_vector":"0"}},{"base_weights":[-1.43730342388153076e-01,6.30833089351654053e-01,-3.50543528795242310e-01,-7.07005560398101807e-02,7.98955202102661133e-01,7.81828403472900391e-01,-4.20343279838562012e-01,7.84236013889312744e-01,-2.27267816662788391e-01,-3.16397547721862793e-02,8.40478420257568359e-01,1.53708502650260925e-01,8.60185384750366211e-01,2.05020576715469360e-01,-4.64680761098861694e-01,-5.81005573272705078e-01,8.31998109817504883e-01,9.55129086971282959e-01,-2.75318562984466553e-01,8.55677545070648193e-01,-2.57775723934173584e-01,8.66685926914215088e-01,-2.74409711360931396e-01,8.94351303577423096e-01,-2.10243478417396545e-01,-2.17922031879425049e-01,8.71212363243103027e-01,-4.22053545713424683e-01,6.23133599758148193e-01,6.90914273262023926e-01,-4.81541991233825684e-01,7.82635450363159180e-01,-6.09169661998748779e-01,8.77022743225097656e-01,4.99857701361179352e-02,1.13540983200073242e+00,4.99367058277130127e-01,4.54612880945205688e-01,-3.38203400373458862e-01,2.28245005011558533e-01,9.64305102825164795e-01,8.06564450263977051e-01,-3.66575509309768677e-01,8.91887545585632324e-01,1.31646141409873962e-01,9.07502233982086182e-01,-4.32815998792648315e-01,9.98038530349731445e-01,-2.07732990384101868e-01,1.14661657810211182e+00,-3.13476830720901489e-01,5.50254166126251221e-01,-4.19423282146453857e-01,-1.67883232235908508e-01,8.79294395446777344e-01,1.03426229953765869e+00,-4.56482291221618652e-01,-3.72541576623916626e-01,7.86728382110595703e-01,-1.23541317880153656e-01,8.56426894664764404e-01,1.63390234112739563e-01,-4.97457116842269897e-01],"default_left":[false,false,false,false,false,false,false,false,false,false,true,false,false,false,false,false,true,false,false,false,false,true,false,true,false,false,false,false,false,false,false,false,false,false,false,false,false,false,false,false,false,false,false,false,false,false,false,false,false,false,false,false,false,false,false,false,false,false,false,false,false,false,false],"id":8,"leaf_child_counts":[0,0,0,0,0,0,0,0,0,0,0,0,0,0,0,2,2,2,2,2,2,2,2,2,2,2,2,2,2,2,2,0,0,0,0,0,0,0,0,0,0,0,0,0,0,0,0,0,0,0,0,0,0,0,0,0,0,0,0,0,0,0,0],"left_children":[1,3,5,7,9,11,13,15,17,19,21,23,25,27,29,31,33,35,37,39,41,43,45,47,49,51,53,55,57,59,61,-1,-1,-1,-1,-1,-1,-1,-1,-1,-1,-1,-1,-1,-1,-1,-1,-1,-1,-1,-1,-1,-1,-1,-1,-1,-1,-1,-1,-1,-1,-1,-1],"loss_changes":[9.25146953125000000e+04,1.43546718750000000e+04,3.60282695312500000e+04,3.14972070312500000e+03,3.38612890625000000e+03,1.30246191406250000e+03,1.19049218750000000e+04,2.37984375000000000e+02,1.13021325683593750e+03,9.38373352050781250e+02,2.73229687500000000e+03,7.91781433105468750e+02,2.79927734375000000e+02,7.45328857421875000e+03,7.81241406250000000e+03,5.22771453857421875e+00,1.23879638671875000e+02,6.32660522460937500e+01,8.77440917968750000e+02,6.45143432617187500e+01,4.31844421386718750e+02,1.69221093750000000e+03,4.02598266601562500e+02,1.10797302246093750e+02,2.76283020019531250e+02,3.72307434082031250e+01,1.95755859375000000e+02,5.70661499023437500e+02,2.77835595703125000e+03,7.77415039062500000e+02,4.05614843750000000e+03,0.00000000000000000e+00,0.00000000000000000e+00,0.00000000000000000e+00,0.00000000000000000e+00,0.00000000000000000e+00,0.00000000000000000e+00,0.00000000000000000e+00,0.00000000000000000e+00,0.00000000000000000e+00,0.00000000000000000e+00,0.00000000000000000e+00,0.00000000000000000e+00,0.00000000000000000e+00,0.00000000000000000e+00,0.00000000000000000e+00,0.00000000000000000e+00,0.00000000000000000e+00,0.00000000000000000e+00,0.00000000000000000e+00,0.00000000000000000e+00,0.00000000000000000e+00,0.00000000000000000e+00,0.00000000000000000e+00,0.00000000000000000e+00,0.00000000000000000e+00,0.00000000000000000e+00,0.00000000000000000e+00,0.00000000000000000e+00,0.00000000000000000e+00,0.00000000000000000e+00,0.00000000000000000e+00,0.00000000000000000e+00],"parents":[2147483647,0,0,1,1,2,2,3,3,4,4,5,5,6,6,7,7,8,8,9,9,10,10,11,11,12,12,13,13,14,14,15,15,16,16,17,17,18,18,19,19,20,20,21,21,22,22,23,23,24,24,25,25,26,26,27,27,28,28,29,29,30,30],"right_children":[2,4,6,8,10,12,14,16,18,20,22,24,26,28,30,32,34,36,38,40,42,44,46,48,50,52,54,56,58,60,62,-1,-1,-1,-1,-1,-1,-1,-1,-1,-1,-1,-1,-1,-1,-1,-1,-1,-1,-1,-1,-1,-1,-1,-1,-1,-1,-1,-1,-1,-1,-1,-1],"split_conditions":[7.50000000000000000e+00,3.80000000000000000e+01,3.50000000000000000e+00,3.50000000000000000e+00,2.60000000000000000e+01,1.05000000000000000e+01,2.50000000000000000e+00,1.40000009536743164e+01,4.00000095367431641e+00,5.00000000000000000e+00,1.50000000000000000e+00,9.50000000000000000e+00,1.60000000000000000e+01,3.40000000000000000e+01,2.50000000000000000e+00,2.00000095367431641e+00,3.50000000000000000e+00,4.00000095367431641e+00,1.20000009536743164e+01,2.40000000000000000e+01,1.00000009536743164e+01,3.50000000000000000e+00,8.00000095367431641e+00,3.50000000000000000e+00,4.00000095367431641e+00,1.20000009536743164e+01,1.80000000000000000e+01,7.50000000000000000e+00,2.20000000000000000e+01,2.50000000000000000e+00,6.50000000000000000e+00,2.34790638089179993e-01,-1.82750910520553589e-01,2.63106822967529297e-01,1.49957314133644104e-02,3.40622961521148682e-01,1.49810120463371277e-01,1.36383876204490662e-01,-1.01461023092269897e-01,6.84735029935836792e-02,2.89291530847549438e-01,2.41969347000122070e-01,-1.09972655773162842e-01,2.67566263675689697e-01,3.94938439130783081e-02,2.72250682115554810e-01,-1.29844799637794495e-01,2.99411565065383911e-01,-6.23199008405208588e-02,3.43984991312026978e-01,-9.40430536866188049e-02,1.65076255798339844e-01,-1.25826984643936157e-01,-5.03649711608886719e-02,2.63788342475891113e-01,3.10278713703155518e-01,-1.36944696307182312e-01,-1.11762478947639465e-01,2.36018523573875427e-01,-3.70623953640460968e-02,2.56928086280822754e-01,4.90170717239379883e-02,-1.49237141013145447e-01],"split_indices":[1736,8814,9950,6332,2232,8814,7830,1737,11673,7830,8786,6609,4256,8814,10286,10288,6632,10286,1743,2693,9950,6632,9950,6632,10286,6609,5862,6027,2232,11890,7555,0,0,0,0,0,0,0,0,0,0,0,0,0,0,0,0,0,0,0,0,0,0,0,0,0,0,0,0,0,0,0,0],"sum_hessian":[5.77528875000000000e+05,1.21706750000000000e+05,4.55822125000000000e+05,2.35284941406250000e+04,9.81782500000000000e+04,2.64650742187500000e+04,4.29357062500000000e+05,3.64127563476562500e+03,1.98872187500000000e+04,4.67446630859375000e+03,9.35037890625000000e+04,2.93563037109375000e+03,2.35294453125000000e+04,2.84252773437500000e+04,4.00931781250000000e+05,1.22704383850097656e+02,3.51857104492187500e+03,7.75887268066406250e+02,1.91113320312500000e+04,9.48791931152343750e+02,3.72567456054687500e+03,9.13565078125000000e+04,2.14727832031250000e+03,9.66778137207031250e+02,1.96885217285156250e+03,2.38035629272460938e+02,2.32914082031250000e+04,1.13711455078125000e+04,1.70541328125000000e+04,5.76527392578125000e+03,3.95166500000000000e+05,1.94092416763305664e+00,1.20763465881347656e+02,3.32690209960937500e+03,1.91669021606445312e+02,5.54900207519531250e+02,2.20987014770507812e+02,1.51538439941406250e+03,1.75959472656250000e+04,1.40480133056640625e+02,8.08311828613281250e+02,3.44933044433593750e+02,3.38074145507812500e+03,8.83278750000000000e+04,3.02863085937500000e+03,2.53218383789062500e+02,1.89405981445312500e+03,8.83728820800781250e+02,8.30493469238281250e+01,1.38489669799804688e+02,1.83036254882812500e+03,4.91047019958496094e+01,1.88930923461914062e+02,1.79607528686523438e+02,2.31118007812500000e+04,2.61945861816406250e+02,1.11091992187500000e+04,2.40647802734375000e+03,1.46476542968750000e+04,9.73774230957031250e+02,4.79150000000000000e+03,9.51653808593750000e+03,3.85649968750000000e+05],"tree_param":{"num_feature":"12139","num_nodes":"63","size_leaf_vector":"0"}},{"base_weights":[3.75633001327514648e-01,-3.68335425853729248e-01,4.49646770954132080e-01,-5.24741232395172119e-01,-2.79940128326416016e-01,-4.84283447265625000e-01,5.03411114215850830e-01,-9.95768457651138306e-02,-5.49831509590148926e-01,1.15265393257141113e+00,-2.92541921138763428e-01,4.13068123161792755e-02,-5.46645879745483398e-01,-4.82022166252136230e-01,5.42958855628967285e-01,1.48640096187591553e+00,-1.95031061768531799e-01,2.01725408434867859e-01,-5.53126215934753418e-01,-5.73083639144897461e-01,1.27822446823120117e+00,-5.28669714927673340e-01,-2.26392075419425964e-01,8.36402773857116699e-01,-1.83649197220802307e-01,5.67171573638916016e-01,-5.52722454071044922e-01,-6.08178436756134033e-01,-2.25436836481094360e-01,-3.97911608219146729e-01,5.78832983970642090e-01,1.82175230979919434e+00,6.28004372119903564e-01,9.74558234214782715e-01,-3.51825237274169922e-01,5.14340102672576904e-01,-6.21328234672546387e-01,-5.54190993309020996e-01,8.81596744060516357e-01,1.39107155799865723e+00,2.98806130886077881e-01,-4.41037714481353760e-01,-5.65856099128723145e-01,1.07918286323547363e+00,-2.39860028028488159e-01,-3.81887912750244141e-01,9.46267545223236084e-01,-5.34113347530364990e-01,1.32866770029067993e-01,-5.59554658830165863e-02,1.03945517539978027e+00,2.52148121595382690e-01,-5.59117972850799561e-01,-3.73506098985671997e-01,-6.10283732414245605e-01,-6.04142129421234131e-01,7.55477230995893478e-03,-6.98698937892913818e-01,-3.12072455883026123e-01,5.60281891375780106e-03,6.30139112472534180e-01],"default_left":[false,false,false,false,false,false,false,false,false,false,false,false,false,false,false,false,false,false,true,false,true,false,false,false,false,false,false,false,false,false,false,false,false,false,false,false,false,false,false,false,false,false,false,false,false,false,false,false,false,false,false,false,false,false,false,false,false,false,false,false,false],"id":9,"leaf_child_counts":[0,0,0,0,0,0,0,0,0,1,0,0,0,0,0,2,2,2,2,0,2,2,2,2,2,2,2,2,2,2,2,0,0,0,0,0,0,0,0,0,0,0,0,0,0,0,0,0,0,0,0,0,0,0,0,0,0,0,0,0,0],"left_children":[1,3,5,7,9,11,13,15,17,19,21,23,25,27,29,31,33,35,37,-1,39,41,43,45,47,49,51,53,55,57,59,-1,-1,-1,-1,-1,-1,-1,-1,-1,-1,-1,-1,-1,-1,-1,-1,-1,-1,-1,-1,-1,-1,-1,-1,-1,-1,-1,-1,-1,-1],"loss_changes":[4.23226093750000000e+04,9.61372070312500000e+02,3.51015781250000000e+04,2.67821777343750000e+02,8.02553710937500000e+02,1.24729882812500000e+03,2.57608437500000000e+04,2.12316680908203125e+02,5.88251953125000000e+01,8.47424926757812500e+01,6.87924804687500000e+02,7.22241699218750000e+02,2.30549804687500000e+02,8.25448730468750000e+02,2.14503906250000000e+04,2.17770233154296875e+01,2.42763778686523438e+02,2.71371364593505859e+01,3.65551757812500000e+01,0.00000000000000000e+00,3.95599365234375000e+01,3.11611328125000000e+01,6.05331054687500000e+02,1.19552917480468750e+02,3.49229492187500000e+02,5.45235595703125000e+01,1.74297851562500000e+02,8.21923828125000000e+00,7.41909973144531250e+02,6.02446777343750000e+02,1.80038750000000000e+04,0.00000000000000000e+00,0.00000000000000000e+00,0.00000000000000000e+00,0.00000000000000000e+00,0.00000000000000000e+00,0.00000000000000000e+00,0.00000000000000000e+00,0.00000000000000000e+00,0.00000000000000000e+00,0.00000000000000000e+00,0.00000000000000000e+00,0.00000000000000000e+00,0.00000000000000000e+00,0.00000000000000000e+00,0.00000000000000000e+00,0.00000000000000000e+00,0.00000000000000000e+00,0.00000000000000000e+00,0.00000000000000000e+00,0.00000000000000000e+00,0.00000000000000000e+00,0.00000000000000000e+00,0.00000000000000000e+00,0.00000000000000000e+00,0.00000000000000000e+00,0.00000000000000000e+00,0.00000000000000000e+00,0.00000000000000000e+00,0.00000000000000000e+00,0.00000000000000000e+00],"parents":[2147483647,0,0,1,1,2,2,3,3,4,4,5,5,6,6,7,7,8,8,9,9,10,10,11,11,12,12,13,13,14,14,15,15,16,16,17,17,18,18,20,20,21,21,22,22,23,23,24,24,25,25,26,26,27,27,28,28,29,29,30,30],"right_children":[2,4,6,8,10,12,14,16,18,20,22,24,26,28,30,32,34,36,38,-1,40,42,44,46,48,50,52,54,56,58,60,-1,-1,-1,-1,-1,-1,-1,-1,-1,-1,-1,-1,-1,-1,-1,-1,-1,-1,-1,-1,-1,-1,-1,-1,-1,-1,-1,-1,-1,-1],"split_conditions":[3.60000000000000000e+01,1.50000000000000000e+00,2.50000000000000000e+00,4.00000095367431641e+00,4.50000000000000000e+00,1.25000000000000000e+01,6.00000095367431641e+00,2.50000000000000000e+00,5.00000000000000000e+00,2.00000095367431641e+00,1.55000000000000000e+01,3.60000000000000000e+01,1.80000000000000000e+01,6.00000095367431641e+00,8.00000095367431641e+00,1.50000000000000000e+00,6.00000095367431641e+00,4.00000095367431641e+00,1.50000000000000000e+00,-1.71925097703933716e-01,1.50000000000000000e+00,1.50000000000000000e+00,1.60000000000000000e+01,4.00000095367431641e+00,9.50000000000000000e+00,2.00000000000000000e+01,1.60000000000000000e+01,1.50000000000000000e+00,4.00000095367431641e+00,4.00000095367431641e+00,2.50000000000000000e+00,5.46525716781616211e-01,1.88401326537132263e-01,2.92367488145828247e-01,-1.05547577142715454e-01,1.54302030801773071e-01,-1.86398476362228394e-01,-1.66257306933403015e-01,2.64479041099548340e-01,4.17321473360061646e-01,8.96418392658233643e-02,-1.32311314344406128e-01,-1.69756829738616943e-01,3.23754876852035522e-01,-7.19580128788948059e-02,-1.14566378295421600e-01,2.83880263566970825e-01,-1.60234004259109497e-01,3.98600324988365173e-02,-1.67866405099630356e-02,3.11836570501327515e-01,7.56444409489631653e-02,-1.67735397815704346e-01,-1.12051837146282196e-01,-1.83085128664970398e-01,-1.81242644786834717e-01,2.26643169298768044e-03,-2.09609687328338623e-01,-9.36217382550239563e-02,1.68084574397653341e-03,1.89041748642921448e-01],"split_indices":[7520,11595,9950,11558,6278,8814,11712,332,6185,11931,6926,869,5862,11929,12016,7720,331,11288,5124,0,9432,6926,1077,10286,6609,6609,4256,11558,10286,11595,7830,0,0,0,0,0,0,0,0,0,0,0,0,0,0,0,0,0,0,0,0,0,0,0,0,0,0,0,0,0,0],"sum_hessian":[7.68605250000000000e+05,6.95456093750000000e+04,6.99059687500000000e+05,2.51104570312500000e+04,4.44351484375000000e+04,3.80523007812500000e+04,6.61007375000000000e+05,1.39954956054687500e+03,2.37109082031250000e+04,3.86675567626953125e+02,4.40484726562500000e+04,4.03613256835937500e+03,3.40161679687500000e+04,2.55037871093750000e+04,6.35503562500000000e+05,7.86246261596679688e+01,1.32092492675781250e+03,1.03227363586425781e+02,2.36076816406250000e+04,2.59856929779052734e+01,3.60689880371093750e+02,9.63795117187500000e+03,3.44105234375000000e+04,8.89504516601562500e+02,3.14662817382812500e+03,1.84072174072265625e+02,3.38320976562500000e+04,1.70965097656250000e+04,8.40727539062500000e+03,2.33405976562500000e+04,6.12163000000000000e+05,5.57301597595214844e+01,2.28944683074951172e+01,1.55532363891601562e+02,1.16539257812500000e+03,7.50838699340820312e+01,2.81434974670410156e+01,2.35907871093750000e+04,1.68945846557617188e+01,3.23048431396484375e+02,3.76414413452148438e+01,2.87520800781250000e+03,6.76274365234375000e+03,3.50537200927734375e+02,3.40599843750000000e+04,7.33748321533203125e+01,8.16129699707031250e+02,1.49290881347656250e+03,1.65371936035156250e+03,7.97423324584960938e+01,1.04329841613769531e+02,2.66407348632812500e+02,3.35656875000000000e+04,1.53596389770507812e+02,1.69429140625000000e+04,3.20167309570312500e+03,5.20560253906250000e+03,5.18051562500000000e+03,1.81600820312500000e+04,5.02897304687500000e+04,5.61873250000000000e+05],"tree_param":{"num_feature":"12139","num_nodes":"61","size_leaf_vector":"0"}},{"base_weights":[-3.39236371219158173e-02,6.88335597515106201e-01,-2.03040108084678650e-01,-5.13852179050445557e-01,7.53760814666748047e-01,9.51341152191162109e-01,-2.71137565374374390e-01,4.37512785196304321e-01,-5.48612833023071289e-01,-5.36172509193420410e-01,7.85702824592590332e-01,1.20792400836944580e+00,8.79555702209472656e-01,6.54570758342742920e-01,-3.30087661743164062e-01,-2.07583367824554443e-01,6.99712157249450684e-01,9.84446257352828979e-02,-5.59661448001861572e-01,-5.92951476573944092e-01,-1.35801404714584351e-01,-6.30677521228790283e-01,7.97380983829498291e-01,1.06371450424194336e+00,1.53440237045288086e+00,1.02499020099639893e+00,7.40547299385070801e-01,8.73223900794982910e-01,4.47240293025970459e-01,3.32327932119369507e-01,-3.77938926219940186e-01,-5.61663031578063965e-01,9.78183522820472717e-02,7.85714685916900635e-01,-2.11297616362571716e-01,-6.17576420307159424e-01,6.08005464076995850e-01,1.67781865596771240e+00,-5.61364352703094482e-01,9.93683397769927979e-01,-5.94212174415588379e-01,-4.77959096431732178e-01,4.07381325960159302e-01,7.31174424290657043e-02,-6.34409070014953613e-01,5.83932548761367798e-02,8.07824015617370605e-01,1.06961405277252197e+00,6.88633084297180176e-01,1.29932248592376709e+00,1.71902716159820557e+00,8.08966934680938721e-01,1.06474518775939941e+00,1.14761233329772949e+00,5.51967561244964600e-01,-3.66027325391769409e-01,8.85371506214141846e-01,1.50464773178100586e-01,7.65068233013153076e-01,1.40566825866699219e+00,1.61190778017044067e-01,2.42924839258193970e-01,-4.09471780061721802e-01],"default_left":[false,false,false,false,false,false,false,false,false,false,false,false,false,false,false,false,true,false,false,false,false,false,false,true,false,false,false,false,true,false,false,false,false,false,false,false,false,false,false,false,false,false,false,false,false,false,false,false,false,false,false,false,false,false,false,false,false,false,false,false,false,false,false],"id":10,"leaf_child_counts":[0,0,0,0,0,0,0,0,0,0,0,0,0,0,0,2,2,2,2,2,2,2,2,2,2,2,2,2,2,2,2,0,0,0,0,0,0,0,0,0,0,0,0,0,0,0,0,0,0,0,0,0,0,0,0,0,0,0,0,0,0,0,0],"left_children":[1,3,5,7,9,11,13,15,17,19,21,23,25,27,29,31,33,35,37,39,41,43,45,47,49,51,53,55,57,59,61,-1,-1,-1,-1,-1,-1,-1,-1,-1,-1,-1,-1,-1,-1,-1,-1,-1,-1,-1,-1,-1,-1,-1,-1,-1,-1,-1,-1,-1,-1,-1,-1],"loss_changes":[7.44452968750000000e+04,9.09535156250000000e+03,3.88216015625000000e+04,1.97627685546875000e+02,4.51898046875000000e+03,5.05632812500000000e+02,2.54484492187500000e+04,3.58267898559570312e+01,4.12252197265625000e+01,6.01739501953125000e+01,1.77062500000000000e+03,2.81385742187500000e+02,4.33882812500000000e+02,1.26528320312500000e+03,1.38968437500000000e+04,6.73072624206542969e+00,1.19355621337890625e+01,3.59606475830078125e+01,2.25170898437500000e+01,5.23327636718750000e+00,6.16200675964355469e+01,2.34619140625000000e+00,8.19070312500000000e+02,8.49707031250000000e+00,7.76020507812500000e+01,8.93486328125000000e+01,8.43473632812500000e+02,2.04869140625000000e+02,1.35179638671875000e+03,5.42539697265625000e+03,8.00502343750000000e+03,0.00000000000000000e+00,0.00000000000000000e+00,0.00000000000000000e+00,0.00000000000000000e+00,0.00000000000000000e+00,0.00000000000000000e+00,0.00000000000000000e+00,0.00000000000000000e+00,0.00000000000000000e+00,0.00000000000000000e+00,0.00000000000000000e+00,0.00000000000000000e+00,0.00000000000000000e+00,0.00000000000000000e+00,0.00000000000000000e+00,0.00000000000000000e+00,0.00000000000000000e+00,0.00000000000000000e+00,0.00000000000000000e+00,0.00000000000000000e+00,0.00000000000000000e+00,0.00000000000000000e+00,0.00000000000000000e+00,0.00000000000000000e+00,0.00000000000000000e+00,0.00000000000000000e+00,0.00000000000000000e+00,0.00000000000000000e+00,0.00000000000000000e+00,0.00000000000000000e+00,0.00000000000000000e+00,0.00000000000000000e+00],"parents":[2147483647,0,0,1,1,2,2,3,3,4,4,5,5,6,6,7,7,8,8,9,9,10,10,11,11,12,12,13,13,14,14,15,15,16,16,17,17,18,18,19,19,20,20,21,21,22,22,23,23,24,24,25,25,26,26,27,27,28,28,29,29,30,30],"right_children":[2,4,6,8,10,12,14,16,18,20,22,24,26,28,30,32,34,36,38,40,42,44,46,48,50,52,54,56,58,60,62,-1,-1,-1,-1,-1,-1,-1,-1,-1,-1,-1,-1,-1,-1,-1,-1,-1,-1,-1,-1,-1,-1,-1,-1,-1,-1,-1,-1,-1,-1,-1,-1],"split_conditions":[1.35000000000000000e+01,1.55000000000000000e+01,8.00000095367431641e+00,4.00000095367431641e+00,4.00000095367431641e+00,4.00000095367431641e+00,1.20000009536743164e+01,6.00000095367431641e+00,2.50000000000000000e+00,4.00000095367431641e+00,4.50000000000000000e+00,1.00000009536743164e+01,4.00000095367431641e+00,2.20000000000000000e+01,2.95000000000000000e+01,2.00000095367431641e+00,2.50000000000000000e+00,4.00000095367431641e+00,2.00000095367431641e+00,2.00000095367431641e+00,2.20000000000000000e+01,2.00000095367431641e+00,4.50000000000000000e+00,-9.53674316406250000e-07,1.30000000000000000e+01,4.00000095367431641e+00,4.00000095367431641e+00,5.20000000000000000e+01,1.50000000000000000e+00,8.00000095367431641e+00,9.50000000000000000e+00,-1.68498918414115906e-01,2.93455068022012711e-02,2.35714420676231384e-01,-6.33892863988876343e-02,-1.85272932052612305e-01,1.82401642203330994e-01,5.03345608711242676e-01,-1.68409317731857300e-01,2.98105031251907349e-01,-1.78263664245605469e-01,-1.43387734889984131e-01,1.22214399278163910e-01,2.19352338463068008e-02,-1.90322726964950562e-01,1.75179764628410339e-02,2.42347210645675659e-01,3.20884227752685547e-01,2.06589937210083008e-01,3.89796763658523560e-01,5.15708148479461670e-01,2.42690086364746094e-01,3.19423556327819824e-01,3.44283699989318848e-01,1.65590271353721619e-01,-1.09808199107646942e-01,2.65611469745635986e-01,4.51394319534301758e-02,2.29520484805107117e-01,4.21700507402420044e-01,4.83572371304035187e-02,7.28774517774581909e-02,-1.22841536998748779e-01],"split_indices":[7520,5719,12016,12016,11712,11595,7534,10098,11890,11929,5683,7534,11591,1254,5760,11777,9440,11167,4166,8867,9440,11890,7964,11559,9432,11558,11428,7588,4203,11428,9432,0,0,0,0,0,0,0,0,0,0,0,0,0,0,0,0,0,0,0,0,0,0,0,0,0,0,0,0,0,0,0,0],"sum_hessian":[6.09476062500000000e+05,1.15632414062500000e+05,4.93843687500000000e+05,5.96777343750000000e+03,1.09664640625000000e+05,2.75085507812500000e+04,4.66335125000000000e+05,2.09953887939453125e+02,5.75781982421875000e+03,2.64957006835937500e+03,1.07015070312500000e+05,6.01025683593750000e+03,2.14982949218750000e+04,2.79182089843750000e+04,4.38416906250000000e+05,6.07347793579101562e+01,1.49219100952148438e+02,9.65319824218750000e+01,5.66128759765625000e+03,2.32006713867187500e+03,3.29502990722656250e+02,8.74700683593750000e+02,1.06140375000000000e+05,4.17178613281250000e+03,1.83847094726562500e+03,1.05031884765625000e+04,1.09951054687500000e+04,1.35865058593750000e+04,1.43317031250000000e+04,2.95361015625000000e+04,4.08880812500000000e+05,2.77373180389404297e+01,3.29974632263183594e+01,1.36473098754882812e+02,1.27460050582885742e+01,4.00470237731933594e+01,5.64849624633789062e+01,3.55701589584350586e+00,5.65773046875000000e+03,1.21703505516052246e+00,2.31885009765625000e+03,2.02233566284179688e+02,1.27269416809082031e+02,4.51518058776855469e+00,8.70185485839843750e+02,1.47911035156250000e+03,1.04661257812500000e+05,4.10536279296875000e+03,6.64231414794921875e+01,8.12264404296875000e+02,1.02620654296875000e+03,1.63580358886718750e+03,8.86738476562500000e+03,3.47941528320312500e+03,7.51569042968750000e+03,1.31604370117187500e+02,1.34549023437500000e+04,7.41206982421875000e+03,6.91963281250000000e+03,4.06073193359375000e+03,2.54753691406250000e+04,1.97624746093750000e+04,3.89118343750000000e+05],"tree_param":{"num_feature":"12139","num_nodes":"63","size_leaf_vector":"0"}},{"base_weights":[-3.50483059883117676e-01,-4.79618012905120850e-01,7.22398817539215088e-01,8.36661756038665771e-01,-5.28335809707641602e-01,9.69050288200378418e-01,4.47563588619232178e-01,9.30006802082061768e-01,6.57205641269683838e-01,8.49757075309753418e-01,-5.55443823337554932e-01,-4.60228890180587769e-01,9.70730900764465332e-01,9.50224876403808594e-01,8.11491813510656357e-03,-2.84699827432632446e-01,9.31016027927398682e-01,3.79376560449600220e-02,7.03428387641906738e-01,9.20129835605621338e-01,-8.92729833722114563e-02,9.21661674976348877e-01,-5.67599356174468994e-01,-5.13020455837249756e-01,5.98758935928344727e-01,-7.64047652482986450e-02,9.72655594348907471e-01,-1.94307148456573486e-01,9.50846254825592041e-01,9.68554794788360596e-01,-2.35464960336685181e-01,6.98156833648681641e-01,-8.05334985256195068e-01,9.38850879669189453e-01,8.24998438358306885e-01,6.84279859066009521e-01,-1.13369330763816833e-01,-2.14290559291839600e-01,7.30077624320983887e-01,-3.07470113039016724e-01,9.47428107261657715e-01,7.46261656284332275e-01,-3.39936077594757080e-01,-2.43845432996749878e-01,9.55435931682586670e-01,9.59618091583251953e-01,-5.75122594833374023e-01,3.66110891103744507e-01,-5.65618813037872314e-01,9.12991106510162354e-01,-3.48619848489761353e-01,-1.69291928410530090e-01,9.74292576313018799e-01,-5.97927570343017578e-01,4.17382121086120605e-01,4.75677639245986938e-01,9.52038884162902832e-01,-5.64960002899169922e-01,9.81362938880920410e-01,1.14115405082702637e+00,-3.36588382720947266e-01],"default_left":[true,false,false,false,false,false,false,false,false,false,false,true,false,false,false,false,false,false,false,false,false,false,false,false,false,false,false,false,false,false,false,false,false,false,false,false,false,false,false,false,false,false,false,false,false,false,false,false,false,false,false,false,false,false,false,false,false,false,false,false,false],"id":11,"leaf_child_counts":[0,0,0,0,0,0,0,0,0,0,0,1,0,0,0,2,2,2,2,2,2,2,2,2,0,2,2,2,2,2,2,0,0,0,0,0,0,0,0,0,0,0,0,0,0,0,0,0,0,0,0,0,0,0,0,0,0,0,0,0,0],"left_children":[1,3,5,7,9,11,13,15,17,19,21,23,25,27,29,31,33,35,37,39,41,43,45,47,-1,49,51,53,55,57,59,-1,-1,-1,-1,-1,-1,-1,-1,-1,-1,-1,-1,-1,-1,-1,-1,-1,-1,-1,-1,-1,-1,-1,-1,-1,-1,-1,-1,-1,-1],"loss_changes":[7.31428828125000000e+04,3.02175156250000000e+04,3.84430273437500000e+03,2.81118164062500000e+02,1.69754453125000000e+04,7.22441406250000000e+01,5.92603515625000000e+03,1.38251953125000000e+01,1.64796875000000000e+02,5.79371582031250000e+02,8.00182812500000000e+03,2.30764389038085938e+00,6.02460937500000000e+01,9.08496093750000000e+00,3.34909008789062500e+03,5.65289020538330078e+00,8.40625000000000000e+00,3.92938308715820312e+01,1.31198486328125000e+02,2.73581542968750000e+02,1.28443511962890625e+02,1.43426757812500000e+02,5.07889062500000000e+03,1.80805110931396484e+00,0.00000000000000000e+00,1.53207006454467773e+01,5.58710937500000000e+01,2.13094067573547363e+00,6.63476562500000000e+00,5.74392089843750000e+01,1.59009594726562500e+03,0.00000000000000000e+00,0.00000000000000000e+00,0.00000000000000000e+00,0.00000000000000000e+00,0.00000000000000000e+00,0.00000000000000000e+00,0.00000000000000000e+00,0.00000000000000000e+00,0.00000000000000000e+00,0.00000000000000000e+00,0.00000000000000000e+00,0.00000000000000000e+00,0.00000000000000000e+00,0.00000000000000000e+00,0.00000000000000000e+00,0.00000000000000000e+00,0.00000000000000000e+00,0.00000000000000000e+00,0.00000000000000000e+00,0.00000000000000000e+00,0.00000000000000000e+00,0.00000000000000000e+00,0.00000000000000000e+00,0.00000000000000000e+00,0.00000000000000000e+00,0.00000000000000000e+00,0.00000000000000000e+00,0.00000000000000000e+00,0.00000000000000000e+00,0.00000000000000000e+00],"parents":[2147483647,0,0,1,1,2,2,3,3,4,4,5,5,6,6,7,7,8,8,9,9,10,10,11,11,12,12,13,13,14,14,15,15,16,16,17,17,18,18,19,19,20,20,21,21,22,22,23,23,25,25,26,26,27,27,28,28,29,29,30,30],"right_children":[2,4,6,8,10,12,14,16,18,20,22,24,26,28,30,32,34,36,38,40,42,44,46,48,-1,50,52,54,56,58,60,-1,-1,-1,-1,-1,-1,-1,-1,-1,-1,-1,-1,-1,-1,-1,-1,-1,-1,-1,-1,-1,-1,-1,-1,-1,-1,-1,-1,-1,-1],"split_conditions":[1.50000000000000000e+00,3.20000000000000000e+01,3.00000000000000000e+01,6.00000095367431641e+00,6.00000095367431641e+00,4.00000095367431641e+00,1.25000000000000000e+01,1.50000000000000000e+00,6.00000095367431641e+00,6.00000095367431641e+00,1.60000000000000000e+01,1.50000000000000000e+00,8.00000095367431641e+00,2.00000095367431641e+00,4.00000095367431641e+00,6.00000095367431641e+00,2.50000000000000000e+00,3.50000000000000000e+00,4.00000095367431641e+00,1.50000000000000000e+00,2.40000000000000000e+01,2.00000095367431641e+00,1.20000000000000000e+01,2.00000095367431641e+00,1.79627686738967896e-01,1.20000009536743164e+01,1.20000009536743164e+01,3.50000000000000000e+00,1.50000000000000000e+00,2.00000095367431641e+00,2.00000000000000000e+01,2.09447056055068970e-01,-2.41600498557090759e-01,2.81655281782150269e-01,2.47499540448188782e-01,2.05283969640731812e-01,-3.40108014643192291e-02,-6.42871707677841187e-02,2.19023302197456360e-01,-9.22410339117050171e-02,2.84228444099426270e-01,2.23878502845764160e-01,-1.01980827748775482e-01,-7.31536298990249634e-02,2.86630779504776001e-01,2.87885427474975586e-01,-1.72536790370941162e-01,1.09833270311355591e-01,-1.69685646891593933e-01,2.73897349834442139e-01,-1.04585960507392883e-01,-5.07875792682170868e-02,2.92287796735763550e-01,-1.79378271102905273e-01,1.25214636325836182e-01,1.42703294754028320e-01,2.85611689090728760e-01,-1.69488012790679932e-01,2.94408887624740601e-01,3.42346221208572388e-01,-1.00976519286632538e-01],"split_indices":[8786,5719,7988,11167,11929,10288,5719,11687,11890,11712,9067,2693,7968,10442,11712,5721,10098,4090,12016,11673,7988,10286,2139,3616,0,9065,7990,8786,8469,10288,8206,0,0,0,0,0,0,0,0,0,0,0,0,0,0,0,0,0,0,0,0,0,0,0,0,0,0,0,0,0,0],"sum_hessian":[5.27926562500000000e+05,4.71210875000000000e+05,5.67156601562500000e+04,1.68173027343750000e+04,4.54393562500000000e+05,2.98890976562500000e+04,2.68265625000000000e+04,1.10601347656250000e+04,5.75716699218750000e+03,8.76520312500000000e+03,4.45628375000000000e+05,3.47829666137695312e+01,2.98543144531250000e+04,1.25127500000000000e+04,1.43138125000000000e+04,8.94829654693603516e+00,1.10511865234375000e+04,4.00000183105468750e+02,5.35716650390625000e+03,8.15413623046875000e+03,6.11066650390625000e+02,3.63667309570312500e+03,4.41991687500000000e+05,3.36224136352539062e+01,1.16055297851562500e+00,5.47030334472656250e+01,2.97996113281250000e+04,6.62029266357421875e+00,1.25061298828125000e+04,2.89516162109375000e+03,1.14186513671875000e+04,2.98057889938354492e+00,5.96771764755249023e+00,1.02833720703125000e+04,7.67814453125000000e+02,7.52083206176757812e+01,3.24791870117187500e+02,1.50975830078125000e+02,5.20619091796875000e+03,1.77157028198242188e+02,7.97697900390625000e+03,1.40560272216796875e+02,4.70506378173828125e+02,1.02241020202636719e+02,3.53443212890625000e+03,2.16600805664062500e+03,4.39825687500000000e+05,1.56158232688903809e+00,3.20608329772949219e+01,1.12952527999877930e+01,4.34077796936035156e+01,4.25096778869628906e+01,2.97571015625000000e+04,4.00205326080322266e+00,2.61823940277099609e+00,3.23114967346191406e+01,1.24738183593750000e+04,2.36234073638916016e+01,2.87153808593750000e+03,7.80686279296875000e+02,1.06379648437500000e+04],"tree_param":{"num_feature":"12139","num_nodes":"61","size_leaf_vector":"0"}},{"base_weights":[-1.23537667095661163e-01,5.32177627086639404e-01,-3.15671384334564209e-01,-5.47070838510990143e-02,6.67846679687500000e-01,6.44870221614837646e-01,-3.79454523324966431e-01,6.51467561721801758e-01,-1.89219042658805847e-01,-4.45198386907577515e-01,6.91559553146362305e-01,1.14146560430526733e-01,7.14693963527679443e-01,-5.24651706218719482e-01,-1.94854915142059326e-01,-4.64282542467117310e-01,6.96975111961364746e-01,-5.33160984516143799e-01,-2.03630756586790085e-02,7.33943104743957520e-01,-5.36007404327392578e-01,-3.81991863250732422e-01,7.13264524936676025e-01,6.81056082248687744e-01,-1.84692889451980591e-01,-3.73083233833312988e-01,7.25874185562133789e-01,2.08653733134269714e-01,-5.31768798828125000e-01,4.58355337381362915e-01,-2.78482466936111450e-01,7.68465816974639893e-01,-5.69496035575866699e-01,-3.59595745801925659e-01,7.31463253498077393e-01,9.60659623146057129e-01,-5.40409386157989502e-01,7.16964602470397949e-01,-1.39344349503517151e-01,7.57975161075592041e-01,-6.66053175926208496e-01,3.65278303623199463e-01,-5.90014874935150146e-01,5.52227497100830078e-01,-4.88370001316070557e-01,1.75565063953399658e-01,7.44297027587890625e-01,7.58772194385528564e-01,-1.78795948624610901e-01,9.98870134353637695e-01,-2.80581623315811157e-01,4.42414730787277222e-01,-6.02087497711181641e-01,7.34526515007019043e-01,-2.02124044299125671e-01,1.63413763046264648e+00,9.02101118117570877e-03,-5.33248245716094971e-01,1.92518532276153564e+00,-3.30710470676422119e-01,6.14664256572723389e-01,7.72020995616912842e-01,-3.10741752386093140e-01],"default_left":[false,false,false,false,false,false,false,false,false,false,false,false,false,false,false,false,false,false,false,true,false,false,false,true,false,false,true,false,true,false,false,false,false,false,false,false,false,false,false,false,false,false,false,false,false,false,false,false,false,false,false,false,false,false,false,false,false,false,false,false,false,false,false],"id":12,"leaf_child_counts":[0,0,0,0,0,0,0,0,0,0,0,0,0,0,0,2,2,2,2,2,2,2,2,2,2,2,2,2,2,2,2,0,0,0,0,0,0,0,0,0,0,0,0,0,0,0,0,0,0,0,0,0,0,0,0,0,0,0,0,0,0,0,0],"left_children":[1,3,5,7,9,11,13,15,17,19,21,23,25,27,29,31,33,35,37,39,41,43,45,47,49,51,53,55,57,59,61,-1,-1,-1,-1,-1,-1,-1,-1,-1,-1,-1,-1,-1,-1,-1,-1,-1,-1,-1,-1,-1,-1,-1,-1,-1,-1,-1,-1,-1,-1,-1,-1],"loss_changes":[6.48844765625000000e+04,9.29271093750000000e+03,2.44030820312500000e+04,2.08178051757812500e+03,2.50230468750000000e+03,9.19022460937500000e+02,1.00111093750000000e+04,1.78373168945312500e+02,1.06912768554687500e+03,2.12197479248046875e+02,2.16308593750000000e+03,4.88867797851562500e+02,2.66833984375000000e+02,1.09121875000000000e+03,8.98301269531250000e+03,1.83389091491699219e+01,1.23049194335937500e+02,6.61550292968750000e+01,1.08339587402343750e+03,5.27787780761718750e+00,8.96430664062500000e+01,1.83136688232421875e+02,1.51797656250000000e+03,6.66938476562500000e+01,2.14761627197265625e+02,4.20329818725585938e+01,1.74351562500000000e+02,5.72060852050781250e+02,7.53660156250000000e+02,2.30215795898437500e+03,4.94048925781250000e+03,0.00000000000000000e+00,0.00000000000000000e+00,0.00000000000000000e+00,0.00000000000000000e+00,0.00000000000000000e+00,0.00000000000000000e+00,0.00000000000000000e+00,0.00000000000000000e+00,0.00000000000000000e+00,0.00000000000000000e+00,0.00000000000000000e+00,0.00000000000000000e+00,0.00000000000000000e+00,0.00000000000000000e+00,0.00000000000000000e+00,0.00000000000000000e+00,0.00000000000000000e+00,0.00000000000000000e+00,0.00000000000000000e+00,0.00000000000000000e+00,0.00000000000000000e+00,0.00000000000000000e+00,0.00000000000000000e+00,0.00000000000000000e+00,0.00000000000000000e+00,0.00000000000000000e+00,0.00000000000000000e+00,0.00000000000000000e+00,0.00000000000000000e+00,0.00000000000000000e+00,0.00000000000000000e+00,0.00000000000000000e+00],"parents":[2147483647,0,0,1,1,2,2,3,3,4,4,5,5,6,6,7,7,8,8,9,9,10,10,11,11,12,12,13,13,14,14,15,15,16,16,17,17,18,18,19,19,20,20,21,21,22,22,23,23,24,24,25,25,26,26,27,27,28,28,29,29,30,30],"right_children":[2,4,6,8,10,12,14,16,18,20,22,24,26,28,30,32,34,36,38,40,42,44,46,48,50,52,54,56,58,60,62,-1,-1,-1,-1,-1,-1,-1,-1,-1,-1,-1,-1,-1,-1,-1,-1,-1,-1,-1,-1,-1,-1,-1,-1,-1,-1,-1,-1,-1,-1,-1,-1],"split_conditions":[7.50000000000000000e+00,3.80000000000000000e+01,4.50000000000000000e+00,4.50000000000000000e+00,2.40000000000000000e+01,1.05000000000000000e+01,5.20000000000000000e+01,2.60000000000000000e+01,1.25000000000000000e+01,3.50000000000000000e+00,7.60000000000000000e+01,9.50000000000000000e+00,1.60000000000000000e+01,8.50000000000000000e+00,2.50000000000000000e+00,2.00000095367431641e+00,2.40000000000000000e+01,2.00000095367431641e+00,6.00000095367431641e+00,1.50000000000000000e+00,1.00000009536743164e+01,6.50000000000000000e+00,4.00000000000000000e+01,3.50000000000000000e+00,6.00000095367431641e+00,1.80000000000000000e+01,2.50000000000000000e+00,4.00000095367431641e+00,-9.53674316406250000e-07,3.60000000000000000e+01,4.00000095367431641e+00,2.30539754033088684e-01,-1.70848816633224487e-01,-1.07878729701042175e-01,2.19438984990119934e-01,2.88197904825210571e-01,-1.62122815847396851e-01,2.15089395642280579e-01,-4.18033078312873840e-02,2.27392554283142090e-01,-1.99815958738327026e-01,1.09583497047424316e-01,-1.77004471421241760e-01,1.65668249130249023e-01,-1.46511003375053406e-01,5.26695214211940765e-02,2.23289117217063904e-01,2.27631673216819763e-01,-5.36387860774993896e-02,2.99661040306091309e-01,-8.41744914650917053e-02,1.32724419236183167e-01,-1.80626258254051208e-01,2.20357969403266907e-01,-6.06372170150279999e-02,4.90241318941116333e-01,2.70630349405109882e-03,-1.59974485635757446e-01,5.77555596828460693e-01,-9.92131456732749939e-02,1.84399276971817017e-01,2.31606304645538330e-01,-9.32225286960601807e-02],"split_indices":[1736,8814,9950,6332,4256,8814,8814,624,2463,9950,624,6609,2985,6027,7830,11673,4256,10288,10286,624,7555,6332,2693,6632,5533,6609,1892,11295,11675,2693,10286,0,0,0,0,0,0,0,0,0,0,0,0,0,0,0,0,0,0,0,0,0,0,0,0,0,0,0,0,0,0,0,0],"sum_hessian":[5.15015093750000000e+05,1.16708781250000000e+05,3.98306312500000000e+05,2.19137343750000000e+04,9.47950468750000000e+04,2.48013574218750000e+04,3.73504968750000000e+05,3.50563745117187500e+03,1.84080976562500000e+04,1.97705908203125000e+03,9.28179843750000000e+04,2.88388159179687500e+03,2.19174765625000000e+04,2.09063671875000000e+05,1.64441281250000000e+05,1.37018753051757812e+02,3.36861865234375000e+03,6.06077539062500000e+03,1.23473212890625000e+04,1.40865097045898438e+02,1.83619396972656250e+03,1.83906921386718750e+03,9.09789140625000000e+04,9.95017517089843750e+02,1.88886413574218750e+03,2.22646835327148438e+02,2.16948300781250000e+04,2.00929321289062500e+03,2.07054390625000000e+05,1.86627871093750000e+04,1.45778500000000000e+05,1.02790403366088867e+01,1.26739707946777344e+02,1.06183441162109375e+02,3.26243530273437500e+03,2.86313076019287109e+01,6.03214404296875000e+03,1.71492089843750000e+03,1.06324003906250000e+04,1.38938690185546875e+02,1.92640781402587891e+00,1.03483299255371094e+02,1.73271069335937500e+03,1.87575775146484375e+02,1.65149353027343750e+03,4.96456884765625000e+03,8.60143437500000000e+04,9.12647155761718750e+02,8.23703155517578125e+01,1.40855499267578125e+02,1.74800866699218750e+03,4.86103935241699219e+01,1.74036437988281250e+02,2.14946289062500000e+04,2.00200454711914062e+02,2.45943069458007812e+02,1.76335009765625000e+03,2.06930562500000000e+05,1.23820121765136719e+02,3.08553393554687500e+03,1.55772529296875000e+04,4.34256933593750000e+03,1.41435921875000000e+05],"tree_param":{"num_feature":"12139","num_nodes":"63","size_leaf_vector":"0"}},{"base_weights":[2.98254966735839844e-01,-3.11307042837142944e-01,3.51154059171676636e-01,-4.89356875419616699e-01,-2.16951519250869751e-01,-4.45432513952255249e-01,3.88971805572509766e-01,-4.09359447658061981e-02,-5.18674075603485107e-01,-4.87283587455749512e-01,-1.46848708391189575e-01,4.56068776547908783e-02,-5.14511764049530029e-01,-5.11539041996002197e-01,4.16099131107330322e-01,3.71403425931930542e-01,-4.16251301765441895e-01,2.07665354013442993e-01,-5.22505760192871094e-01,-3.84204328060150146e-01,-5.32366812229156494e-01,5.57694971561431885e-01,-1.74963012337684631e-01,-4.54341769218444824e-01,3.18343549966812134e-01,4.89601612091064453e-01,-5.23212015628814697e-01,-1.60514354705810547e-01,-5.36058604717254639e-01,-4.28822368383407593e-01,4.43791002035140991e-01,1.16721606254577637e+00,2.47042804956436157e-01,5.21059036254882812e-01,-4.40495043992996216e-01,4.58246231079101562e-01,-5.63235461711883545e-01,1.10609424114227295e+00,-5.23540914058685303e-01,6.83735072612762451e-01,-3.96704107522964478e-01,-5.33064663410186768e-01,1.56889092922210693e+00,-5.49455821514129639e-01,8.17932665348052979e-01,5.02351462841033936e-01,-2.01614111661911011e-01,1.04660820960998535e+00,-4.84864860773086548e-01,-2.52163827419281006e-01,5.13462603092193604e-01,-3.83550167083740234e-01,8.70915830135345459e-01,-5.86964339017868042e-02,-5.35365700721740723e-01,8.88442337512969971e-01,-2.58503913879394531e-01,5.92968940734863281e-01,